2640 24
AAA -0.8653803 -0.18777537 0.6196839 0.081849046 0.2465128 -0.9098897 -0.92175555 -0.24147409 -0.8593035 -0.7614906 0.5305861 -0.18058515 -0.32828173 1.2237508 0.15470591 0.9676869 1.2595087 -0.10306457 -0.3681312 0.49688417 0.50424194 -0.07829961 -0.6356436 0.124279834
AAC 0.15392055 -0.40135163 0.29201436 0.5159844 -0.1310727 0.41904977 0.564705 1.3949133 -0.8127491 -0.22602972 0.05063297 0.19118366 -0.0719644 0.43999216 -0.0984035 0.8657311 0.14812903 -1.1872134 -0.9469382 0.5486728 1.098799 0.022441 0.81149966 -1.2872367
AAD 0.7863116 0.04554636 1.2247009 -0.032235622 -0.19687732 0.08952877 0.0043255016 0.91952765 0.19489571 0.9152491 0.0019306242 0.18174689 -0.07055795 0.5335684 -0.94436693 0.3052162 -0.40364808 0.57767177 0.007743582 0.23215635 -0.039851695 0.29019964 0.49632987 0.9991342
AAF 0.104681894 0.11020069 -1.0449929 0.76803005 -1.1128088 -0.108295545 -0.33985287 0.28460836 0.54701567 -0.5618297 -0.7991749 0.5007002 -0.2629782 -1.3112969 1.0900433 1.6837822 0.16243017 -0.6829399 -0.29631627 0.19043832 0.93469 0.17840171 -1.185387 -0.53689635
AAG -0.62654185 0.12746996 0.41423228 -1.2570999 -0.22580133 -0.5398888 -0.4953096 -1.1239117 0.26917785 0.575405 1.6967747 -0.49679217 -0.11874598 0.9114929 -1.0355473 0.12478479 0.17658237 -0.84762394 -0.17361015 0.392282 0.30233794 -0.9123038 -0.40095684 -0.32280135
AAH -0.12453112 -0.6132941 -1.3516681 0.53217113 0.4177108 0.029208727 0.13405585 -0.35112542 0.12946442 -0.3605073 0.44320932 -0.29475915 0.59486973 0.007461603 0.111363575 0.7983088 -0.5387725 0.056608014 -0.18676606 -0.14321226 -0.21690764 0.25787896 -0.056264646 -0.4180664
AAL -0.5958651 -0.16802627 -0.3942319 0.20878775 -0.20450962 0.15445249 1.2819891 -0.63317454 0.032036446 0.76755 0.6724148 0.19522953 -1.2259958 0.95686495 -0.45499504 0.14316332 1.2090862 -0.41001117 0.2896835 0.5578001 -0.33646765 0.7101706 0.21292083 0.019354086
AAN 0.16412912 1.3042026 0.15273383 0.39771754 -0.5205216 0.37956864 -0.45686537 0.2277492 -0.20221978 0.019245893 -0.6779424 0.18991494 0.6300957 0.93996185 -0.3579626 -1.7188842 -0.48103577 0.7612046 -0.6808904 -0.7676457 1.0877686 0.5702755 -0.5973467 -0.12940124
AAP 0.63038826 -0.11627424 0.17547974 -0.32750863 0.56663233 0.449813 0.7294905 -0.8776414 0.5045425 0.09178889 0.31373203 -0.052175984 -0.51676494 0.24361846 0.07113343 -0.6619539 -0.38984925 -0.56046754 -0.18295373 0.79792637 -0.40611896 0.4519717 0.21268904 0.892655
AAR -0.73544335 -0.39772132 0.07428324 -0.69642365 2.0904403 -0.17063269 -0.28635854 0.53125376 0.026998289 0.8403964 0.06360541 -0.95968115 -0.118674845 0.7922019 0.5524501 0.4954239 -0.046245158 0.85510635 0.37362847 0.22636233 -0.94907373 0.116331995 0.0464222 0.8596772
AAS -1.2163935 -0.10761882 0.5787839 -0.30505866 -0.7164302 1.0807853 -0.23704383 -0.19563031 0.7516702 1.1558213 -0.57791877 0.3454537 -0.38494468 -0.92113876 0.6161748 1.1350693 -0.42609033 -0.7295724 -0.23965356 -0.46959946 -0.015690433 -0.65492404 -0.6823936 0.5320522
AAT -0.52663195 1.0670483 -0.19892241 1.0377545 0.12430009 0.839237 -0.32552972 0.006106198 0.8303116 0.8723075 0.5390284 0.9534389 -0.018949032 0.4292639 -1.4096646 0.06077545 0.71203053 0.44245112 -0.13597417 0.42458752 0.5550503 0.7353426 -0.15305775 -0.7214879
AAV -0.24482793 0.92018104 0.2088183 0.9864079 -0.5460806 0.46887988 -0.64053154 -0.49411696 0.252978 1.0938722 -0.43880764 0.031198882 -0.73485154 -0.07311917 -0.1337795 -0.10879424 -1.111089 0.7390123 1.3107291 -0.9348984 -0.29482073 -0.49823663 -0.26978567 -0.53733945
AAY 1.1701015 -0.40266585 0.6427196 -0.87842005 0.5118003 0.14214306 0.056627855 -0.86332977 -0.7977921 -0.14779717 0.420491 -0.15125526 0.9427861 -0.16632192 0.049897432 0.28812814 0.6210084 -1.0608437 -0.4202057 0.94099504 -0.06941582 -0.6763042 -0.34033495 0.16021183
ACA -0.64289445 -1.1186869 -0.38712856 -0.5102727 0.2844475 1.0088323 0.4206045 0.84052145 0.079295576 0.25089514 0.12594768 -0.99645925 0.18926758 -0.30299208 0.07927179 -0.08221646 -0.38026783 0.1572141 0.38898918 -0.3718866 -0.1297389 -0.7021117 0.457587 -0.1296499
ACG 1.2974417 -0.9678422 -0.08112985 -0.6433258 0.49332076 0.8910024 -0.702601 -0.067460656 -0.172345 0.7810454 -0.04383768 -0.911708 0.41459298 1.05143 0.34847105 0.5356318 -1.0861284 -1.3226275 -1.2476411 -0.6082368 -1.4646297 -0.884585 0.10710474 -0.7143564
ACR 0.30967906 -0.15937541 1.8948532 0.51428497 0.6719748 0.60329247 0.20472503 -0.43061763 -1.0459931 -0.4754785 0.069418296 0.29665536 1.0536947 0.61831176 -1.25231 -0.3579506 0.45755172 0.67180747 -0.26763278 -0.4640576 0.030350104 0.62400305 0.24948186 0.42670792
ACV -0.090053946 -0.2874118 0.113988705 0.6508209 0.45132437 0.9554213 -0.26833874 -1.366995 -0.07214064 0.7192745 0.45588174 -0.8037805 -0.31308582 0.6242836 0.042260967 -0.16389145 -0.70298296 -1.3650956 -0.95064044 -0.77257156 -0.71243757 -1.0597545 0.83429444 0.4454816
ADE 0.55094 -0.44769517 -0.0007699579 -1.0213511 0.49219376 0.1405472 -0.14782369 0.6707716 0.7364694 0.2886087 -0.63277453 -0.14703986 -0.24405813 -1.074679 -0.23181018 -0.080310225 0.26933062 -0.3978732 -0.41311523 1.4548066 -0.7516743 0.5552524 -0.2811039 -0.2506951
ADF 1.2849829 -0.4585146 0.20658171 -1.2063264 -0.5615773 -0.59347576 1.5294545 0.14339629 0.13367547 0.056371648 -0.062094912 0.5292471 -0.5237348 0.09488323 0.0031702518 -0.07004297 -0.75668454 0.30509952 0.051388748 0.9580264 0.07482442 -0.01617515 1.3111382 -0.0734262
ADG -0.7911667 -0.44686228 -0.49004626 0.27970266 0.15331368 -1.4544492 0.035829842 0.31209138 0.95270586 -1.154223 -0.32152167 0.084052235 -1.6270866 0.14192918 -0.41047853 -0.473738 -0.9684326 1.0365713 -0.43537575 1.2423586 0.42030698 -0.7346295 -0.4757851 -0.018992955
ADH -0.44856536 -0.92087793 -0.63816446 0.47395355 -0.62330484 1.0538135 -0.118211985 -0.3688661 -0.42210954 -0.004537776 0.6566198 -0.25480756 0.50224054 -0.05055757 -0.2855622 -0.5192007 0.036840558 1.1777891 -0.9748985 -0.9883958 0.14887631 -1.1068935 -0.87700623 0.78076077
ADI 0.04998465 0.6791044 0.05215639 0.6212226 -0.47409475 -0.007934768 0.23545471 -0.12898123 -0.2144273 -0.118757784 0.25608358 0.50915426 0.8726948 -0.3212844 1.1516223 0.8693283 1.0484647 0.31021792 0.057589382 0.37582415 0.74149615 0.6644697 0.1659737 8.940697e-06
ADL -0.02766487 0.37095332 -0.14168441 -0.22251806 0.6620008 -0.12550876 0.2624834 1.5247929 0.05489268 0.67608607 -0.2188294 0.27259576 -0.29293963 0.47553885 -0.016738966 0.25637472 -0.7771224 -0.33736655 0.68980527 0.7906761 0.015728645 0.5186989 -0.25250325 0.08283013
ADR -0.23458475 -1.4750543 -1.1823193 -0.18026601 0.47771236 -0.085777484 0.6855914 0.04848647 0.19479868 -0.10086419 -0.23166078 -0.40440977 -0.7102541 -0.020446002 -0.73061275 1.104615 -0.021335853 -1.0122274 0.9571051 -1.0775183 -0.5352828 0.4852239 -0.5631429 -0.16931377
ADS 0.28224093 -0.07450759 0.34745333 -0.06412299 0.7284856 0.47154838 0.82169443 0.9481645 -0.092025906 0.15386577 0.11184156 0.45743412 -0.38438523 0.386876 1.0985533 -1.3498943 -0.21520032 -0.27517655 -0.21973081 1.444315 -0.9330806 1.4678054 0.775138 0.30578607
ADT -0.30398464 0.070789814 0.4833027 -1.0932117 -0.24451067 0.07659447 -0.73267585 -0.2925995 -0.20132747 -0.06401799 0.5467159 0.353677 0.6796227 0.3315817 -0.48123318 0.61364603 0.2624155 1.1917892 -1.0590541 0.7305479 0.42888793 0.083724126 0.33727664 0.17821002
ADV 0.00025445223 -0.32759136 -0.9312221 -0.4989205 0.53228647 0.14320402 -0.27352515 0.9109704 -1.0522192 -0.869996 -0.5008132 -1.0840025 0.012330607 0.9617435 -0.0667182 0.5583123 -0.75434816 0.66951585 0.5140648 -0.9202998 -0.22080904 0.82535225 -0.67843926 -0.39690354
ADY 1.1909043 0.047333032 -0.5482895 -0.63322353 -0.22199564 0.38078368 -0.30207124 -0.77082527 0.73324424 0.4041468 0.936746 0.42096823 -0.250036 0.7710598 -0.6512015 -0.3054129 -0.5088027 0.6127851 -0.09835671 -0.22102517 -0.9300286 -0.441433 -0.3108537 -0.159944
AEA 0.11909957 -0.7910521 0.7993159 -0.059810966 -1.0129932 0.9621537 -0.3672188 -0.3098942 0.2604353 0.44607657 -0.37371075 1.5969267 -0.26420143 0.4046884 -0.22575764 -0.09807331 0.034727335 -0.9242259 -0.3534322 0.8375154 -0.89239055 -0.28868058 -0.48085892 0.14136755
AEC 0.022969872 0.2269481 -0.64384997 0.22732365 -1.0508723 -1.0318708 0.86628747 -0.6522423 0.5431685 0.59871614 0.04636307 0.92888945 1.0121865 0.51298165 0.73225653 -0.28336447 -0.1736539 0.6923647 0.72533435 0.08569102 0.48395854 0.022517525 -0.5554029 0.6238784
AEE -0.08722762 0.105181985 -0.2540229 -0.025117379 0.17741317 0.0017569065 -0.28845787 -1.4608117 1.2059059 -0.08087832 -0.8464422 0.078636706 0.59032506 0.6759974 0.2656813 -0.36184308 0.16976202 -0.77110326 0.014523566 -0.36989442 0.57437307 -0.40628994 0.025787717 -0.8300809
AEG -0.3806058 0.01777557 0.83754367 -0.95804787 -0.80351233 0.65813464 -0.42133418 0.08876559 -0.66643894 0.11425337 -0.9056295 0.4300334 -1.0111825 0.42496842 -1.3564196 -0.13882795 0.4888274 -0.16142425 0.46168977 0.42716098 -1.2813299 -0.31641114 0.28019387 0.037883405
AEH -0.75501263 -0.15225819 -0.9016988 -0.8224496 0.48197964 0.66308326 0.13729313 0.07470458 -0.30972558 -0.34892368 0.5970193 -0.17905271 0.35559177 0.45203513 0.24988987 0.7430285 -0.60614824 -0.08276622 -0.0153697245 0.59756064 0.15429638 -1.1070225 0.5855696 1.0956798
AEI -0.30315486 -1.0036497 -0.36741534 -0.9066693 0.30406678 0.35849392 -0.039103672 -0.71469265 -0.44506165 -0.31304678 -0.87909997 0.71063817 -0.28658238 0.34631756 -0.38420853 -0.53917027 0.57906365 -0.77553 -0.00059977174 -1.0340625 -0.7116292 -0.23924643 1.3523375 -0.14237624
AEK -0.17080721 -0.05126512 -0.92995566 1.043906 -0.3791796 0.88376915 0.32625094 -0.72109187 0.4434888 0.04556969 -0.11259422 -0.7236089 -0.02799961 0.12771344 -0.5323936 -0.10154386 -0.6631862 0.002965659 0.22722465 -0.73236656 0.13747767 0.058956303 -0.53572327 -0.7290906
AEL -0.1702567 -0.14558674 0.8170403 -0.15268135 -0.37029892 -0.26765415 -0.6032909 0.41510168 0.090549946 -0.32932028 -0.06696907 -0.8008777 -0.616036 0.655618 0.003322363 -1.0094373 1.1244056 -1.0304558 0.76970965 -1.457865 -0.3987652 -0.34700742 0.52311474 -0.09378554
AER -1.7844107 -0.39828497 0.7087528 -0.96630317 0.36764675 0.6265387 0.9354806 -1.1149105 -0.9772606 0.056659937 0.20874977 -0.52458745 -0.32510567 1.1144522 0.9302126 1.1767324 -0.25455266 0.23941512 1.5054263 -0.70740473 0.27586353 -0.3453927 0.27737233 0.56734514
AET 0.77994233 0.16461614 -0.25365913 0.6326457 0.7508266 0.53422916 -0.7222197 -0.5567976 -0.2858078 -0.9367937 -0.9628465 -0.70595956 0.1431967 -0.57431793 -0.14591685 -0.16038367 0.042327613 0.1428968 -0.09263323 0.019751787 0.6915119 0.4836184 -0.32186514 -0.6471536
AEV 1.1640892 0.097815394 -0.5521648 0.42955434 0.118191525 0.35648543 0.6359196 0.17412364 0.6153691 0.17264251 -0.44632435 0.1942257 0.5265256 -0.6814449 -0.63672477 -0.36314225 -0.37033075 -0.6617656 0.3933753 1.0096712 -0.22571684 -0.2545253 -0.58060384 -0.53170955
AFA 0.9754775 0.3128196 1.1353447 0.4628139 -0.5650797 0.3112219 -0.01757288 0.0057702065 -0.22082138 1.0624924 -0.21293344 -0.10812342 0.14317021 0.16659284 0.60013354 0.15171593 0.45567822 -0.8655082 0.07692401 -1.726767 -0.11059673 0.055724375 -0.6245045 0.11642659
AFD 0.26198694 -0.033548743 1.6571906 1.3557682 0.5638466 -0.69770277 -0.09879634 0.5658572 -0.041716635 0.23538545 -0.6887825 -0.48667893 -1.0121095 -0.5096024 0.38093343 0.24848446 0.15803027 0.4812512 0.034945905 -0.29508656 1.0318925 0.41517472 0.16269735 0.11126295
AFE -0.15463522 1.4844837 0.5039246 -0.13494712 1.2683163 1.431778 0.6564733 -0.38740173 0.4917795 -0.114243284 -0.8947674 -0.10814946 -0.5170222 -0.6293063 0.44754142 -0.45293373 0.3610149 0.08050633 -0.5430323 0.18017146 -0.9058516 0.03973803 -0.3441028 1.0245749
AFI 0.7229496 0.5289408 0.9912456 0.48730576 0.19715723 -0.18168433 0.43861443 -0.2326007 0.4647349 0.11263401 -0.012427628 -0.4694969 -0.78563994 -1.2724091 0.38428503 -0.59119046 0.7441868 -0.036143303 -0.18152288 -0.13643627 0.35649973 0.16286373 1.70318 0.455838
AFN 0.05248511 0.25050604 -0.08500922 0.9506269 -0.2801334 -0.6020423 0.99332726 -0.42320484 -1.1255136 0.8297187 -0.533298 -0.4697444 0.35224876 -0.4008814 0.48535755 -0.6329527 -0.16360912 -1.0310419 -0.40545577 -2.9795187 -0.83971024 -0.6205438 0.35354668 -0.53192526
AFR -0.44062385 0.85580933 -1.2651056 -1.007191 0.15622035 1.8579128 -0.10710105 1.005522 -1.4028364 -0.07059118 0.37178755 0.4655876 0.21096203 -0.3281858 0.1273616 -0.24268802 -0.4039181 -0.23898053 -0.37000608 0.28421277 -0.022396684 0.33648255 0.47497803 -0.99672234
AFS 0.8524891 -1.2143619 -0.35099578 -0.4209836 1.0851369 0.18495113 -0.089807615 0.49674225 0.9818486 -0.5070935 -1.0080357 -0.16956554 -0.8125215 -0.43688887 -0.7940499 0.9976164 0.6963931 1.0619303 -1.18198 -0.5019242 1.3035017 -0.33112025 0.5381663 -0.27879658
AFV -0.4873362 0.17661828 0.37499073 1.1213574 0.47232527 -0.9356259 1.3349125 0.8640157 -0.056107223 0.56934845 -0.27803883 -0.004109863 0.67808765 -0.44935736 0.1988229 0.17976022 0.096331775 -0.1474346 0.88028204 0.5547679 -0.48135322 -0.7206698 0.25157323 0.5271681
AGA 0.4859745 -0.05796299 0.2551187 -1.4971433 1.2520084 0.25843605 0.94437265 0.060015142 -0.2851129 -1.0452421 0.92624784 0.46341434 0.10331461 0.26418617 -0.4764765 0.35871154 1.1436993 0.43523118 -0.8061806 -0.71550095 0.27856597 -0.36393118 -0.9351692 -1.6563262
AGG 1.2601631 0.17607495 0.15475622 -0.7831869 -0.3630023 -0.09078395 1.8185982 0.42128444 -0.9971432 -0.3091327 0.79021585 0.4196943 0.14078343 -0.44509372 0.62669206 -0.7414694 -0.35191453 -0.3882228 -0.4753127 0.10822156 -0.7682586 -0.09979841 0.7634896 0.38999653
AGI 0.46731192 -1.1271931 0.23471889 0.55972385 -1.158879 0.5419227 -1.5617672 0.9637637 0.18445182 0.9521317 0.9125799 0.40007654 -0.23677863 -0.17565313 0.21473439 -0.414276 0.23894714 0.017723322 -0.6276634 -0.31226042 0.49793226 0.80478376 0.06854406 -0.8580513
AGL 0.13734034 0.69952375 -1.9240183 -1.0737451 -0.8263436 -0.2097818 -0.34078515 0.6366202 0.14317961 -1.0411448 -1.4853982 0.703185 -0.3574484 0.45429897 -0.5773654 -0.10780844 0.11192763 0.20488335 -0.4280783 0.5513134 0.3106284 0.47766605 1.0391235 0.4124611
AGM -0.4163856 -0.08150193 -0.75944424 -1.6471038 0.80893284 -0.28310335 -0.7861592 -0.33451575 0.4257154 -0.20432012 -1.2706724 0.24356553 0.08105871 0.6602532 0.15832567 -0.38771904 0.7942922 -0.29676706 -0.73230016 -0.95618856 -0.25231433 -0.5678402 0.026331425 0.8116385
AGQ -0.5731078 0.13495266 0.49042687 1.0429783 -0.8208301 -0.025079295 0.07524371 0.09408171 -0.4020517 -0.6831756 0.025474787 0.27136135 -0.16346407 -0.7886716 0.4578425 0.9390368 0.114786915 0.5683674 0.19550219 0.19646648 0.42522943 -1.0010791 -0.42112797 -0.13410208
AGT 0.54778504 -0.1457008 1.0982826 0.20484075 0.41095108 -0.51137835 -0.059218585 0.83849216 -0.45883876 -0.04235348 -0.46626163 -0.47355106 -0.44668382 0.32151636 0.20015903 -0.51853836 -0.2970565 -0.13081637 0.9045532 1.0245556 -0.064209186 0.7107967 0.9014127 -0.5589843
AGV -0.206487 -0.051509425 0.28255057 0.019150302 0.41539758 1.1324397 -0.97242177 0.17656194 0.5145585 0.6248172 1.0597438 0.2803254 -0.8383323 -0.85601616 -0.59157133 0.1836501 -1.2617536 -1.3171701 0.7839447 1.1115752 -0.3152545 -0.64819753 0.09696075 0.5401178
AGY 0.58004236 -0.053383216 -0.18893403 -0.07389808 0.16857475 0.0006907135 0.98264533 0.004816234 -0.46837306 -1.255182 -0.40312448 0.24101162 -0.29127213 -0.38613218 -0.6243931 -0.7688158 -0.24247828 -0.42842856 -0.2678334 -0.6473315 -0.025749728 1.1755309 -0.49540958 0.43173283
AHA 0.66237724 -1.5335866 -0.38738966 -0.7275729 -0.0799824 0.8495252 -0.42240763 -0.27118608 -0.026202798 -0.5498908 1.0886059 1.1025373 -0.28298813 0.2512411 -0.06520012 0.31165338 0.092911236 -0.32315126 -0.17821585 0.9771768 -0.15253082 0.82544434 0.41975626 0.37524208
AHG 0.7393471 0.4685565 0.742664 0.45302662 0.996103 0.031526923 -0.9339739 0.939058 0.049835473 0.36699477 0.9755119 -0.058140576 -0.109260306 -0.5460286 -1.0154096 0.44429153 -0.7653157 -0.110642284 -0.8095233 0.51109564 0.9166703 0.5065724 -0.53504956 -0.07434365
AHL 0.11102521 -0.99835044 -1.4739022 0.6592712 -1.1321962 0.08003539 -0.2739122 -0.57695454 -0.43242288 -0.7058858 0.050078668 0.54608715 0.57269233 1.3108315 -1.179299 0.4400552 1.1416805 0.4930173 0.43917373 -0.90059745 -0.86242706 -0.043256663 -1.4601986 -0.22490978
AHM -0.4672516 0.69154185 -1.352383 -1.4731615 -1.7260492 -1.0937579 0.37711966 0.09408638 -0.23387599 0.15870732 -0.08515692 -0.13557231 0.25980818 -0.22334161 0.48549235 0.17645258 -0.4597514 -0.6053889 -0.23788887 0.048493102 0.2158427 -0.26404014 1.1529217 1.1357687
AHT -0.91362333 -0.090902776 0.64141893 0.28024775 0.73965716 0.35781384 1.006914 -0.79393387 0.053001106 0.4282316 0.074254304 -0.15621221 -0.19013007 1.099114 -0.0735028 -1.0863043 1.2763104 0.0937087 -1.8540156 0.4808464 0.4695806 0.21898577 -0.8761556 0.77476144
AIA -0.21915942 -0.06171933 0.8104281 1.0407168 1.0472234 -0.65555865 -0.44342273 -0.064310834 -0.01742202 0.30920106 -1.0215926 -0.22015077 0.5886619 0.2488609 -0.34114623 0.4627687 1.5219636 1.260953 0.63152015 -0.7907801 0.4084419 -0.22874941 -0.5258507 -0.87991655
AIF 0.10298735 -0.8866675 0.39618802 -0.84474957 -0.7269467 0.38253722 0.22212389 -0.11617339 0.16498229 0.50478446 -0.4051466 0.012820661 -0.7140309 -0.23719716 0.97265637 -0.3961806 -0.81884235 -0.17401229 0.6644384 0.07139656 -0.31456482 0.1300476 0.4473559 -0.19465995
AIG -0.05387944 0.6104351 0.22930993 0.0491836 -0.57717645 0.04859616 0.1678006 0.3526407 1.5479829 0.40611482 0.025624022 0.2756211 1.00976 0.22139922 0.9510319 -0.7146969 -0.5529627 0.9827976 0.4997739 0.057658955 0.98275876 -0.2884283 -0.3658695 0.58283544
AIH 0.9461588 -0.1453436 -0.5189615 0.71956813 -0.0989078 0.521219 -0.5069721 0.34054708 -0.3980938 0.070038386 -0.41038817 0.50372636 -0.66237444 0.16142993 0.95561945 0.74732995 -0.36640805 0.4615876 -5.9723854e-05 -0.912072 0.7085632 0.4693117 0.066746555 -0.32218838
AII -0.37795967 0.001863122 0.2369994 -0.6512863 -0.29895753 -0.20591395 -0.45180884 -0.08165844 0.32797247 0.082315244 -1.0255069 -0.12029596 0.16083103 -0.12961546 0.28258172 1.3133395 0.5638426 -1.6392815 -1.161061 0.85525644 0.5487114 0.50487983 0.68530893 -0.09188396
AIL 0.18178442 -0.8221253 -0.38231856 -0.5567376 -0.19202524 -0.31304294 -0.35731888 -0.19225036 0.35562232 -1.2837127 -0.05969859 0.44832075 -0.65286535 -0.60189986 -0.14270663 0.13187154 0.9813637 0.38563922 -0.6093055 0.4779678 1.1541979 0.08639902 0.4920948 0.617409
AIR -0.05691126 0.23918226 -1.2365112 -0.13971102 0.019176729 0.11973217 -1.2004066 0.0071618557 0.098576516 0.38056663 0.77597964 0.41909093 -0.1816949 -0.5371655 0.39011434 0.7073715 0.5925832 0.87145805 -0.06890866 -1.1430564 0.37946805 -1.3736148 0.28672165 -0.7035193
AIT -0.643622 0.70729834 0.9034702 0.08320063 -1.3860687 -0.33153558 -0.85168916 -0.41654873 -0.61138076 1.8502936 0.46181095 -0.55230254 -0.037515104 -0.2505276 -0.439196 0.13779493 0.8993436 0.043470144 1.0182991 0.13885593 0.70568347 0.17321718 -0.37846056 0.8368728
AIY 0.8939976 -0.51156497 -1.0629425 0.06288156 1.2239358 0.9307276 -0.7209688 -0.100655645 -0.023545263 0.6656923 0.42072818 -1.1554414 1.0204272 -0.017071698 -0.67056847 0.4631453 -0.21943757 -0.3462925 1.2687969 0.33473444 0.4194178 0.07714148 0.58480144 -0.4128105
AKD 1.0468841 0.48188365 -0.47613192 -0.57585925 -0.89444876 -0.27594808 0.4078439 0.16499704 -1.2685223 1.4044182 -0.0019312771 -0.026198909 1.1548036 0.51706046 -0.17011853 1.6147738 0.7601403 -0.59524506 0.06784265 -0.32304794 0.46789894 -0.15911317 0.43523252 0.65351784
AKE 1.0380416 -0.24739091 -1.0884428 0.1786612 0.04172802 0.23406933 -1.0024853 0.19436161 0.10860515 0.9903709 1.4169753 0.5669499 0.08110593 0.1603804 0.31817704 1.017679 -0.20551717 0.19092777 0.09749207 0.5760922 0.5790074 2.2961726 0.2245842 0.16929221
AKF -0.5918118 -0.33048427 0.49038574 -0.1245171 -0.15058044 -0.8629839 0.95483756 0.23266259 0.45719695 -0.23971546 -0.72034407 0.37957647 -0.23530054 -0.2920333 -0.085774094 0.43566287 0.38857013 0.41102713 -0.73833 -0.7884141 -0.4455635 -0.24181707 0.22916377 -0.75597465
AKG -1.0125791 -0.5035723 -0.3521071 -0.09631111 0.37675738 -0.0029155314 1.4066186 0.65940434 0.114082634 0.624652 -1.3708299 -0.7321847 0.84472597 -0.74343765 0.08090234 -0.6344204 -0.5829538 0.3463451 -0.63161004 0.013921395 -0.7422618 -0.48224473 -0.27270985 0.43019652
AKI -0.32577458 0.70500004 -1.0832669 -0.41738215 0.91968215 0.7438196 0.48460805 -0.8143791 0.005780205 0.07918668 1.4354736 -0.6032614 -1.4373913 -0.48231024 0.5389584 0.7161969 -0.24830449 0.007133603 0.33008927 -0.5069142 -0.70758945 0.45077106 -1.1596905 0.037702356
AKQ -0.22256315 -0.17543727 -0.84056234 -1.3459952 -0.7327025 -0.5501812 0.21127751 -0.65499765 -0.27257007 0.12830143 1.0976362 0.7101678 0.43656704 -1.0125222 0.02094227 0.87709326 0.8155362 0.5693969 -0.3305553 -1.0085222 1.4776248 0.9312788 -0.49295694 -0.60299224
AKR -0.0077643916 -0.6116365 0.44109628 1.2561185 -1.1536124 -0.778036 -1.5506237 -0.79292166 0.00806528 0.032553818 0.23952827 -0.81446385 0.45695692 0.18879178 -0.47809434 0.56155175 0.4526577 0.017272532 -1.1994804 -0.5492909 0.21829835 1.3392601 -0.5980659 -0.25315744
AKS -0.64574206 -0.636657 1.1943043 1.4396017 -0.5196679 -1.2194444 -0.6973309 0.23624676 1.5791321 -0.8972299 0.61810714 -1.4210284 -0.76619947 -0.048792012 -0.7340678 -0.76567894 -0.23404188 0.9184555 -1.1082833 0.20344774 1.1378013 -1.2044178 -0.17124064 0.0038863122
AKT -0.46819115 0.7474106 0.9264786 0.53317523 -0.2228872 0.95580083 -0.037052333 -0.74946666 -0.9406862 0.5892253 0.5993044 0.10745354 0.12582558 0.7236322 0.36782664 0.27830312 -0.6627419 1.0383039 0.43622026 -0.5682868 -0.15875733 -0.085663676 -0.8166683 0.13457474
AKY 0.6046134 -1.016197 -0.10096496 0.799235 0.029758528 1.1882101 -0.08518967 0.0391408 -0.12798685 0.44300354 -0.58666515 -1.1259769 -0.18400148 -0.76509047 -1.1519701 0.8846667 0.4572622 0.7099894 -0.6050382 0.34682572 0.9108634 1.7297372 1.038963 -0.15191297
ALA 0.20125856 -1.6780136 1.4087356 0.5608451 -0.62469614 0.47846735 0.07574091 -1.1080972 0.5460328 0.21991128 0.74985325 1.4703813 -0.5449925 -0.9479361 -0.974525 -0.62711257 -0.07681799 1.3208671 0.8067458 0.22573361 0.4304206 0.078580245 0.9478775 -0.03263227
ALD 0.5270433 0.063732944 -0.6272361 -0.067638785 -1.0552833 0.42559525 -0.3004804 -0.21859759 1.7458779 -0.19884418 0.47155973 -0.06030009 -0.26999056 0.9766809 -0.2759129 0.81371725 -0.531538 0.18403848 0.15342414 -0.35432273 1.002146 0.33361757 0.34475374 0.37253702
ALE 1.1977454 0.14381936 -0.93443054 0.24438259 -0.35568935 -0.23266521 0.73472506 -0.6524643 -1.3005489 -0.4188558 -0.08814232 0.44171792 -0.9095203 0.015633047 0.25460526 1.3757174 0.58856606 -0.2712194 0.16167915 1.1288768 0.043209992 -0.26820228 0.5781731 0.6049164
ALF 0.608261 -0.20386377 -0.095014565 1.0902779 1.1941977 -0.8404896 1.273804 -0.7771447 0.6010264 -0.025994718 -0.880978 0.08548853 0.98970836 -0.26536536 0.47055882 0.82426995 -0.2560554 0.6740809 0.56101763 0.96524715 0.8363725 0.9803723 -0.42569765 0.13194634
ALH -0.6959616 -0.5904115 1.4486628 -0.08768912 -0.07738611 -0.61985934 -0.4945019 0.9772925 -0.27829358 -0.13922732 -0.1600579 -0.09452803 0.08457265 -0.14479071 1.430557 0.29510462 -1.3484695 0.2836163 1.1421767 -0.9211376 0.0888585 -0.3268738 -0.7282191 -0.3661443
ALI -0.47086352 1.8781044 -0.56431407 0.98519146 0.82317877 -0.37646872 0.4372114 -0.23467055 0.96376014 -0.937218 -0.027925014 0.50524247 0.5912426 0.037568837 0.042002745 -1.7515062 0.6965332 -0.7119825 -0.32719147 -0.29759306 0.8170906 -0.1725483 -0.18472952 1.1910108
ALK -0.79180294 -0.67262894 -0.23207387 0.84205824 0.2713178 1.648641 -0.053081945 -0.11069341 1.2668543 -0.16417521 -0.096439235 0.1978541 -0.25861025 -0.6035291 0.3722124 -0.7278399 0.64724624 0.7567791 0.031323686 0.030140921 -0.59103507 -1.0153487 -1.3503764 -0.7500634
ALM -0.78789824 -0.8717005 -1.0445274 0.32861745 -0.39808998 -0.11458185 -0.11093967 0.14051078 0.72383803 0.312811 0.23352903 -0.51705307 0.42660385 0.4780867 0.4327966 -1.7062341 0.61295414 0.6262763 -0.22403762 0.70066303 -0.5912241 -0.6277769 -1.014568 1.2638518
ALN -0.61725414 0.0590934 -0.051829472 0.5011709 -0.37869382 -0.6203861 -0.9733496 -0.7220949 0.27294672 -0.6394993 0.6523452 1.4258406 -0.71848905 0.3531807 0.022193551 -0.33683902 -0.10903003 0.24167266 -0.7022271 0.27829653 -2.1788683 0.55864185 -0.66834486 1.6307621
ALP -0.09865989 -0.40062076 -0.53267986 -0.40510768 -0.6494215 0.42748538 -0.31771427 0.69279397 -0.27290028 -0.8016666 -1.1440654 0.09714522 -0.509498 0.58583385 -1.1967185 0.0222134 -0.020991802 -0.08960767 0.43895906 -0.47020233 0.26467258 -0.57570535 0.8525778 -1.2857224
ALS -0.19277409 0.83441615 0.5287885 -0.8764733 -0.858166 0.42101374 0.11525801 0.3753965 -0.4408232 -0.041583672 0.91536874 -0.95179355 -0.7006737 -0.12832998 -0.27914575 0.39510491 -0.004496932 0.058569282 0.81512165 0.12562543 0.2464875 -0.7215455 -0.66353613 -0.22167993
ALT 1.0024213 -0.48800933 -0.1102381 0.6139368 -0.48812544 -0.5794141 -0.9977653 -0.17410465 0.35601318 -0.11322859 -0.7047956 0.38937742 -0.49842465 -0.35777605 -0.013147175 -0.052459862 0.3618518 -0.2925599 0.419642 -0.55846953 -0.85445595 -0.53895146 0.66686285 -0.015703974
ALV -0.03258869 0.9708868 0.69503903 -0.30467921 1.1164079 -0.3310253 1.3328102 0.79870325 -0.2781598 0.5085202 -0.28482 0.7724097 0.087336496 -0.17393291 0.55066717 0.14773367 -0.16532595 -0.09266958 0.7290874 -0.85977393 -0.9115625 -0.4141119 0.74314296 -0.9715102
ALY 0.15242095 -0.4126875 0.5600993 0.36169618 -0.17962521 -0.07433215 0.10212319 -0.0024314523 0.45298868 -0.7732409 -1.0583237 -0.51150525 0.7142085 0.14318 0.85707283 0.92006475 -0.168964 0.16307113 -0.7413243 0.27265137 0.60851854 -0.51952463 -0.0028499067 -1.2327378
AMK -0.35343295 0.3351061 -0.7042075 -0.09278166 0.8532331 0.7120143 -0.47225592 0.47179848 -0.30999327 -0.8986651 0.4220542 0.31178647 -0.67616767 1.1341593 -1.8558013 -0.13867794 0.65178394 0.2894143 -0.49868914 0.2111704 0.21697631 0.78574806 1.1510984 0.18059753
AML 1.3076744 -0.2841236 -0.0955171 -0.24444786 0.552528 0.020783067 0.3276791 -0.8983865 0.113508046 -0.8399911 1.2430887 0.298279 -0.06893653 -0.5191055 -0.22689858 0.10564684 -0.853523 -0.32668632 -0.77909386 0.32130063 -0.42205492 0.01739034 0.088936046 -0.04696259
AMN 0.9136785 -0.22512303 0.14074439 -0.4265153 -0.60691595 0.835209 -0.44555628 0.903862 -0.75235987 -0.14678946 -0.07396073 -0.21036303 0.07284268 0.39990342 -0.50269616 0.5392282 0.39118463 -0.20846236 0.71266425 0.45584044 0.16574943 0.00081276894 -0.010068655 -0.16799822
AMT 0.6418934 -0.6515262 0.037141204 -1.1591372 0.78310376 0.023724109 -0.5070058 0.23994505 0.5649123 0.06832537 0.14917666 0.6922027 -0.25770348 -0.4798306 0.70565546 -0.18504296 -0.018668309 -0.90633917 0.53462934 -0.09070465 -0.7827299 -1.5811236 0.7175925 0.81331563
ANA -0.12127729 -0.031678855 -1.3567959 0.34048116 1.0670757 0.24292065 0.22431137 1.2661622 0.24282819 -0.77845454 1.2047586 -0.44820324 -0.9427872 1.3738846 -0.13401595 -0.69107836 0.95482695 0.14818272 0.57347906 1.0614815 0.055634946 0.12531665 -0.45258403 0.7207768
AND 0.21886638 -0.6747213 -0.19285461 -1.2068112 0.5916927 -0.8255831 0.35610437 0.98553383 -1.1239626 0.0401633 -0.7739415 -0.2728954 0.45789418 -0.023477733 0.7679726 1.5239928 0.28330553 -0.45438084 -0.48233086 0.22339824 0.3107328 -0.4270423 0.5739349 0.040483415
ANE 1.0854455 0.13647842 0.9342108 -0.50789803 0.016049027 0.40778276 -1.9054568 0.3499465 0.7275989 1.0482452 -0.6764338 0.7744474 -0.28313005 -1.2882694 -0.735596 0.6952902 0.5888663 -0.3545459 -0.3725702 -0.3770006 -0.31117696 -0.43149996 -0.51602525 0.9396008
ANF 0.15456145 0.3816703 -0.00209409 0.4550976 0.5596877 -0.5701396 0.8876258 0.50312835 -0.67859066 -0.009462535 0.5061759 -1.8650664 0.04569821 -0.4633674 -0.76707286 0.13995983 0.91188824 -1.8287952 -0.2051611 -0.7193711 0.7070335 -0.1769984 0.8483769 0.48904842
ANG 0.19821179 1.2212899 -0.66582376 0.7132479 0.51200175 0.26553234 -0.589803 0.08622456 -0.5013393 -1.499842 -0.26282734 -0.49231613 -1.4562061 -0.1295707 -0.14964451 0.27136692 0.0006220937 -0.25121775 0.38496533 0.21260148 -0.7881841 0.11982067 -1.5652225 -0.37149668
ANI 0.16322604 1.0873961 -0.1737836 0.07533808 -0.8382097 -0.3614828 -0.20317003 -0.070039734 0.825923 -0.4577083 -0.65420806 0.9338574 -0.6673671 0.40439928 -0.7954165 0.7515482 0.96327794 -0.35002208 -0.5374837 -0.09643513 0.18751657 0.50745 1.0806413 -0.9034003
ANK 0.759703 -0.6051872 0.24295391 0.6549866 0.6512847 -0.14045 0.1508117 0.49067307 -0.1991139 0.37505656 0.5561905 -0.39154264 0.87304115 0.048500985 0.04209292 -1.4148213 -0.25708824 0.6779365 -0.19382331 0.47506762 1.4805913 0.003119342 -0.41993988 -0.047267646
ANL 0.15006503 0.07924396 -0.17981699 1.0386378 -0.223196 -0.92488205 0.18772396 -0.2242966 0.18009582 0.97862643 -0.3083046 -0.6708983 0.7896541 -0.03188418 0.058575004 0.44098848 1.2325121 -0.7189862 1.2006633 -0.0357908 -0.31931275 0.28983516 0.16715328 -0.04417952
ANQ 0.23699045 0.37853408 0.9739427 0.037917286 0.13566671 1.0159808 0.5155918 -0.833781 -0.32857203 -0.5710902 -0.89394367 -0.9362178 0.6313564 -0.9135007 -0.19265431 -0.5158286 -1.2010586 0.8854451 0.62301254 0.35893857 -1.1021777 -0.45966467 -1.204424 -0.25838363
ANV 0.13697925 -0.056447 -0.2999453 0.1639713 -0.4545921 -0.1978566 0.04138051 -1.0606017 -0.23740116 -1.001975 -0.022294492 -0.51862806 0.36517438 0.03220132 0.5741787 0.08485074 0.58079064 0.8677478 0.28645006 -0.11461195 -0.06992775 -0.10765277 1.7375059 -0.36373577
ANW 0.1230502 -0.36390465 0.07502204 -0.19556484 0.701607 0.20762037 0.007258773 0.030295372 -1.2589141 -0.22681034 0.31314063 -0.46611091 0.0050367117 -0.3060587 0.017977118 0.6082104 0.36968288 -0.7752375 -0.5378116 0.4028725 0.3601545 -0.08367647 -1.238113 -0.00517492
APA -0.09024924 0.26311448 0.8292008 0.29978755 0.7412287 -0.9669546 0.18543875 0.22751375 -0.5937384 -0.28213346 -0.6491676 0.52160805 -0.23948255 0.86534214 0.2502428 -0.7667952 0.3638652 0.14861855 -0.9484409 -0.23864898 -1.1115885 0.022256635 0.24394855 -0.89416915
APE 0.065635875 0.16992009 -0.7150376 -0.06730838 -0.9942962 -0.95311606 0.54286253 -0.59222096 0.63777715 -0.12343706 0.25352606 0.51519716 -0.09791378 0.0184623 -0.1617592 0.30665112 0.52270114 -0.64342487 -0.04375857 -1.3860545 2.0292683 -0.16971406 -0.0013078861 1.0372515
APF 0.6742412 -0.61060023 -0.69944334 -0.85577214 -0.53858775 -0.8599409 -1.3436768 0.9906267 0.2678236 1.0713686 1.2643534 -0.9815843 0.57502615 0.6508718 0.002082765 -0.76444554 0.023945041 0.5977201 -0.36566284 -0.7243486 -1.4981806 -0.28575101 0.8222418 -0.33433282
APG 0.49736917 0.6754014 0.69206554 0.48873723 -0.49238557 0.5068381 -0.6747529 -0.33808407 0.63718736 0.31690773 0.2582898 -0.47082308 0.05940087 0.8708892 -0.2976933 -0.7592263 0.041392297 -0.23240897 0.0064426437 -0.116773725 -0.5299858 0.1324054 -0.5468505 -0.1467486
API 0.16627395 1.1344335 -1.566574 0.083367854 1.204792 -0.2799396 0.91812515 -0.5887845 -1.5202452 -0.49789807 -0.2889963 -0.55148447 -0.45401782 0.06694284 0.14246213 0.77866286 -0.05298829 0.7141509 -0.8198885 0.37325662 -0.60750407 0.28314584 -0.4214754 0.681273
APL 0.9646381 0.053051427 -0.51540744 -1.0019617 -1.06369 0.8329239 0.35381916 -0.93555355 0.5300058 -0.8262298 -1.2378032 -0.3872156 -0.5390421 -0.025624052 -0.52589583 -0.6407543 -0.9648496 -0.7603624 -0.3047764 0.23359038 0.09048754 -0.20842704 -0.780961 -0.46596575
APN -0.47452143 -0.22067666 1.6403333 0.45757428 0.03518027 0.40040347 0.10053894 0.52902734 -0.2145542 -0.43298116 -0.713257 0.3072234 -1.2427756 0.08584671 1.6799276 -0.2012324 -0.22741282 -0.6385843 -1.32693 0.24515647 0.6649189 -0.09095186 -0.31615055 0.25212604
APQ 0.6868074 -0.39633146 -0.067042395 0.5853746 0.49495426 1.1112853 -0.28351894 0.6816872 -0.050540984 -0.0138377175 -0.82096565 -0.6570561 -0.64677453 -0.21536922 0.1859159 0.97636175 -0.44872296 -0.3820693 -0.00046862662 -0.56237704 -1.3969527 0.10935193 0.73624074 1.2936511
APS -0.35854536 -0.82689166 0.13721876 0.5187561 -0.6153112 0.5519981 -1.0946563 -0.0648658 -0.26553938 -1.3928897 0.009943694 0.15449509 0.5417272 0.3161702 0.49462798 -0.1036013 -0.51585686 0.4340617 0.688369 0.23982039 0.085750245 -0.28993675 -1.4395297 -0.0824869
APV -0.26646322 0.102906756 -0.0041700006 -0.2707852 -0.63757396 -0.47228143 -1.0055087 -0.66829705 0.51730824 1.0328085 1.3885164 -1.5840774 1.8620522 0.03115943 -0.95612884 0.6640059 -0.6600835 -0.24415655 0.035910904 0.6710427 -0.65112257 0.41475737 -0.67412317 0.5969757
APY -0.4481117 0.33577988 0.06409633 0.70997703 0.7789079 0.20488063 -0.9865632 0.31380445 0.5023795 0.13748527 0.19826981 0.14934492 -0.25653368 -0.4881156 -1.1145716 0.13768743 0.9531231 -0.6323852 -0.16988945 -0.15638214 0.23248401 0.089271516 0.049829945 -0.1779024
AQA 0.14920622 0.015750408 -0.39502093 -0.118287235 -0.9173845 -0.41241854 0.62456316 0.23861665 -0.035877332 0.32066083 0.45147866 0.24761981 -0.52403116 -0.34593084 0.527987 -0.12893522 1.0686753 0.65954345 -0.87805986 0.3579454 0.18525884 0.60694575 -0.49319765 0.8690547
AQK -0.27417037 0.4001256 0.1983417 0.258386 0.68435264 -0.55758107 -0.074421436 0.25447714 0.12329301 0.3361656 -0.7412078 0.7445868 0.45339423 0.19227993 0.95308703 -1.1271552 0.57298213 1.2856957 0.4961632 -1.4522614 0.3775729 -0.32053927 0.15459463 -0.19980323
AQL 0.0654366 -0.2155363 0.03647791 -0.17867315 -0.49796632 -0.03587355 1.0178007 0.3973211 -0.6716382 -0.28105384 0.07878335 -1.4658077 0.25400174 -0.12367553 0.4372065 0.9238208 -0.51428866 -1.3303306 0.6253074 -0.26985684 -0.47412124 -0.23617023 -1.1501156 -0.3353344
AQP 0.5062858 -0.66220295 -0.21309212 2.0988762 0.65895414 -0.054750405 -1.0293951 -0.04241161 -1.0167307 -0.7185389 -0.34994915 0.5555592 -0.0408625 -1.0290391 -0.576466 0.6743804 -0.2637867 -1.1201731 0.37578434 -0.047300726 0.92624414 0.10349798 -0.3557795 -0.29264992
AQS -0.58182013 -0.0741605 -0.29193965 -0.26550034 0.22809735 -0.379571 0.17928195 0.45868188 0.07009791 -0.88994175 0.66722953 -0.60409427 -0.033911273 1.3489741 0.7321942 -1.8137069 0.43070197 1.1496936 0.18484327 0.50464326 0.27803507 0.602032 1.2743936 1.5657059
AQT -0.15907905 0.30493453 -0.131021 0.9502151 -1.241348 1.2374258 0.19793531 -0.42247713 0.14481422 -0.2186298 -0.031083852 -0.26334673 0.33015972 -0.7204389 -0.06659295 0.094912484 1.7563217 0.5864514 -0.097057536 -0.21629907 0.7820456 0.4938452 -0.768446 -0.3135886
ARA 0.30542672 -0.86247563 1.248394 -0.13226521 -0.038943324 -1.7107587 0.06541109 0.93664765 -0.30471694 0.31272897 0.40601993 0.19537431 0.30980608 0.48925498 0.6007628 -0.30400616 -0.67383206 1.4383883 -0.55193347 -0.23575184 0.7011958 -0.9080446 0.5280597 0.45049143
ARC 0.13946488 -0.69257987 0.0001706779 0.37672046 -1.1008945 0.6816306 0.043402657 -0.2157617 2.1812918 0.26710302 0.07032484 -0.49301064 0.56141186 0.18451089 0.6531968 0.25562483 0.17843558 -0.73221064 0.052241564 0.5875837 0.6425828 0.06531727 0.74538696 0.727744
ARD -0.2687501 -0.2560433 -0.4118153 -0.019554585 -0.65250134 -0.80363435 0.123142056 0.779739 0.06381042 -0.66314024 0.5765236 1.0926867 0.2892917 0.8167094 -1.2565165 -0.97035885 -0.45153117 0.07228014 -0.35042477 -0.25561714 0.94401145 -0.22476716 -0.39947477 -0.17045397
ARF -0.07373036 -1.3671727 0.34442917 0.6371207 -0.76107943 0.8470072 0.7271297 0.2862086 -1.1670344 0.013093397 -0.39155012 0.21391258 0.5073185 1.0233178 -0.26867026 -0.11463934 -0.047831155 -0.57801753 0.19469327 -1.0088559 -1.1445484 0.82393 0.9846543 0.1474546
ARG 0.7279375 0.68626773 -0.24939722 0.6968383 -0.67119294 -0.7620533 0.29558173 0.7243056 -1.0441798 -0.45392314 -0.48878098 0.20948973 -0.89106953 -1.1328437 -0.8516824 -1.5361316 0.1969477 0.43230602 1.286566 0.4894137 0.95264786 1.3443336 -0.8353231 -0.14507084
ARI 0.33789855 -1.0489519 0.8382993 0.108946055 -0.3124699 -0.021199271 -0.057330787 -0.66632366 0.4260248 -1.0366125 0.75821805 0.73789495 0.26825488 -0.22209623 0.09831652 0.7762155 -0.6419742 -0.4876166 -0.56258357 1.2306834 0.9884567 -0.09778792 -0.004748285 -0.723383
ARL 0.17445482 0.22812825 -0.7573205 -0.81246626 0.14962846 -0.30878368 0.34541452 -0.061650235 -0.31899345 -0.11911064 1.4903386 -0.70268023 -0.30468667 0.085206255 -0.71253276 1.0674334 -0.45457667 0.29545775 -0.52990234 0.57664084 0.7208389 -0.8321762 0.14674038 -1.2179452
ARR -0.76265424 0.3189291 -0.22691977 -0.6356467 0.030228972 -1.6223884 0.87692535 -0.26337394 -0.028727107 0.76554096 0.06945387 -0.2853909 -0.03721991 -0.40319508 0.23599967 -0.995751 -0.13134348 -0.31441432 0.66019523 0.78521526 -1.0207188 -0.17685464 -0.41004473 -0.84678364
ART 0.4689863 -0.1288938 0.0033119917 0.8798301 -0.17172149 0.7402389 0.23463193 -0.8090331 0.7169051 0.20631427 0.3791613 -0.2919324 -0.5791615 -1.0521351 -0.4553009 -0.41556013 0.80261576 -0.92330277 0.08064987 -0.3320028 0.37991858 -0.6502302 -0.16164601 0.41564226
ARW -0.30286363 0.523444 -0.46691522 -0.016580716 0.6337565 0.011576269 -0.23401241 -1.4839504 -0.42139083 -0.7359446 -0.9073084 -0.5126523 0.23056674 0.14062387 -0.18436855 -0.6090453 -0.33036745 0.40072662 -0.1510963 -0.21519403 -0.3246903 0.31958258 -0.3339901 0.7532189
ASA 0.84197557 0.7134822 -0.33820277 -0.13754722 0.17873083 0.110168815 -0.07269594 0.4323732 0.13641305 -1.1460073 -0.57410854 0.31159028 0.4675985 -0.2586166 1.7912235 -0.7064856 0.6008813 -0.46221736 0.24457654 -0.3226246 0.2027667 0.2781027 -1.2458918 0.57648224
ASC 0.055370808 0.8840635 0.9132584 0.47367883 0.44969833 -1.3576684 0.11032224 1.5883914 -0.67229617 0.3445973 -0.76260096 -0.20541187 0.73144484 1.2232968 -0.39477128 0.38970304 0.16702397 0.8892878 0.20427969 -0.1950947 0.9214119 1.2635663 -0.4415521 -0.57890165
ASD -0.027863055 0.41391328 -0.23964596 -0.6099469 0.012797844 0.27661198 -0.58035374 0.236046 0.690921 -0.04357481 0.037004635 -0.9375102 -0.2588404 0.17269337 -0.5076132 -0.023658872 -2.3395116 0.4895202 -0.2730001 -0.6745731 -0.55126023 -0.69754833 0.26968598 2.0076632
ASE -1.5467392 0.33438757 0.5553441 -0.0064780107 -0.52605295 -0.7810811 1.0231849 -0.13184449 0.2850295 0.3371053 0.1524978 -0.6839936 -1.186808 1.1533659 -1.3679466 0.6111133 0.6833255 0.19886684 -0.05349475 -0.58532536 1.1454825 -1.1805155 0.7319324 -0.18376513
ASG 0.349956 1.1571614 0.7230423 -1.2028649 0.94196177 -1.2447876 -0.40585375 0.10894698 -0.33868188 -0.7406956 -0.9900622 0.53095186 0.05332716 1.041559 0.25319222 0.8886367 0.37130928 0.40958247 0.46093756 0.48860782 -0.6442562 -0.20292702 -0.57035315 -0.5294438
ASI 0.3433775 0.24241516 -0.22025722 0.4494227 -1.0218976 0.170466 0.4629066 0.885756 -0.85244507 -0.5322924 1.2287328 0.49905282 -0.12232685 0.23648328 0.45050535 -0.014477313 0.3461619 -1.0456649 -0.58736 0.23293993 -0.111759275 0.32033986 -0.093395896 0.80876666
ASL 1.0082132 0.8110633 0.43197036 -0.5372844 0.5519213 -0.73671824 0.6233357 -0.7864317 -0.30868107 0.5122331 -0.8049973 0.69934845 0.16740318 -0.42537025 -0.5424818 0.93124783 1.1772296 -0.4271659 -0.058138847 -0.6997988 -0.1413637 0.9151968 0.64081514 0.2816808
ASM -0.51307034 -0.39169168 0.066218734 -0.27884132 -0.9858897 0.5346037 0.65600705 1.5151324 -0.6894698 -0.012306124 1.4579097 0.27550545 -0.6129098 1.5769655 0.086802766 -0.0055424273 1.084842 -1.1106246 -0.31445312 -0.5913651 0.16299213 0.2941572 0.09100033 -1.4837921
ASP -0.83117366 0.9386864 -0.20653778 -0.65989864 -1.2910169 -0.73664755 -0.16497146 -0.6230401 -0.4974054 0.6756332 -0.51764697 0.17921254 0.1434862 1.5298002 0.46331725 -0.37584513 -0.050212443 -0.16687457 0.24085934 0.23868354 -0.30232388 -0.74690354 0.9375551 0.38271862
ASR -0.19979408 0.35887003 -0.4851752 -0.39674634 -0.49756712 1.2193825 -0.433493 0.17229454 -0.13512562 0.54393494 0.4541581 -0.5535702 -0.56359947 -0.66217744 -0.4612354 0.45963863 -0.51219267 0.7259231 -1.047385 -0.15654165 1.0436854 -0.7027393 0.5314582 -0.16150868
ASV 1.1669532 0.3951987 -0.10810171 -1.6279247 -0.40585354 0.25057748 -0.377807 0.58042526 -0.23195304 -0.18186556 0.5114725 0.98649 0.227449 0.03187856 0.26925597 -0.6831976 -0.36835304 -0.8719045 -0.039120376 0.11765449 0.27920786 0.03680212 0.4981097 0.15180473
ASY 0.65559065 -0.21743757 0.07170504 0.10641119 -0.7247163 -0.42213196 -0.4862878 0.492782 0.37216854 -0.5575809 0.93817216 -0.8141942 0.48381317 0.5441927 0.11818852 0.07032211 0.45688635 0.22445157 -0.47090662 -0.35515106 0.39083946 -0.077941746 0.5683203 -1.251638
ATD 0.2615811 -0.78882015 2.0998034 0.024768634 0.2139851 -0.5413815 0.8165254 1.5338973 -0.23432535 1.2110984 0.1343847 -0.08158927 -0.35861623 0.5119857 -0.81962144 1.0103431 -0.6407369 -0.2232096 -1.0672626 -0.7440464 0.07200688 0.778249 -1.2612854 0.28842118
ATE -0.18105316 -0.16789079 -0.74899465 1.2773864 0.82794887 -0.8733001 -0.059516132 0.30934545 -0.5680928 -0.41856393 -0.08753693 -0.09173291 0.6145345 -1.3681734 -0.3218636 -0.5140295 0.1632375 0.36790472 0.3865865 0.42921352 -0.7411347 0.18864729 0.50913864 -0.331598
ATI 0.5269632 0.5023261 0.4124788 -0.5182202 -0.077002816 0.79137975 0.08231273 0.0706996 0.8784294 -1.5141919 0.33260763 0.29507357 -1.7701867 -0.48154652 0.024140835 -0.51258093 -0.4223106 -1.3772466 -0.5899363 -0.5317059 1.5444825 -0.41664246 -0.1314789 0.76417637
ATL -1.2692544 -0.5141825 0.097915426 0.8852911 1.0123391 0.10789896 -0.8325653 0.946035 -0.86361146 0.7177462 0.5093588 0.12000555 -1.5421774 0.605904 0.022326916 -0.77663857 0.44848934 0.3047272 0.28383455 -0.87931144 0.45916024 1.6836712 0.31643757 -0.23530743
ATP 0.39642116 -0.023420572 -0.6841447 -0.7390038 -0.31895435 -0.4681686 1.5904071 0.21866836 0.931245 -0.25016153 -0.4641168 0.2213094 0.31916738 -0.7973333 0.961266 0.2083959 -1.2060375 1.4176879 0.03271699 -0.002109548 -1.1144037 0.14642525 -0.14470696 0.22058672
ATQ 0.63182974 -0.7268537 -0.24354099 0.49467906 -0.9570484 -0.45028895 1.0374136 -0.63892794 -0.042869925 -0.016510606 0.512922 -0.25993356 -1.3917339 -0.18709882 -1.0958502 -0.61581945 -0.28413612 0.4036001 0.16507202 0.5057536 0.60690033 -0.40903568 -0.74976265 0.8285513
ATT 1.10934 0.78466296 -1.0701344 -0.8184396 -0.55009896 -0.25930536 0.12349721 -0.2445679 0.658011 0.75856906 0.27090776 0.0213947 -0.37954378 -0.27478862 -0.18033549 0.12226504 -0.1158289 -0.50120455 -0.9209316 0.17278129 -0.4522757 0.38634104 -0.3818249 -0.57041705
ATV 0.6283576 0.45066127 -0.5335878 -0.49565303 -0.31218505 1.7033472 0.2018395 0.7439778 -0.7993266 0.037563086 -0.79611844 -0.017798 -0.27892134 -0.5047741 -0.4151864 -0.9301139 0.17800683 -0.23773995 1.18671 0.40545714 -0.29047507 -0.3754379 -0.18731475 -0.06176374
AVD 1.0790849 -0.71920073 0.36196655 -1.0524176 -0.098574795 -0.49764228 -0.06957694 -0.6671293 0.92222464 0.3035167 -0.8644669 0.5774119 -0.41294295 1.3098266 0.12843853 -0.8084524 0.72793514 -0.21977754 -2.0474477 -1.0772767 0.14741135 0.18765646 -0.34792757 1.0343202
AVE -0.41274998 -0.10220522 -0.09879294 -0.581666 0.10379798 0.41679162 0.2044369 0.2177408 0.16012925 0.06825839 -0.98272836 0.23255628 1.1498212 -0.40817553 -0.5468544 -0.13837305 0.76916474 0.3216724 0.38159904 0.35716993 0.6591868 -0.67256474 -0.59841263 0.85158587
AVG 1.3411367 -0.33329415 0.48071414 0.07827598 -0.8224774 -0.22486834 -0.20015168 1.3520863 0.31928948 0.27965122 -0.014911324 0.017460704 0.035440337 -0.26864436 0.975083 0.15918964 0.6147536 -0.47012842 0.28143716 0.73793626 0.8971889 1.3983557 -0.087187916 0.30860853
AVH -2.1298525 0.28506944 -0.1292791 0.44841197 -1.1736511 0.24454321 -0.105975114 -0.015083104 0.4087156 0.21057618 -0.8918201 -0.028314056 0.45507115 0.13856459 0.02756375 -0.7853628 -0.41480225 -0.3880986 0.10170171 0.27352607 -0.12585717 0.06229937 -0.10695651 0.25397453
AVI -0.20058563 -0.31251955 -0.3513957 -0.25661066 0.22254364 -0.22123486 -0.5932708 -0.32850313 0.37208366 0.02219345 -0.5639002 0.738099 0.29355454 -0.17520122 0.49336785 -0.74804735 -1.0760546 -1.5001677 -0.49246857 0.63793933 -0.3543277 0.24093482 -1.3191905 -0.027143806
AVK 0.39791495 -0.77050316 -1.1447322 -0.99946654 -0.11961889 -1.0937399 0.90458095 -0.08520031 -0.9099777 -0.5019384 -0.06707688 -0.40486637 0.44919348 -0.39783752 1.4878845 -0.2791259 0.122803114 1.2529721 -0.25317383 -0.47528186 -0.19231692 -0.7480154 0.73683494 -0.46754938
AVR -1.889426 -0.55057156 -0.1598582 -0.98049015 0.09682334 1.6712039 1.1298606 -0.41409975 0.36315498 0.19066948 -0.47167143 0.31984827 -0.02097249 0.18363008 -0.074785605 0.312634 0.1133479 0.5559543 -0.43360645 0.09831221 0.24923097 -0.8561959 0.44269747 0.026285455
AVS 0.8313787 -0.16390827 0.036405902 -0.028713256 0.47590286 1.1803279 0.34009975 0.7040534 -0.7463731 -0.3030028 -0.56210345 -0.052731693 -0.286692 1.6011463 0.14468472 1.5588917 -0.0911227 -0.63992125 0.0066134334 1.1699303 0.16115168 0.10354072 -0.093086764 0.014192045
AVV 0.06941713 1.221764 0.08252673 0.4854864 0.3103106 0.48002738 1.450946 -2.0970092 -2.6085958 -0.591779 -0.939691 -0.56011707 -0.322105 1.262069 -0.67513794 0.23506212 -0.1318959 0.6606916 0.14180368 0.6293371 0.22910106 0.3064431 0.08395934 1.1085666
AWA 0.6764132 -1.732866 -0.48029172 -0.09007762 -0.043565318 0.31879303 -0.30815732 -0.39413553 -0.5436299 0.0819377 0.70524573 0.026158452 -0.44563016 0.033472143 -0.14851668 0.993652 0.41615498 -0.28219253 -0.62088585 -1.3612254 0.0454773 -0.0784145 0.1593077 -0.2971213
AWD 0.92844063 -0.8720986 -0.7655739 -0.5555879 0.30867255 -0.34582153 -0.840096 0.06631766 -0.63494587 0.66768444 0.25096366 -0.8376392 0.4658272 0.02492448 -0.4010306 1.40891 -0.05970864 -1.1559505 -0.22613476 1.177925 -0.07723957 0.1960035 0.1791021 -1.7730172
AWF -1.1210343 -0.87394136 1.2193265 0.45736358 -0.12949392 0.6935604 0.63185656 0.1277515 1.0179769 0.3733657 0.18044588 -1.8519759 -0.8833834 0.15249872 0.98226446 -0.45553935 0.33262524 -0.10326719 0.8358354 0.7905836 -0.7491737 0.38454664 0.79525316 0.6705674
AWG -0.80630106 -0.073940635 -0.368172 0.30143046 -0.24311517 0.742867 -0.058618993 -0.63329434 -0.5135221 0.2250976 -0.04279372 1.5601331 0.54435384 0.38051522 0.73605925 -0.098643236 0.66728437 0.6245238 -0.23150742 -0.44619894 0.08965874 0.7190264 0.6450149 -0.24355657
AWH 1.2086279 -0.5176145 -0.03476283 -1.0331446 -1.5770077 0.06856614 0.8860837 -1.3910484 -1.138499 1.3280523 0.50620914 0.049556874 0.12726502 1.0248966 -0.060515285 -0.8000856 0.8111629 0.23310621 0.2602626 0.11141577 0.22953543 0.14670208 0.7615786 -0.6774092
AWP -0.25928372 -0.38853493 0.014558472 -0.062044542 -0.8837619 -0.688275 -0.16524234 -0.30548462 0.10117243 0.9139649 0.48941767 -0.1502068 -0.20925 -1.2659934 0.07083666 0.07684875 -0.4861831 1.0774126 0.3146147 1.2504321 -0.32081914 -0.90874124 0.36615825 0.2139352
AYD -0.024340019 -0.32817915 -0.70005697 0.62121296 1.1805394 0.14168477 0.3133267 0.8340837 0.5075193 -0.25635132 -1.0500544 0.25661197 0.28894413 0.8333498 0.035941545 0.6436818 -0.14066184 1.0129623 0.46868312 -0.19811583 -0.2162013 -1.2892473 0.2987273 -0.9006185
AYG -0.3337907 0.2894041 0.72305745 -0.08428341 0.64554346 -0.7165991 0.4090864 0.3406776 0.6916889 0.39108947 -0.866933 -0.29397172 1.2103635 -0.2684508 0.15254104 1.2676219 -0.48298776 -0.5917081 0.61439407 -0.13575165 0.20348679 0.3957057 0.23574674 0.4129393
AYM -0.7223097 -0.16787612 0.036607563 -0.6263453 0.09916848 0.32792792 -1.5834371 -0.70064884 -1.1960878 -0.8408379 -0.47957593 0.39405078 0.47068894 1.8250668 -0.1495991 0.15770331 0.75997734 -0.64989394 0.88757974 0.49008113 0.21000679 0.36099258 -0.73231775 1.1626041
AYR 0.6200052 -0.2596566 -0.3700802 -0.92189664 0.40238097 0.37139785 -0.2851491 0.40096557 -1.0516621 -0.18368551 -0.09354806 0.49810863 0.16953163 -0.4063435 -0.9099342 -1.0342946 -0.44697052 0.37254518 -0.04072741 -0.68724936 -0.59206736 1.08004 0.28365946 0.07150287
AYT 1.568062 0.4742184 -0.10136781 -0.5198862 -0.067739084 0.2466439 -0.2572045 -1.1882856 -0.07809022 1.0807296 -0.4803234 0.5455953 0.047598887 -0.23546046 -0.23836593 -0.88422436 -0.12743762 -0.62393963 -0.17756693 -1.5164647 0.01065284 -0.6091309 -0.41687363 0.56786025
CAA 0.8288284 0.17771736 -0.062223654 -0.50540495 -0.1716892 0.8878864 -0.23369128 -0.59888977 0.26916456 0.050350778 1.1510417 -0.5356121 1.211506 0.20870203 -0.08595383 -1.2809508 -0.6262556 0.43217292 -0.6173058 0.34928477 0.06658019 -0.37785912 0.8646171 0.0425938
CAG -0.39098787 -0.009624422 -0.4721151 0.27908868 -0.075489074 -0.5683479 -0.6957521 1.0173213 0.18809742 0.8815831 0.67277926 0.43777448 -0.6727029 0.44646627 1.1275433 -0.8582363 -0.81197715 0.072724074 -0.3919239 -0.10098532 -0.29555768 0.9302783 -0.13090119 -0.23435456
CAP -0.34861794 1.2488405 0.74521697 -0.32574144 0.5505364 -0.16716959 -0.2756308 -0.77285594 -0.0055975765 0.7975795 -0.24032173 0.90583694 0.088661745 -0.9466357 -1.1727767 0.17733994 -1.3575784 -0.39638484 0.20112222 0.3918702 0.29176164 0.5753562 -0.108387165 -0.9509673
CAR -0.12908247 1.1417003 0.18890488 0.31554455 1.0798802 -1.0345819 0.48243856 0.12818405 1.0358801 -0.15790825 -1.7333399 -0.15383253 -0.22281206 -0.035110608 0.104605675 -0.104460895 -0.20373951 -0.81867033 -0.101166986 -0.4149516 -0.37931523 -0.14841908 0.6835542 -0.8847902
CDI -0.34964877 -0.51468605 0.44705305 0.87937427 0.96969855 0.16565436 -1.1027111 -0.54624015 0.2926667 0.7781608 0.97994536 0.06871238 -1.2022367 -0.56229436 -0.36294052 -0.24464613 0.8370652 0.64115345 -0.08375737 0.8615248 0.104296744 -0.8924898 0.971957 0.36529976
CDR -0.6402253 0.17598477 -1.1785407 0.2559602 1.7781701 -0.025667131 0.47087955 0.45881248 -0.7318046 0.42873242 0.5677281 0.89849216 -0.74658304 -0.30929393 -0.38443312 0.95609874 1.1928618 -0.98855174 0.5874794 -1.338191 -0.6805732 -0.116794676 -0.28910783 -0.06936819
CEC 0.15749876 1.0283496 0.20883787 -0.33521843 -0.39480588 1.6001358 -0.54156077 -1.0171707 0.39727157 0.39103332 1.0969057 0.33224705 -0.02364324 0.3269188 0.88364345 -0.24066961 -0.066004604 -0.22509214 -0.2828234 1.0906999 -0.27198285 -1.0789999 -0.81414276 -0.73369634
CEK 0.9925453 0.080197394 0.80486935 0.35405165 -0.1403777 -0.29814148 -0.24607894 -0.06484068 -0.29487786 0.41136298 0.026264355 0.13840434 -0.1916875 -0.07529737 0.7930347 -0.069640756 0.6680678 -0.38144845 0.26754197 -0.3890418 -0.41560423 0.16644013 0.19958165 0.06128621
CEQ -0.24676605 -1.113339 -0.76809627 -0.17169002 -1.0510647 -0.94732666 -0.35745797 0.27498177 -0.37017697 -1.1048988 -0.244069 0.31500423 -0.5666138 -0.7222909 -0.57625085 0.6781433 -0.42612833 -0.4903196 -0.25443885 -0.41145375 -0.04507792 0.9396473 -0.4495445 -0.18228261
CET 0.7108116 0.18372267 -0.94909465 0.045976512 -1.0055779 -0.9619423 -0.58645153 -0.46362448 -0.92864895 1.7365403 0.17244512 -0.3420933 1.0579605 -0.7251854 -0.38052273 1.9895196 0.3468452 0.5255018 -0.64859307 -0.010487571 -0.9130893 -0.36816862 0.9312737 -0.8592829
CFL 1.0119994 0.058606923 0.8334164 -0.47943097 -0.35298455 -0.45229146 -0.027823308 -0.32785404 -0.07639046 -0.40386283 0.06657384 1.1049682 -0.6056507 0.42492223 -0.7813572 0.90093577 0.20450424 -0.46291187 0.34430668 0.823321 0.7103641 -0.47767484 -0.1678207 -0.81143904
CFP 1.2050569 -0.39683884 -0.17914611 0.3094982 1.4945799 -0.4119268 0.072676 -1.368638 0.2846439 0.7198635 0.526818 -0.6355711 -0.6998582 0.25071537 0.15364522 -1.139819 -0.2363956 -0.30869383 0.37615076 1.1937383 -1.1342462 0.36645144 0.12707894 0.38048112
CGD 0.20816788 -0.48135683 0.5837117 -0.08712222 0.04619804 -0.8848265 0.35341305 0.0064863563 0.41564798 -0.5458266 0.7443938 0.44430563 0.52893645 0.03643924 0.43427694 0.6241368 -0.35477743 1.6591735 0.5425788 0.13573034 0.28158596 0.1105675 -0.12889266 0.6627879
CGH -0.4831019 0.7695234 0.078609765 0.15804738 -1.638659 1.8357065 -0.07050395 0.24024726 -0.56315345 -0.3965188 -0.17448351 0.33965504 -0.4412361 -0.17453754 -0.29843435 0.30950648 -1.5524958 -0.43721694 0.5198864 -1.3267474 0.24658483 -0.15000027 0.36480185 0.7658259
CGK 0.54392475 -0.19124585 0.775404 -0.4137846 0.102665365 -0.14373912 -0.007077813 1.1152282 0.06014076 -1.3552687 1.216626 0.46623722 -0.49921483 0.8807852 0.94887096 0.024296224 -0.21433225 0.4239208 -1.7178931 0.08083144 -0.12802666 1.1955742 0.40389222 -0.49756753
CGR -0.5841979 -0.63738817 0.14824608 -1.0230732 -0.39277318 -0.9906671 0.07692574 -0.08663179 0.6181632 0.676734 1.4132307 0.19084802 0.7455911 0.61003006 0.51815 0.096965656 -0.021157756 -0.38274932 0.6142939 -1.1820993 0.61726767 0.47076344 1.058269 -0.29172647
CGS -0.01106824 0.6112786 0.603031 -0.8463765 0.6246525 0.72195554 0.13589463 0.32266164 -0.4765671 0.69710535 -0.4245304 -0.39655706 0.39223933 -1.7473431 1.2849233 1.1407056 0.12867936 -0.5597697 -0.8560284 -0.4188273 -0.30266544 0.53252286 0.28209978 -0.3989353
CGT -0.44209146 0.31331158 0.92455506 0.4167151 0.47491822 -0.68420196 0.34761977 0.077277556 -0.6169354 0.45406497 0.010106832 0.05220185 0.40986642 -1.1097686 -0.10226776 -0.6656106 0.18773496 -0.44287023 -0.30051908 -0.3666391 -0.40611753 -0.16086233 0.7378747 0.7707531
CGV -0.055278555 -0.3446616 -0.23805363 0.0009097904 -0.9843943 0.6344422 0.22756809 -0.6078741 -0.028364241 -0.25346383 0.6271759 -0.42555964 -0.8787612 -0.15508546 -0.28500026 0.3373919 0.187895 0.04055436 0.01922372 -0.31193784 0.6764078 0.52596664 -0.106104545 -0.037864193
CHG 0.29688156 0.22784156 0.053806886 0.13062292 -0.0011080205 -0.122792274 -0.22330084 0.5843843 0.21273859 -0.36342236 -0.9118582 -1.1357577 -0.6491296 1.3284851 0.6108128 -0.58568394 -1.2673821 0.18365243 0.9374953 0.31057787 -0.17307124 0.25312477 -0.04885269 0.28908864
CHK -0.32212502 0.49844533 -0.5692151 0.86844075 0.10448706 0.44768256 -0.19458595 -0.24403243 -0.07354179 0.4576831 1.1571107 -0.025107764 -0.5776979 -0.73807013 -1.2246009 0.50536627 -0.27554107 -0.35001004 -0.29767743 -1.4176214 0.5961361 -0.06981292 0.1459837 2.1932693
CHS 0.17525631 1.3391529 0.25401008 -0.20375554 0.40984237 -0.16782086 -1.2909629 0.8351276 -0.7790824 0.47074836 0.3557552 -1.306726 -0.40037358 -0.032054815 -0.90907377 -0.44324744 -1.0501158 1.0152627 0.067374736 -0.53790414 -0.56757724 0.28417587 0.6052247 -0.8079108
CHT -0.1466488 0.6623096 0.67395025 0.75783443 -0.025243104 -0.19039243 1.0036141 0.612398 -1.0346264 0.5659328 1.2943722 0.25712934 0.17330131 -0.7061495 -1.2599553 -0.6291985 0.7064942 -0.70649284 0.16402178 1.0280763 -1.0369961 0.14430748 0.9324322 0.073735
CIS -0.7031424 -0.04681097 0.10045785 0.61887026 -0.5373514 0.6656147 0.7934634 -0.31248444 0.82522255 -0.5162218 0.68623793 -0.29040053 0.4493397 0.17827187 0.41326368 0.17432487 0.6354091 -0.47246966 0.7734492 1.4965131 -0.41768903 -0.03353201 0.104796484 -0.14168704
CIT -0.31765246 0.00067564845 -0.80415237 -0.04072614 0.8340204 -0.55271214 -0.29678443 -0.50100136 -0.9746101 -0.07755082 -1.1672668 0.5140185 -0.43463117 -0.036728725 -0.021297514 -0.38283506 -0.023089543 -0.34221762 -0.66793287 0.43043745 -0.042827085 1.002559 -0.49551284 0.14418152
CKF 0.09152028 0.28805 0.3313161 -0.019418538 0.46704873 -0.48562515 -0.9109514 1.063983 -1.527564 0.048714846 0.4164182 1.2052131 -0.68914723 0.70145214 0.7113564 1.2503593 -0.7421682 0.23556824 -1.059655 -0.6609843 0.11614474 0.19340903 -0.6120321 0.8175032
CKK 1.1182488 0.66270405 0.07922654 -0.867775 0.15574366 0.03171286 -1.1220257 -0.16466129 -0.2793137 1.0344453 -0.0035331547 0.66837513 1.268256 0.49961603 0.37811536 0.34626812 -0.2842772 -0.45569703 0.508374 -0.17193012 -0.3338595 0.48340774 0.23982854 -0.071398035
CKL 0.68569106 0.2765783 -0.8288456 0.3570202 0.63504136 0.34159204 -0.121260285 -0.13460213 0.051831543 1.1602222 0.84417117 0.05940844 -0.1264906 0.21452129 0.443048 0.18979926 -1.3666358 0.14978181 1.1175846 0.10014853 0.6278115 0.95661604 0.36191005 0.11845854
CKP -0.6926255 -0.01108823 0.34262097 0.82519037 1.0035137 0.3312735 -0.784896 -1.2543461 0.175924 -0.49296415 -0.0049324036 -0.16881335 0.47115332 0.080910504 0.1669833 -0.7356374 0.56397635 1.1007937 -0.5297274 1.1291306 -0.3052407 0.3690474 1.7876045 -0.2960121
CKQ -0.29509184 0.2221542 -0.2067278 -0.09904428 -0.23866601 -0.74563766 0.2215029 -0.44458902 0.643996 0.25618982 1.4899938 0.115529835 0.030207932 0.6810162 -1.3864198 -0.73781 0.13190323 0.4430731 0.2684107 0.017674834 -1.3810298 0.39635867 -0.3383019 -0.16284743
CKT 0.64519066 -0.25309265 -0.14315921 0.8696922 0.7119187 -1.0389307 -1.0173001 1.0850236 -0.094732195 -0.45484167 -1.2585884 0.7162127 -0.09692996 0.45856243 0.86088455 0.43064338 -0.6656173 -0.024674535 -0.67690873 0.7261902 0.94005203 0.50028247 0.10332689 0.021359235
CLI 0.41420835 -0.07693608 0.43562704 0.18537629 0.17624237 0.38719034 0.3873154 0.25170052 0.50829715 -0.2690907 0.0060430765 -0.73155755 -0.78163373 -1.8258655 1.8435233 0.9177419 0.18172057 0.23065475 -0.2113919 -1.2875774 0.6233288 -0.159536 0.30395013 -1.0739875
CMD 0.43867442 -0.5810214 0.4477941 -1.3131728 -0.299627 -0.21112426 -0.46272632 -0.9904555 -0.2018675 0.91144395 0.19732843 0.74533474 -0.051859498 0.3968376 -0.40919614 0.88752156 -1.380121 0.24862403 -0.6976565 -0.16232374 -0.005624637 0.33374187 -0.15045333 0.7163815
CMT -1.252985 0.2814647 -0.9990584 0.9961702 -0.7789949 0.33099 0.5699239 0.0030343384 -0.7861166 -0.4754674 -0.14770222 -0.07795328 0.40789145 0.09600778 -0.8258884 1.0463476 0.79764235 0.8725813 -1.1505444 -0.3685335 0.7482435 -0.25149077 1.0509199 -0.1035794
CNA -0.37721843 -0.47309157 -0.6722976 0.86390597 -0.38647178 -0.708417 0.89452535 0.10997349 -0.32682148 0.006643325 0.038014635 -0.16639164 0.08125229 -0.70651865 0.03050135 1.2117634 1.342418 0.26074222 0.6754983 0.062249422 0.7661841 0.10513991 0.8574786 0.3015028
CNF 0.0543008 0.18105695 1.0343314 -0.19449483 0.033986896 -0.112804085 0.09529367 0.030327713 0.30021554 -1.4131459 0.4291749 0.23793608 0.050730698 0.19467157 0.25745195 -0.23115933 -0.32058355 0.6289434 -1.1687783 -0.36718458 -1.1560507 0.4726876 0.39476436 -0.8441086
CNS -0.47498938 0.25611266 0.6620177 0.5358056 -0.5038872 -0.056519717 -0.4407066 0.13228679 0.83492225 0.16867319 1.0508862 0.5721948 0.08055979 -0.9862081 -0.37091708 0.51486 -0.4021324 0.03145343 0.19252977 -1.1505966 -0.3626632 0.92316556 0.60311675 -0.634793
CPA -1.0907869 0.9501434 0.16503394 0.50114125 -1.2105558 -0.06611855 0.23389044 -0.30238396 0.3305675 0.6445247 -0.29742274 0.2677271 0.3884536 -0.89049786 -0.8375038 0.382435 -0.28874063 0.39693365 -0.08317721 -0.51940876 -1.1199696 -0.77430594 0.894637 -0.37009364
CPM 0.19084972 0.33612898 -0.44806963 -0.59012055 -0.34235996 -0.6668034 0.514066 0.3464337 -0.05273609 -0.48146933 0.41092533 0.26782468 -0.78204036 0.307855 -0.17762792 0.6412351 0.5930393 0.21327166 -0.6404392 0.20921023 -0.75891995 -0.5945151 -0.10455507 -0.5585809
CPN 0.9164102 0.77553135 0.6223736 -1.0135871 0.43936673 0.14997818 0.66118205 -0.43216142 0.4719687 1.6575644 0.082362846 -0.5743071 -0.24848363 -0.5309486 -0.2692032 0.31648287 -0.37882394 0.27010053 0.21270752 -0.91840327 -0.21201017 0.047647525 0.3136374 -0.26872987
CPS -0.72950757 -0.054976404 -0.7541623 -0.002485156 0.24574059 -0.4046101 -0.96031666 -0.30633256 0.72560585 -0.4762324 0.39429212 0.25588804 -0.08061261 -1.4052165 -0.73964655 -0.54515034 0.38400975 -0.76170677 -0.15380509 -1.3090702 -0.65320235 -2.0861044 0.41929674 1.021766
CQE -0.29651338 1.3887842 0.20916155 -0.044751048 0.814814 0.14899479 -0.1330564 0.4645548 -0.5078968 0.9832741 1.2152307 -0.9626262 0.7492175 -0.21286587 0.36747572 0.5436056 0.7814048 0.72586155 0.009221017 0.09768073 -0.83521926 -0.081889495 -0.23612744 1.2446871
CQL -0.55520356 0.12281361 -0.5276439 0.17520636 0.96464837 0.55306137 -0.7990149 1.1500493 0.07226276 -0.9697138 -0.6116607 0.5352856 0.23961353 1.4035752 0.043076284 1.2424675 0.8060249 -0.3027017 -0.17192778 0.3771509 -0.23293465 0.56799406 0.21410114 -0.47156054
CQS -0.60606277 -0.28012812 0.4573242 0.7400476 -0.1764276 -0.65001833 -0.93708134 0.80292964 -0.46934557 1.0491257 0.29075313 0.014073998 0.73014116 0.5365509 -0.15867275 1.3885821 0.06047058 -0.13396357 -0.9348354 1.307665 -0.015832454 -0.6091097 0.14569588 0.4765164
CRD 0.41098765 0.3432916 0.7903577 0.40295383 -0.45335042 -0.7865115 -0.685639 0.43265906 -0.32176805 -0.15167373 -0.7579427 -0.24795581 -0.46541524 -0.0011676699 -1.5049236 -0.37414888 -0.5612563 -0.85271305 -0.7991491 -0.1056254 -0.29687598 -0.06852708 -0.4054422 -0.20812783
CRL -0.53314376 0.46207392 0.6194662 -0.9319705 -0.5825903 0.5271542 0.2593913 -0.71695864 -2.1259878 -0.5606663 -0.80321205 -0.03516254 0.7945887 0.005547382 0.51074934 -0.045935243 -0.6947482 1.0615249 -0.16634321 0.42713475 0.35819346 -0.27062345 -0.14770192 -1.0078248
CRS 0.030959556 0.44307223 -0.8060234 -0.23901764 0.048826635 0.7416133 -0.21323496 0.5418423 -0.38012612 -0.7482793 -0.6627667 -0.1754888 0.5692591 -0.48043323 -1.4033443 0.81441224 -0.8123308 -0.33897072 0.4580193 -0.32315588 -0.29417995 0.64440715 -0.27934736 0.6260179
CSK -0.36098808 -0.66816455 1.7117859 -0.49488792 0.16043366 -0.49401218 0.40559158 -0.4211533 -0.80640244 -0.10059919 0.33162376 -0.96991605 -0.46614468 -0.84762716 0.7475549 -0.5251848 1.2271336 0.25966167 -1.120698 2.226088 0.8883687 -0.028437942 0.070366405 0.3142626
CTC 0.5569937 0.56591046 0.07509928 1.7977 -0.4614479 -0.7482412 -0.9031372 -0.40482548 -0.5019319 0.10217331 -0.60837793 0.47592485 0.42564276 0.6519684 0.4242628 0.9855157 0.39189568 -0.14060405 -0.16077343 -1.2933846 0.46954152 0.74590033 0.6285771 -0.35866657
CTE -0.7009772 -1.1424723 0.12474738 0.31107026 -0.36865407 -1.0739152 -0.08581221 0.42868426 -0.08751804 0.59363437 -1.3857603 0.36816275 -0.12648445 0.88017356 -1.5835866 -0.9778117 0.83851075 -0.33194947 -0.5229901 0.65450907 -0.52063084 1.1732278 0.016547173 -0.9781747
CTG -0.07346447 -1.2965605 -0.7445062 0.65052223 -0.16005251 1.3988265 0.97891295 0.15461646 -0.4021514 -1.0076385 0.49329144 -0.7338094 0.09115344 -0.5565941 -0.7531813 0.54000854 0.017408177 0.44007507 -0.6944858 -0.47739682 -0.14524223 -0.5350499 0.4017837 0.2814655
CTP -0.41764805 0.6622544 0.09602583 -1.124663 -0.29046503 0.16489464 1.5968398 0.1653366 -0.8338052 0.1301961 0.43425384 0.8462523 -0.37871927 0.9282031 -0.34823802 0.36919463 0.3300301 0.24879369 -0.85722387 0.73768204 -0.47490874 0.034074664 0.6172021 -0.20657296
CTV 0.81226456 -0.51836085 -0.5603403 1.1103921 0.016096026 -0.26384476 -0.26152474 0.30076337 -0.5502668 0.113434225 -0.1585905 -1.6695377 1.3620554 -0.17593344 -0.40944222 0.11993459 -0.700155 0.2813197 0.27611518 -0.11187227 -1.0712707 0.33048382 0.48895285 -1.112217
CTY 0.32447034 -0.025041133 -1.7577498 0.241572 -0.0070333183 -1.7629306 1.3376608 -0.08930196 -0.46853018 -0.36218658 0.40735313 0.2615293 0.8841268 0.40479025 0.54922795 -0.93350357 0.014198244 -0.66490674 0.31532094 -0.73862743 -0.17487386 -1.1221532 0.22482547 -0.43438566
CVF -1.6014813 -0.70140123 0.5689068 0.062223215 0.23583569 0.3980817 0.19189234 -0.5477737 0.5522526 -0.42070293 -0.9306438 1.2767289 0.48569044 -0.71462077 -0.24326512 0.18022346 -0.258826 0.738045 -0.054550827 0.50153714 -0.6661826 -0.030330002 -0.31642997 -0.5288321
CVL 0.21593177 0.25759155 0.13510796 0.7323371 -0.09574038 0.24288404 -0.65358454 0.47677058 -0.16688448 -0.04595559 0.09709564 0.030213967 0.4421996 0.035855085 -0.52259356 0.05628276 -0.3480241 1.1665101 -0.5478095 0.26860565 0.099677 -0.36044386 -1.0128138 0.5902841
CVS 0.09743601 -0.23508716 -0.35959816 -0.0022553504 0.14544295 0.09732203 1.1585374 0.19607133 0.55247885 1.1841178 0.08881296 0.25862283 0.24800563 -0.3344793 -0.06816384 -0.13664088 0.74728936 0.03185506 0.46530667 -0.5286927 -1.0977194 0.35283902 0.963608 0.3641706
CWQ -0.10283005 -0.29835764 -0.24706279 -0.18254471 -0.15189904 0.15319891 0.26279193 1.0084552 0.7282775 -1.3224425 -1.1588458 0.43557775 0.4175562 -0.69549114 1.2361073 -0.4965321 0.40087718 -0.8326408 -0.53506446 0.82632816 -0.644283 1.1397016 0.197532 -0.64381933
CWR 0.20687729 0.6636176 0.3961587 1.2618158 -0.7631292 -0.31740272 0.98531497 0.37619108 -1.1064385 -0.4109326 -0.44788206 0.75777406 0.78256214 -0.41304484 0.42420515 -0.9461687 0.82649714 -0.6385273 -0.591691 -0.6136645 -0.42748404 1.5395372 -0.16772284 0.79056716
CYE 0.73563135 -0.983044 1.2959199 -0.63778085 -0.9032583 0.70957035 -0.124368966 -0.03633891 -0.23289695 0.55131215 -0.2685244 0.22614275 -0.47187075 0.26907843 0.66826063 -0.36709934 0.14621489 0.12657517 -0.92046535 -1.3793662 0.06426165 0.16750653 0.5949238 -0.31075957
CYH 0.8298038 -0.6588907 0.6737563 1.5970848 0.18082884 0.14263582 0.49069494 0.027995348 0.27596474 0.4303331 -1.3409417 0.08556451 1.540536 1.0947073 -0.4192001 0.06780374 -0.22167712 -0.2874969 0.53702265 0.23262167 0.5930785 -0.0072506554 0.7664262 0.020187065
DAC 0.3294325 0.09459745 -0.05103358 -0.9490118 0.12518951 -0.70364404 -0.28576112 -1.0690727 -0.17594899 -0.071300164 -0.51049274 0.96929646 1.4028955 0.116231635 0.3850739 0.9481177 -0.38542572 -0.50706416 0.6662946 -0.9580909 0.55592406 -0.3136064 -0.4564876 0.39422598
DAD -0.5849248 -1.8284793 -0.3696584 0.5355414 -0.32956618 1.0503242 0.58153445 -0.40770465 -0.66422945 -0.25882292 -1.4979777 0.39474875 0.7503488 0.07539524 -0.20342696 0.5695209 -0.72240573 0.0011973605 -0.33476865 1.4187043 -2.2698417 0.076917894 -0.16556276 1.08981
DAE -0.17867972 0.8766103 0.5486685 -0.25777575 0.36543763 -1.2133393 0.9362526 0.7185683 1.2388667 0.050506175 -0.48265707 -0.6311958 0.093008965 -1.1762772 -0.21106583 0.51047003 -0.5440023 0.21546131 -0.0352402 0.20763734 0.50683427 -0.62658906 -0.188388 0.662945
DAF -0.75566304 0.9411622 0.2968881 0.15139875 -0.5645553 0.09167166 0.731856 -0.35049602 -0.8606347 0.569366 0.18066049 1.553399 0.584651 0.226886 -0.73115635 -0.056373477 0.82815397 0.066169225 -0.26884452 0.3645875 0.7959025 -1.0361073 -0.16505337 0.25099048
DAK -0.045449495 0.88548845 -0.61807454 0.3641661 -0.49537772 -0.07276596 1.2878116 -0.8247087 -0.15027794 0.22998753 0.75256366 -0.5851182 -0.081508994 -0.53924495 -0.9383343 -1.2828549 -0.6903157 1.613184 0.029336616 -0.064981 0.58295596 -0.0691981 1.2419583 0.16766912
DAL -0.10136595 -0.43932402 0.14508092 -0.34945357 -0.1754359 -0.95043004 -1.077635 -1.2784019 1.4339471 -0.3101705 0.32716167 0.0038797855 -1.4405978 -0.48341566 -0.13011943 -1.5109307 0.4671331 -1.1064095 0.8640215 0.032363147 -1.318236 -0.054121017 -0.14198184 0.82777727
DAN -0.18111318 1.2326267 -0.07627764 -0.76253265 -0.9411019 0.78810734 0.71282446 0.3600599 0.18553808 -0.66968346 -0.7521359 -0.96710694 0.69832563 0.41288662 -0.4921759 -0.5570688 -0.49948722 0.8104814 0.1810396 0.21585885 -0.5914089 0.11727604 -0.42347652 -0.8154321
DAP -0.05007565 -0.4270483 0.74412435 -0.17634773 -0.76905185 0.38890615 0.12745428 0.35731548 -0.085905164 -0.027248979 1.2651364 0.3802955 -0.508947 -0.86635786 -0.34192437 0.08885516 -0.6317859 0.1540842 -0.08331351 0.29248348 0.55206037 -0.12904346 -0.43129075 0.25746703
DAR 0.08891313 0.538777 -0.14431734 0.25124446 0.60608065 -0.28032196 0.16407186 0.21164088 0.3360237 -1.621119 -0.32785696 0.1218115 0.35076568 0.91786957 0.57841367 -0.67389953 0.2570631 -0.19189553 0.6485383 -0.5375114 0.026751727 0.66372633 -0.6108923 -1.0100178
DAT 0.1308446 -0.5322971 0.2979714 -0.48706725 1.152044 -0.49892545 -0.30095166 0.56000406 0.04110214 -0.10209852 -0.9628157 -0.38641232 0.45097837 0.2631778 -0.1682825 -0.3467938 0.7584268 0.8891977 0.51137364 -0.66848075 0.5416201 0.9133245 0.11719126 0.18910739
DAW 1.1084273 0.09399845 0.4269173 0.22436751 0.7841263 0.36428162 -1.3811507 0.17851317 0.4519674 -0.35997722 0.49691266 -0.21284842 0.26666212 0.032246947 -0.43754172 -1.4608252 0.11824337 -0.81184745 -0.11251944 1.3102322 -0.24907926 -0.4551836 0.8332944 0.107145205
DAY 0.1796922 0.58243674 0.39813817 0.3211998 -0.2751825 -0.5526013 -0.593694 -0.55132204 0.7317474 -0.4866045 0.5278443 0.25815386 0.6147135 -0.47640333 0.06263819 0.42071036 1.0317786 -0.43297 0.14482345 -0.02687934 -0.08756631 1.7756995 -1.169157 0.20126888
DCG 0.9807764 0.06278956 -0.38544852 -0.5765632 -0.59078234 0.3518775 -1.3339466 0.11457476 -0.5008747 -0.7802541 -0.18405798 -0.82697624 -0.10828379 -0.8716321 -0.5296279 0.28202075 0.40063798 -0.3610476 -0.6845131 0.6396316 0.2249132 -0.31732437 0.4359384 0.20958284
DCH 1.2599971 -1.8287282 0.7411435 -2.530357 0.39588064 -0.05629465 0.24013524 -0.5811633 -0.19132535 -0.39201623 -0.17325655 -0.94230914 -0.8873271 0.413955 0.73437506 1.0660664 0.0968889 0.44669616 -0.88278306 -0.8587439 0.8071429 0.20973879 -0.07199888 0.06980798
DDA -0.6665733 -0.13579339 0.87049985 0.43256685 -0.70958084 -0.31378973 0.12906864 -0.548253 0.2275177 0.494226 -0.2191742 -0.1975801 -0.03260833 -1.7370514 -0.47052252 -0.30415443 0.85524267 1.1929487 -0.33675218 0.17132631 0.52792406 -0.1014898 -0.25799647 1.4750619
DDD 1.3195941 -0.23115814 -1.2897422 0.29516625 0.8828346 0.0567919 -0.04286187 -0.92281127 0.3323545 0.24653864 -0.25985894 -0.51410973 -0.6153106 -0.4289073 0.12383679 0.32280806 0.637056 -0.9543306 0.36735243 -1.1017721 1.2720343 -0.23196402 0.39354962 -0.32031965
DDF -0.31840253 0.5228066 0.3069734 0.26219308 -0.11509342 0.2889089 0.12563813 0.67460275 0.021693468 1.8315687 -0.25786936 -0.62281626 -0.41222516 -0.5704031 -0.6860831 -0.49729723 0.004612036 0.37466186 -0.31207365 0.9322885 -0.18531023 0.6362443 -0.21457972 -0.27505004
DDM -0.011434525 -1.8874483 0.6046934 -0.23575026 -0.27429298 -0.35831028 -0.6864305 0.8091377 -0.13998285 0.45005172 -0.6427684 -0.5679567 -0.8828818 -0.035283096 -0.7966302 0.8635706 -0.51279634 0.8729739 1.3174267 -0.04555718 0.35524023 0.35124972 -0.1686657 0.9481317
DDQ 0.3662107 0.12173083 -1.0272496 0.012398899 0.28819788 0.3744157 0.71333957 0.81391746 0.8941946 0.43599987 0.5484668 -0.1874595 -0.6536943 -0.3477495 0.74302506 0.49412444 -0.92433846 -0.5741809 -0.30279228 -0.06289232 0.18736126 -0.63669163 0.5850878 0.9079695
DDR 0.025617883 -0.39805442 -0.6416813 -1.1478875 0.2128363 0.773666 -0.558926 0.16268441 0.050596118 -0.13672116 0.69422686 -0.16468331 0.022363074 -0.96009886 0.7971997 -0.18074787 -1.0685885 -0.4952569 0.18823026 0.19186945 0.31651384 -1.2670004 0.2849546 0.4871685
DDT 0.43990672 -1.2041364 -0.44445753 0.83267313 -0.8321479 0.17657438 -0.43018615 0.057879083 -0.93638325 -1.0316894 -1.1117569 0.011813238 0.7479596 -0.8325564 -0.068794325 0.67958385 0.18135786 0.963789 -0.8419127 -1.4488587 0.8865801 -0.29439682 -0.29642317 -0.41255778
DDY -1.2282915 0.38303304 0.87213343 -0.6825216 0.73130476 0.36945465 1.3415082 -0.47850937 0.8223384 -0.8024316 0.74500465 0.62593544 -0.3221865 -0.51421285 0.072727546 0.8822671 -0.84394485 0.109633714 -0.41014913 -0.7335687 1.8622496 -0.52798665 0.29837367 1.2752714
DEE -1.2737131 0.2532894 0.34229794 1.1052027 1.1745309 -0.02812305 0.2092106 0.045263827 0.24962461 -0.08410044 -0.22188507 -1.1693865 -0.5429827 0.3729782 -0.4349489 -1.0478301 -1.1490405 0.56580853 -0.04258357 0.763919 0.26174766 -1.2652572 -0.48679316 -0.29025087
DEI 1.0011866 -0.46314886 0.76745504 0.061500967 0.40343362 0.53354293 0.13707016 0.7584339 -0.5784285 0.41732183 -0.100250214 -0.5790661 0.029612005 -0.76766574 0.4204003 0.45826852 0.17100644 -0.41002288 0.123812824 -0.44030285 0.9922964 -0.6648529 0.087684214 -0.06610477
DEP 0.055807024 0.6726965 0.75191647 0.018762171 0.22594756 -0.051689655 -0.16163728 -0.8052896 -1.2564174 -0.41302735 -0.96086764 -0.7559004 -0.7980925 -0.6621495 -0.15144743 -0.65910685 1.6333663 0.006494209 1.0645614 -0.24616438 0.9222533 -0.01499787 0.1587389 -0.106019914
DEQ -0.6832299 0.66601443 1.6967366 -0.26152337 -0.37598032 -1.1710429 1.3862708 0.7179955 0.44910622 0.72302246 1.2045383 -0.7480673 -1.7384404 0.9931451 -0.18319155 0.0051084757 -0.24737376 0.33578703 -0.7987097 0.58534443 -1.9263717 0.91030014 -0.28887856 -0.8176302
DER -0.16854535 -0.8171803 -1.8066549 0.4412567 0.31221378 0.26445398 0.2620911 -0.69550467 0.5397569 -0.37808955 -0.35239998 0.77845526 -0.23088746 0.6471137 0.46665183 -0.0851504 -0.11649948 -0.08483018 0.6364541 0.40415072 -0.7172523 -1.0035489 -0.17315464 -1.1679107
DES 0.03145638 -0.60679245 -0.41247255 0.62184674 -0.19871566 -0.9276367 -0.83769953 0.6996522 -0.8184662 -0.5480546 0.28652912 -0.5874109 1.1475178 -0.049855262 -0.38603547 0.44086352 0.45046023 0.1483444 -0.15289304 0.9675374 -0.045399904 -0.8611892 0.8621557 0.43185073
DEV 0.768749 -0.7751998 -1.1659254 0.83196044 -0.014460549 0.8080496 -1.4683044 0.19521016 0.014411211 0.6391212 1.4274889 0.36727527 -0.018103525 1.7852325 -0.70169896 0.22462502 0.23793082 -0.20746726 -0.19441648 -0.98167145 -1.444224 -0.5625447 -0.92592347 -0.416479
DEY -0.42443895 -0.4617781 -0.0005942583 0.024555165 1.4962941 -0.08176034 0.58513427 0.45366842 -1.3126287 -1.5139042 0.0008895099 0.6265006 -0.19818568 -0.12380062 -0.24359435 0.6228069 0.018697739 -0.2003234 0.47112742 -0.8043194 0.65620124 0.46516794 0.30269235 0.04991746
DFA -0.072141655 -0.12093033 1.4189811 0.6666218 -0.24071082 0.23851176 -0.12350601 -0.1184866 -0.45325434 1.2608187 -0.036690593 1.5499206 -0.5791069 -0.020866461 -0.12863694 -0.87728965 -0.057065375 -0.3219696 -0.9150857 0.30398327 0.41318512 0.17300564 0.6866045 -0.5953821
DFD -0.3396221 -0.27385938 -0.045695126 -0.2067638 0.63830554 -0.6570707 -0.08929245 0.14846165 -0.27496898 0.08454722 0.1991916 -0.6466788 -0.9331775 0.48079872 0.97871745 -0.008918881 0.36994484 0.7585504 0.46366853 -0.35423115 0.5697725 -0.51717013 -0.7007211 1.1121025
DFF 0.6598994 -0.422288 1.4688705 1.0483288 0.83343756 -0.999923 -0.9160618 0.08631694 -0.06951225 0.049230218 -0.40093535 0.6214519 -0.29605627 0.9572939 0.09712641 0.5670556 -1.1628064 0.013506949 1.3367923 -0.04992661 0.27787036 0.2920757 0.19490007 0.8152169
DFG 1.7494321 0.329499 -0.70693 0.20404191 0.2477013 0.90041727 1.1389841 0.12085848 0.5478598 0.05440052 -0.37793568 0.3900854 0.7509604 -0.103134856 0.5456926 0.4261673 -0.96344864 -0.08353661 1.0926526 -0.59533954 -0.14276308 -0.23122548 0.36797434 0.2772967
DFN 0.024922073 -1.0246667 0.4051262 0.029207826 -1.2046856 -0.14986722 0.68273044 -0.12177359 0.4806111 -0.09229492 -0.038499475 0.7462423 1.5686135 -0.6070523 0.43506822 -0.19627821 0.20844932 -0.7220904 -0.07324752 -0.061102934 -0.53408563 -0.28166506 1.3798292 -0.040847182
DFP 0.2595621 -0.8425243 -0.19861802 0.75394404 -1.1877589 0.8633367 -1.3042232 -1.3968338 -0.86268055 0.36365116 0.8287984 0.37608153 -0.662979 1.5424988 1.0763681 -0.6997901 -0.00021445751 -0.58093786 -1.3894913 0.6662894 0.27104557 -0.7594626 -0.08850012 -0.6069058
DFQ -0.29512805 0.043216527 -0.11068833 -0.5163855 -0.3510394 0.26478964 -1.2588636 0.052426144 1.2239363 -0.43324524 -1.1021495 -0.29427457 -0.061810195 0.023536034 0.5456369 0.34012818 0.25072777 0.30481052 -0.37036744 0.7327504 0.59735876 -0.7011486 -0.110768914 0.7899953
DFV 1.0844209 0.7943428 -0.9484198 0.40800816 0.02605787 -0.6711204 0.7311398 -0.8514161 1.2946658 0.5212999 -0.3363779 0.8413531 -0.03980401 -0.364973 -1.2119493 -0.43169153 0.8278589 -1.3269255 -0.28196764 0.011079669 -0.24062765 0.011752918 0.34731516 0.34952244
DGD -0.7495084 0.05935985 -0.74016917 -0.13659081 -0.691398 0.7290436 0.21168603 0.32095367 -0.44604975 0.26701805 0.749123 -1.1594365 -1.0318266 0.5848688 0.50647116 -0.5625248 -0.168042 0.056972712 0.8862975 0.16994436 0.4942633 -1.1751983 0.78662497 0.8831944
DGE -0.506762 -0.046518467 -0.19661334 -0.51883686 1.415802 0.0871042 -0.37652165 0.3663943 1.1401451 -0.83078545 0.08768232 0.3239178 -0.64618796 1.3749647 0.4421774 -0.050613284 0.45680827 -1.1321534 0.75020486 -0.06710109 -0.573475 -0.40911406 0.18079369 0.16958438
DGF -0.05564171 0.054187756 0.3980502 0.3960622 -0.2654806 0.6242713 0.14067689 -0.45899707 -0.7765963 1.641081 0.8210457 0.26936686 -0.008878827 -0.19693331 0.17097145 0.4347288 1.4060438 0.5838057 -0.451279 -0.22559822 0.23030394 0.1734732 0.7494372 0.5181166
DGL -0.38170713 -0.23047829 0.24749422 -0.16037525 0.44534066 0.7001638 -0.07702713 -0.9722654 0.42447332 1.0718138 0.47818226 -0.13968405 -0.127043 0.1923359 0.54471195 0.24356201 -0.43854585 0.39560747 0.30033082 -0.9938113 -0.90596783 -0.18806373 -1.1074127 0.26960486
DGP -0.71081066 -0.34855834 -0.46217778 -0.34680665 -0.29437786 -0.28129095 0.538046 0.012634054 0.9752408 -0.93532866 -0.030840218 -0.8451591 0.5065057 0.3536414 -1.2053792 1.0513266 -0.5430487 0.09910332 -0.73974305 -0.004113406 0.8064363 0.22340895 -0.034574598 -1.2395247
DGQ 0.24043155 1.1213518 0.66201395 -1.4246898 -0.087014824 0.13145018 0.10121927 -0.5448833 -0.62050784 -0.011689022 0.64110696 0.5362946 -0.33813196 -0.74708843 0.35296354 -0.8723364 -0.37542394 -0.7877857 0.5602821 0.96899474 -0.34379968 0.48215187 -0.3087852 -0.25491714
DGR 0.8769473 -0.45328224 0.28182623 0.30168673 0.6985778 0.51666445 0.2791317 -0.34793037 -0.11192339 0.07597521 -0.54664177 -0.09940048 0.15314043 -0.15042174 -0.110426076 -0.26604503 -0.12154922 0.17772341 -0.48852843 0.53029394 0.21718219 -0.40689343 0.23224798 0.5432385
DGT 0.49732363 -0.14016116 -0.68730193 0.2986138 -0.46351612 0.3137085 0.073878765 -0.14629269 0.55954653 -0.75454104 0.3552568 -0.3678572 -0.30647188 0.017379373 -0.3434047 0.38798282 0.53815925 -0.15327604 -1.3332222 -0.4926451 -0.9199424 -0.102447 -0.44432425 0.5275754
DGV -0.96284866 -0.086911574 0.31924888 0.8396613 0.3194552 -0.6468865 0.5553415 0.08702712 -0.07231262 -0.4029662 0.90572727 1.4358577 -0.07839291 -0.16959909 0.22750044 -0.052767027 0.3883772 -0.34744108 -0.7563912 -0.42038578 -0.5895272 -0.18414657 0.79150033 0.37137273
DHA 0.17729136 -0.4939239 0.2995525 -0.68850195 0.14738527 -0.3569773 -0.21162368 0.53332746 -0.22828352 0.19093227 -0.2952767 0.23416135 -0.5187204 1.426956 -0.33212474 -0.17849156 0.27251792 -0.7172608 -0.06867413 0.09138462 -0.022634685 -1.0301731 -0.24767438 -0.7851273
DHC -0.4457398 0.41784117 -0.16424884 -1.3554265 0.2287944 1.193161 0.38786507 -0.43157887 0.8082342 -0.19728085 0.27588302 -0.49348086 0.21723273 -0.20873082 0.12859803 -0.5044308 0.3986075 0.4132221 -0.15312554 -0.12591721 -0.051711798 -1.5549015 0.055238485 -0.26552206
DHI -0.54839545 0.30250996 1.0861012 -1.0645846 -0.039820045 0.22331163 0.20478791 0.6550988 0.45175892 -0.9308965 -0.68520355 -0.70139676 -1.0644748 -0.53872377 -0.27880627 -0.2618112 -0.29951587 1.0475566 -0.33086383 0.06413005 -0.10082078 -1.0368816 -0.31107822 0.33886924
DHK -0.13199839 0.42477122 -0.3988282 -0.82587785 -0.18877171 -0.20848611 -0.36361575 0.51630217 -0.43744215 -0.41504338 0.23511536 0.24165308 1.1754826 -0.36335295 0.30887514 -0.14209561 -0.54417753 0.3575338 0.39677316 -0.4689542 -0.15343902 -0.01313436 -0.40231448 -0.2018632
DHL -1.1247764 -0.40478915 -0.6853521 -0.6320499 -0.064098656 0.32477438 1.0991795 0.72585386 1.0914683 0.70182115 0.22082281 -0.33939523 0.8737802 -0.7418615 -0.8100758 -0.53615236 0.031410515 -1.2456452 0.17770682 -0.24098623 -1.4813025 0.35819703 -0.86101925 -0.26436096
DHP 0.70987 0.6494834 0.37740943 -0.05297962 -0.040365715 0.06585005 0.2702966 0.022484843 -0.82016754 -1.2255906 -0.9178458 0.16143417 0.69550467 -0.754397 0.25696138 0.54710615 -0.15457878 0.23543064 0.27117708 0.21815488 0.11026563 -0.31726927 -0.82521886 0.2338373
DHR 1.2194809 2.3693948 -0.17431515 -0.0035811886 -0.10892478 0.09843802 0.13292442 -0.069894254 1.4969664 0.8351831 -0.9283555 -0.80946827 -0.20038876 -0.13621226 0.7697112 -0.18532729 -0.12662363 -0.61634314 0.9493972 0.14276978 -0.116582185 -0.21092314 0.014322072 0.042418763
DHV 0.31825083 -0.4804956 -0.26091138 -0.5454547 0.6595989 -0.94854087 0.035568595 -0.7408638 -1.5196952 -0.59189093 0.025134824 -0.030015992 0.5590646 -0.25173554 -0.03943801 -0.41753823 -0.68302083 1.5103815 -0.6402792 -0.41248643 -0.16079322 -0.9734546 0.9113641 0.9692669
DHY -0.7271672 0.1611538 0.25921 0.20404871 -1.4001955 0.7371279 0.7557957 -1.2288431 0.5044629 0.0007330775 -0.5872696 0.7401829 0.72263724 -0.51823425 0.3160742 0.89257157 0.1933819 -0.47627234 0.37499782 0.33153212 -0.5014016 1.1134077 -0.51698726 -0.39784783
DIC 0.4912743 -0.72584236 -0.17373797 1.1520258 -0.35748875 0.021742076 0.8866232 0.64966804 -0.470264 0.0284307 -0.4677601 1.0512009 -0.48553792 1.2704206 0.12430465 -0.022988237 -0.58205986 0.098186195 0.046014786 -0.5844351 -0.50379586 0.3399401 1.174272 -0.5939984
DID -0.3377446 -0.43224964 -0.35323012 0.04953572 0.57147557 -1.1052544 -0.29298773 -0.10717133 0.08766459 -0.7442139 -0.02856955 -0.28203687 0.50820696 -1.2065086 -0.33257136 1.0393025 -0.41767848 -1.3539208 -0.49550486 0.09798978 0.27196878 0.2907851 0.42614046 -0.8061486
DIF 0.3571406 0.4657786 0.7212644 1.1402512 0.6354052 0.7474276 -1.2000318 0.3342729 0.028600723 -0.39746493 -0.007368326 -0.041118547 0.4087374 -1.0635808 -0.12121576 0.2840236 -0.2523764 0.03485901 0.5859525 0.41119698 -0.1398257 0.18934408 0.3534758 -0.076629244
DIH 0.14263764 -0.38266534 1.0664896 0.59208375 0.8252319 -0.99249136 -0.018675148 -0.41902795 1.2170076 -0.54971176 -0.22577037 0.5092979 0.7968788 -0.46601367 0.025259674 0.2665281 0.6249776 1.3774683 -0.1673837 0.082371965 -0.62571603 -0.7979433 -0.6977186 0.20869368
DII 1.5826184 -0.3735389 -0.42543975 -0.85818297 -0.9896243 -0.57158315 -0.5387163 0.3992691 1.1307203 1.6616025 0.47602612 0.8928281 0.00226596 0.8146726 0.69294643 -0.4448256 -1.0860995 -1.4916143 -0.6702751 -0.03316781 -0.12784366 -0.11069751 -1.6845791 0.084683955
DIL -0.56127656 -1.2773559 -0.40293342 -1.3111659 -0.9176363 -1.1640847 0.44024092 -0.76681244 0.4999258 -0.30797338 -1.2691324 0.7474484 -0.41583484 -0.8100734 0.10081805 1.2071368 1.5409267 1.2411488 0.5840084 0.43772253 0.28494367 0.024014562 0.30908713 -0.33232412
DIN 0.6473036 0.80373216 -0.27686822 0.41031697 0.5730214 0.7230649 -0.060488805 -1.1878121 -0.9905201 -0.48335025 -0.20770016 0.06992027 -0.2839684 0.17808059 -0.060171973 -0.6589016 -0.7754105 -0.15919785 -1.3950552 -0.9102063 0.5962532 0.6881852 0.19081904 -0.69219863
DIR -0.6698685 0.25441688 -0.3953635 0.23570539 0.14005578 -0.61812013 0.6293202 -0.46830192 -0.93133223 -0.21896955 -0.09262213 1.1891216 0.036678076 1.2281582 -0.5863214 1.2416921 -0.99060583 -0.11240548 0.18709695 -0.90518224 -1.1416554 0.81612843 0.29339454 0.3768829
DIS -0.22677362 -0.08916983 -0.9455249 -0.60695934 0.15296996 -0.39947733 -0.8095202 0.99972576 -0.8020096 -0.0072594434 -0.02290994 -0.9211656 0.9629855 -0.2567983 -0.9498618 1.4044557 0.8280969 -0.32438755 0.023479462 1.1092361 0.12586594 -0.41830698 -1.2266259 0.1472776
DIT -0.55777675 -0.31006837 0.042439446 0.44784817 0.36365402 -0.39506817 -0.14088814 -1.1559143 0.33421984 0.041491546 -0.8431912 0.53470266 -1.439595 -0.6236813 0.46507877 -0.3662819 0.7654557 1.427755 -0.51105124 1.1207838 0.59857476 1.1904206 -0.44138703 -0.073601544
DIV -1.0916142 -0.0028709117 0.54662627 0.16336027 0.050435215 -0.14914447 -0.33834243 0.66447306 0.4962193 -0.22457911 -0.6494541 -0.93329775 -0.2915392 -0.9014287 0.2602561 0.39477548 0.34885573 -1.1552098 -0.5018149 0.44362348 -0.41702095 0.5671818 -0.97534364 0.8891014
DIY 0.57454115 0.13761707 0.5293075 0.073274925 -0.47526267 0.7370125 -0.8100513 -0.96928465 -1.3057702 -0.47129673 -0.9502001 0.18694276 -0.83650213 1.2007675 0.16454203 0.007516414 -0.9047638 0.80551684 0.7060798 -0.0338483 -0.7117603 0.1354064 0.16428238 0.08199376
DKA -0.03654006 -0.33215237 -0.2248097 0.17186716 -0.51463544 -0.20946938 -0.2890355 -0.43133602 0.10089722 -0.12090741 -0.9476752 0.104497194 0.20760182 -0.5174327 0.6326849 -0.5202505 -0.14525032 0.003629759 -1.187771 -0.31023252 0.4215586 -1.2813666 -0.87244976 -0.34726742
DKF -0.42534018 -0.8957623 1.0292002 0.31823492 -0.5136775 -0.06248033 0.56456274 1.479419 -0.26313603 -0.65974575 0.94737136 -1.3795004 -0.22453752 -0.19090216 -0.40849224 -0.5712133 -0.29534823 -0.29790235 -0.27649087 -0.94722366 -0.1446212 0.35042349 1.2816502 0.30060205
DKI -0.4941962 1.0290933 1.0094535 -0.34241045 -0.72738546 0.09265703 0.6619422 -1.047949 0.043381363 -0.18436797 -0.45158148 0.15771627 0.848194 0.71319234 0.39935744 -0.9174888 0.08813831 1.1149619 -0.5894634 0.5266173 -0.9499953 0.23701264 0.4657003 -1.0715758
DKL 0.10313281 0.9342817 0.6732649 0.85856277 -0.1255076 0.10647494 0.1816476 0.16629156 -0.65692943 -0.28289044 0.008812174 -0.1609604 -1.6465788 1.503885 0.1157715 0.013704181 -0.17694995 -0.25209695 0.35988364 0.678105 0.71286297 0.21205734 0.10049772 0.81591606
DKM 0.18210344 -0.6765113 -0.28288898 0.06732802 -0.07286382 0.8174676 -0.123505816 0.13713185 -0.28214866 0.29761803 0.5281246 -0.21505362 -0.34663865 -0.0503152 0.32898715 -0.42744738 -0.2073685 -0.3572893 0.3642507 -1.9724326 -0.3893822 -0.565982 0.3890217 0.8480599
DKR -0.0025458038 0.2792616 -0.31222925 -0.40300596 -1.3459021 -0.14836822 -0.8574722 -0.053076074 -0.15915799 0.5746694 0.43029255 -0.16039535 0.6616281 0.10550853 -0.9846569 -0.050597638 0.5740051 0.27345747 -0.86263883 -0.23582396 0.4287218 -0.6854714 -0.21006113 -0.10233939
DKT 0.6534199 0.5550679 0.45704722 0.10240548 1.0685763 -0.2509788 0.38476127 0.19750014 0.22779581 -1.2981176 0.49110276 -0.85776174 -0.44822156 0.27482247 -0.8887004 -1.0722007 0.1739805 -0.22874522 0.7638843 0.41816893 0.14277597 0.2705056 -0.6594076 0.5598219
DKV -0.2838465 -0.098076984 -0.16791493 -0.19327632 -0.7908765 -0.66098166 -0.17464104 -1.4433459 -1.1199998 0.6006889 -1.0685089 -1.0562437 0.019719478 0.033852875 -0.92078227 0.64516264 0.81006354 0.2865678 0.007797867 -0.008264102 0.31732985 -0.22826329 0.07601267 -0.76430523
DLC 0.26281965 -0.75834996 -0.9168918 -0.20819433 0.51059604 0.21877503 1.2158089 -0.38513714 -0.21820495 0.9274403 0.2948856 0.8180963 0.5703049 2.065952 0.5410054 0.9722547 0.16248426 -0.19337541 1.1477476 -0.22774982 -0.4135468 1.4831793 0.5718803 0.52158785
DLD 0.25888842 -1.3839512 0.7026267 -1.1535432 0.584372 -0.4892403 -0.7132391 0.76261735 -0.5427121 -1.2489306 -0.46296826 -0.9794112 0.20933169 -0.4308557 -0.29016384 0.09907055 0.2069385 -1.4772619 0.24384403 0.27855256 -0.30330598 -0.68729055 -0.18865791 -0.38775575
DLE -0.24293983 -0.3256209 -0.17490092 -1.2335231 0.195978 -0.58848345 0.086384214 0.39733213 -0.017985806 -0.7180013 -0.30086142 0.9140067 0.19330788 -0.26051188 -1.0663466 -0.4612619 0.14225811 1.0082588 -0.07107009 -0.7857752 -0.57935536 -0.048071504 -0.36948976 -0.2790991
DLI -0.49018002 -0.039697096 -0.21417333 0.7448501 0.23451585 -1.2426034 0.97501874 -0.8675073 0.1390233 -0.38212544 -0.116717875 0.69195056 1.0359578 0.082195014 0.6810524 -0.5947312 0.71748614 -0.24572098 0.13489133 -0.15030372 0.31475815 -0.17554566 0.31561425 -0.21544838
DLK -0.63813615 -0.27044243 0.47543794 -0.7872498 -0.47684702 1.220646 -1.3202055 0.43393487 -0.35783386 -0.1535203 -0.47578317 -0.028216958 1.7697873 0.2123462 -0.067903645 -0.46414292 -0.013413407 -0.22928764 0.3486793 0.37129015 0.28172007 -0.4335966 0.9790213 0.9495932
DLM 0.68528444 0.011942565 0.7425135 -0.56566274 -0.136136 0.74332786 -0.15424597 -1.3007352 0.72040105 -0.88575673 0.29355994 -0.6242034 0.17086995 0.5919241 0.4161151 -0.09646771 -0.4780519 -1.736797 -0.34370694 -0.48074758 -0.669776 0.94865453 -0.06900239 0.11261894
DLS -1.3197117 -1.2806572 -0.002404306 -0.6233709 -0.30079296 -0.2847495 0.3856699 -0.036866657 1.0452387 0.46535182 0.84436166 -0.53962755 0.5099635 0.30877775 0.41223806 -0.61161286 -0.25821725 0.015942693 1.1972083 0.44913724 0.3808607 -0.8284426 0.4328366 1.0255654
DLT -0.37121782 0.47036627 0.90558565 1.51283 0.70387226 0.88443244 -0.095006526 0.17751405 0.27214682 0.13593304 -0.6982075 -1.2275231 -1.0651014 0.82364774 -0.4747926 -0.9277176 0.4274891 0.25692263 -0.80529606 -0.13757685 0.42081636 0.24022058 0.7582949 1.0231609
DLV -0.76742107 0.15384069 -0.21851599 0.02696094 -0.58183515 0.623247 -1.4253191 0.31996435 0.28780544 -0.96277046 -0.27378094 0.5334503 -0.25769618 -0.12473128 -0.1825893 -0.30433905 -0.1657636 -0.43477094 -0.70229673 -0.4667585 0.2026656 0.17124547 0.07274261 0.52252597
DLY 0.84640694 -0.5963098 -0.096552365 0.4121614 -0.99559426 0.44905108 1.0737226 0.3659175 -0.5858294 -0.58888376 -0.14262821 -0.3142825 -0.8557652 1.8116884 -0.2458786 0.31369004 -0.44665235 0.87746245 -0.44155842 -0.09679946 -0.030590743 0.52008903 -0.1498197 -0.37107623
DMD -0.054647982 -0.47066155 -0.0093026385 -0.58451235 0.15762363 0.5914618 1.0929114 -0.065301046 -0.5662486 0.22634709 1.111399 -0.21015146 1.4654009 0.96953607 -1.6978062 -0.3219365 -0.38744783 -0.54280996 0.25912142 -0.11151108 -0.36546412 -0.91141593 -0.09886831 0.9253106
DMG 0.6006649 0.38574275 0.9181269 0.11683965 0.13725288 -0.30599326 0.07117047 0.23086739 0.030081615 0.13432848 0.25128254 -0.38754275 -0.61193216 -0.3796533 -0.77245915 0.68905634 0.8386385 -0.7134419 0.10267991 0.28183925 0.056444213 -0.4799629 -0.1016821 -1.0373409
DMI -0.87692297 0.30430895 -0.94132376 0.38946736 0.48089588 -0.5204036 0.23419878 0.0450321 -0.18468738 0.524336 0.8978714 0.12129739 -0.13680825 0.5709891 0.3290881 -1.8436546 1.1923556 -0.23631379 0.8411286 0.63436306 -0.03168574 -0.7492819 0.5440348 1.5524359
DMS 1.5685756 -0.097405106 0.96667176 0.7449379 0.16860022 0.15980107 0.07118392 0.36742234 0.032461092 0.9220395 -0.40775612 0.27164704 0.44432193 0.9250843 0.5378732 -0.03380233 0.0022286773 -0.4225016 -0.027297191 0.12986234 -0.46182543 -0.025873378 0.30150348 -0.53482324
DNA -0.12903057 -0.14594346 0.0328575 -0.67477703 0.031226277 0.42378712 -0.48502252 -0.2787324 -0.5804558 1.3279972 -0.27570504 -0.6852837 -1.0322111 -0.7529523 -0.3799074 -0.0815589 -0.019601114 -0.22782402 -0.4944778 -0.504602 0.76276445 0.031882703 0.01613164 0.45510426
DND -0.17796561 0.10475555 -0.41542822 0.3299871 0.38623428 -0.23432523 1.154611 0.43650532 -0.49346823 0.2863819 -0.5764024 -0.6771736 1.14718 0.11696273 0.20972091 -0.67484295 -0.5541048 -0.7992855 -1.0613002 0.21591547 0.88165736 0.49220288 -0.22188526 -0.77972645
DNL 0.6850718 0.10581389 -0.7427705 -0.1740309 1.0241747 0.79283094 0.14030816 -0.5176444 0.87670594 0.13118401 -0.66196996 0.035710633 0.71204025 0.77771276 0.7553196 -0.107693315 -0.212905 0.012212366 0.27295655 0.034874335 0.48409134 -0.5540073 -0.27250645 0.597512
DNS -0.5881884 -0.70574623 -0.34760123 0.15484305 -0.42346707 1.9435271 0.10810329 0.3337369 -0.49097043 -0.7194896 0.21887718 -0.07909579 0.98307884 0.011683956 -1.0236377 0.2284348 0.5977543 -0.06765613 0.050486714 0.24620746 -0.9295231 0.6876669 0.38388258 -1.0072916
DNV -0.2293334 0.47955143 -0.5270901 -0.5773135 0.7783416 0.0857477 0.20841078 1.3605676 0.3767144 0.31688192 0.224303 -0.5648071 0.15846999 -0.07491927 -0.1279679 0.4578092 0.32481712 1.031043 0.28588957 -0.5005634 -0.78383243 0.6044752 -0.33276972 0.27168024
DPA 1.1093018 0.19230711 0.81595755 -0.23116386 -0.29913598 0.2648525 0.24132797 -0.32020402 0.042265207 1.3178586 -0.5201498 -0.7016207 -0.24057418 -0.3385016 -1.142867 0.716475 0.6246785 -0.7104818 -0.71911794 0.3868898 0.20090812 -0.07457133 0.9793853 -0.6264202
DPF -0.22805041 -0.7584834 0.11567788 -0.28014803 -0.75616205 0.3492829 0.8406753 0.15321822 0.0702136 0.13350657 -0.31281117 -0.95639634 -0.40017515 0.52619976 -0.31014982 -0.060384274 -0.003093183 -0.09729796 -0.04121995 0.06763059 0.07849509 -0.100387484 -0.7577062 -0.384908
DPG 0.36494923 0.33998442 0.42593747 0.50279665 0.59047973 0.34065044 -1.3703917 0.69579977 -0.3884746 0.58620167 -0.68321687 0.4613995 -1.004113 0.9350357 -1.3982346 1.1033918 -0.30381432 0.43994385 0.64141995 -0.02351582 -0.058530077 1.1053982 0.38515934 1.2387735
DPI -1.2183006 -0.5826648 0.31677735 -0.05612517 -0.090766005 -0.4704063 -0.29300296 0.15666226 0.011060312 -0.41063443 0.40848333 0.14708222 0.08839187 -0.8730774 0.41383934 0.19041872 0.07038516 0.89584756 -1.0227332 0.25540763 0.5979833 -0.08781168 -1.3389375 -0.0075384974
DPK 0.26162836 -1.5130906 -0.5563232 0.09990878 -0.176074 0.6776569 0.8431521 -0.12769505 -0.32937652 0.8777029 0.9528631 0.3101369 0.13189286 1.7090635 0.90557885 -0.59654796 0.78221714 0.17030868 1.5654775 1.5692542 1.8317392 -1.0271807 0.12823233 0.59344864
DPN -0.19312638 0.21071765 -0.34358746 -0.31389034 0.029016197 -0.731019 0.9101842 1.0555661 -0.54561627 0.24556482 -0.38192147 -1.0334307 0.11237395 0.07637784 0.5475905 0.24672139 0.22273682 0.020566404 -0.2212717 1.1089272 -0.14162426 -0.3166772 -1.4829026 -0.70239305
DPR 0.055311143 0.69540966 -0.32020056 0.07561743 0.3722679 -0.45134923 -0.40302706 -0.016501963 0.0494017 -0.5367782 0.017614007 0.06476872 0.69334894 0.09027023 0.860541 0.25915942 0.12673777 -0.16249913 -0.9752266 -0.19960295 -0.15737472 0.263096 0.11048801 0.056354016
DPV -0.42461073 -0.34469494 0.072998464 -1.0967271 1.4876517 -0.6480696 -0.8129017 0.25476754 0.2535464 1.0429429 0.11814031 -0.71307373 0.70188975 0.828071 0.030891046 1.0506569 0.003869824 1.0840322 0.5034572 -0.28460974 0.12709539 0.17753445 -0.20589638 0.87251544
DQG -0.34086585 0.95220053 0.14498833 0.77781606 0.0007030368 0.4806363 0.0421046 0.82666236 -0.7436939 -0.3513499 -0.50906706 1.0518268 0.43801403 0.48037645 0.38690707 -0.44618347 1.1883168 -0.8970302 0.33830386 -0.16795948 0.56535965 -0.51159215 0.21217239 -0.50235426
DQH 0.5043663 -0.92432326 0.7162695 -0.19460917 -1.1812558 -0.0499613 0.8474291 -0.02902241 -0.038190827 -1.0049576 0.5967575 0.70713615 -0.16507477 0.26606977 -0.08733627 -0.0886004 -0.3492344 -0.22995466 0.40413743 -0.5719842 1.3759571 0.7430129 0.055437207 -0.081908464
DQL 0.12155069 -0.46875948 -0.019712396 1.3793389 0.7549294 0.6071468 0.71446216 -0.24848634 -1.0294497 0.2638439 -0.015437365 0.0035437346 -1.7344348 -0.05166354 0.9298365 -0.69707 0.11274606 -0.060907513 0.2892752 -0.06602037 -0.5110997 1.2225027 0.23488103 -0.15900198
DRA 0.34865978 -0.62029326 0.96391064 0.46676648 0.24709222 -0.5217022 0.0056755543 -0.021095753 1.1972842 1.7352414 0.56278706 1.7011285 1.0281322 0.19146976 -0.70128226 0.009408206 -0.9724926 -0.17697728 -0.5125061 0.121848285 0.8580036 -0.24998516 -0.87682533 0.45123464
DRC -0.42440996 -0.3862378 -1.3071097 -0.1515412 -0.24592105 0.5058067 -0.25760078 1.7682955 -1.0529358 0.26032326 -0.55859554 0.7129785 -0.027392522 0.05232522 -0.45951888 0.3789319 -0.20373245 0.68896806 0.3422776 -1.3969901 -0.34154052 0.5320655 -0.31581017 -0.3407036
DRE 0.95380473 -0.44677585 1.245726 0.34600824 -0.26409525 -0.32184398 -0.25163063 -0.42134058 0.062958345 1.4997885 -0.022277802 -0.24954106 -0.70098615 0.61211896 0.37271813 -0.63321316 -0.27141976 0.91115797 -0.53422093 -0.7151665 -0.16952722 0.43072128 0.2908979 0.3146153
DRF -0.92121404 0.60992944 -0.13107598 0.06729208 -0.27222013 -1.1167337 0.9427145 -0.42598796 1.0394101 0.23665363 -0.25963366 -1.262603 0.447165 -0.45969668 0.2302536 1.8685211 -0.6600698 0.38856268 -0.6287552 -0.16121876 -0.39030018 1.2021419 0.46863633 -0.39078695
DRI 0.20493042 1.4348211 -0.7312226 -1.1721591 -0.023170114 1.7231171 -0.31976378 -0.1580649 0.4029172 0.37167266 -0.044369727 -0.013710618 0.13542444 -0.29972076 0.8852966 -0.45379555 -0.4119907 0.1604373 0.55695176 0.4754606 -0.7908896 -0.5777215 -0.4053354 -0.44385803
DRK -0.16675293 1.0076082 0.11767434 -0.054970264 -0.50945914 -0.086961105 -0.3616265 -0.5269439 -1.1792982 0.41359836 -0.6275614 -0.5490883 0.08316183 -0.39720294 0.58070534 0.4234192 -0.87694865 -0.57711107 0.8087063 0.4524207 -0.25347298 -0.09788858 0.024181426 0.48269397
DRL -1.42483 0.2896809 -0.28765023 0.4234364 0.5540372 0.1627759 1.1523296 -0.797878 0.25179267 -1.258431 -0.45146158 0.11374062 0.24403566 -0.3735026 0.108136326 -0.44739813 -0.38834608 0.21546982 0.17455181 -0.41150263 -1.3726807 0.93978035 0.27661034 0.4157533
DRP -0.56083566 0.29056895 1.0290782 0.8196229 0.097207114 -0.7497106 -0.523665 -0.44298568 1.1248028 -0.39607343 0.44639653 -0.08790651 0.4268683 -0.21569298 -0.58831465 0.624076 0.47116956 -0.2683126 0.94200337 -1.0008912 0.76096386 -0.76422286 0.3205498 0.015700102
DRV 1.4035947 -1.20882 -0.0006329119 -0.7352925 -0.13244286 -0.13695176 0.10826133 0.45442873 2.1213071 -1.1096272 -0.5350721 -0.5101001 -1.0126112 -0.096649766 1.8324602 -0.5880188 0.61380935 0.13132294 -0.63526887 0.25843906 0.0844787 -0.8742424 -0.18724279 0.8277203
DRW -0.12945414 0.1736052 1.0334781 0.4304508 -0.93081236 0.68582153 1.1857246 0.4770643 1.3876449 0.12937038 0.00727582 -1.1903532 -0.20207366 -0.6386293 0.7361642 -0.10398815 -0.08162893 -0.68580955 0.026951939 -0.025022589 -1.2368294 -0.39588428 -0.009457499 0.377906
DRY 0.43639073 0.22143388 -0.5574098 -0.8350706 0.3016701 -0.12328382 -0.5885285 0.33431923 -0.3129687 -0.37917554 -0.2856416 0.38205475 0.15597698 -0.012774318 -0.12443924 -0.8446976 0.2901951 -1.4005723 0.36891022 0.108895205 -0.1235979 -0.31406677 0.0130463615 -0.070327766
DSA -0.46221676 0.19772217 0.29667646 0.052869886 0.38313568 0.20157981 0.34527728 0.8108004 0.08416115 1.2921057 1.0926318 -0.16797704 0.7777596 0.03421179 1.1910484 -0.17212974 0.052764684 -0.44115803 -0.118475124 -0.3148083 0.39986908 0.41779432 -0.12275125 0.17791894
DSG -0.64898133 0.6168009 -0.1154269 0.45217386 0.56277543 -0.31842506 -0.44058615 0.2535775 -0.7743625 0.6100466 -0.8412941 -0.1778863 -0.20775524 -0.998062 -2.6480594 -0.26177138 0.5211585 0.2940803 0.39173162 0.30394804 0.22107488 0.34771955 -0.21762389 0.07253626
DSI 0.03406039 -0.40247697 0.4168582 -0.52417374 1.1261857 0.31873986 -0.018403575 0.24867246 -0.043488666 -0.14988798 -0.050239507 -0.65148914 -1.0178715 -0.795195 0.22503781 -1.1441512 -0.44094616 0.013246117 -0.47997522 0.8044365 -0.53480005 0.4611477 -0.10366963 0.15153962
DSK 0.081878126 0.15532741 -0.45802796 -0.9454465 0.5967001 -0.47762483 -0.7093926 0.5587799 0.6054657 -1.9114392 1.3992853 0.5735257 0.32125294 -1.0505985 1.3735578 0.631733 0.429842 -0.5266056 1.1842355 -0.25675175 1.3696532 -1.4127476 0.07266663 -0.4490376
DSL -0.13680074 0.55074334 0.8465019 0.014280945 -0.31813416 0.56860006 0.5686903 -0.41480646 0.4680007 -1.461422 1.2562324 -0.60549915 0.05058165 0.15154487 -0.17138022 0.14988105 -0.5435796 0.33186632 0.34789443 0.4639585 0.7665931 1.4021171 0.4015947 -0.8796034
DSN -0.06326991 -0.15156054 -0.11608772 0.79462147 -0.22089861 -0.11572158 -0.7695084 -0.471101 0.016273338 -0.120037824 0.6687294 -0.35967594 1.3300285 1.3607994 -0.14369851 -0.60243547 -1.6614001 0.7784715 -0.08612217 0.036024407 -0.1149748 0.7052175 -0.28655457 -0.12068008
DSQ 0.34175655 0.121313214 0.21135716 0.48007697 -0.52012247 0.3996994 -0.1301848 -0.073247135 -0.6902937 0.70606476 0.10205043 0.4633909 0.47099587 -0.79186636 -0.46499905 0.19659504 -0.22256939 0.10426366 -0.6752504 -0.09780824 -0.6795261 -0.403832 -0.16091162 -0.54526913
DSR -0.850178 0.94745207 -0.5814098 -0.69231164 -0.23477596 0.9119193 -0.03784859 -0.72673506 -0.43315393 -0.39020994 -0.017915307 0.71075517 -0.047114886 -0.3850366 -0.23351857 -0.7642834 0.960941 0.3135333 -0.86396927 -0.6939085 0.55882895 -0.2777764 -0.37030563 -0.27681738
DSS 0.0017001927 0.4743299 1.069788 0.47956413 -1.3028562 0.35215276 0.36021802 1.5333734 0.015095711 -0.71778405 -0.44477963 -0.118156016 -0.03942564 0.74279445 0.15644129 -0.20976882 0.35792956 0.19538698 0.09639613 -0.3556724 0.002479598 -1.375527 -0.6239691 0.071972266
DTA 0.1492486 0.525598 0.36560583 -0.22786605 -0.7803852 -0.40009966 -0.38756418 0.3373494 0.24071333 0.45152715 0.42355856 -0.18181807 0.70068365 0.12713915 0.59043354 1.0358714 0.091290146 -0.8377094 0.69894373 -0.23527849 0.32608032 -0.51362205 -0.3529403 -0.7973033
DTF 0.83439374 -0.83865035 -0.6536099 0.54372466 -0.10334957 -0.84995687 -0.43128085 0.17914644 0.5936175 0.5255052 -0.42474017 0.029286623 -0.20385405 -0.9234961 -0.92468286 -0.31078956 0.1424594 0.9499528 -0.028930128 -0.5696921 -0.6025805 -1.1274692 0.7524984 0.46616784
DTI 0.4873313 0.63913 0.3934936 0.030643255 0.044199586 0.086456686 0.5788196 0.8075713 0.5873376 -0.19390532 -0.3492192 -0.04946482 0.16108102 -0.36196396 -0.4703017 0.6072884 0.24117726 -1.9728217 -0.26337513 0.31511638 0.5301784 0.16497363 0.42015547 -0.47448775
DTL 0.4599022 0.96920335 1.201474 -0.41323864 0.20732915 -0.51077384 -0.95303303 0.3898462 0.40661755 -0.75478125 0.75473666 0.16541925 -0.37686348 -0.6901645 0.055777907 -1.1215947 -0.17140692 -0.7138755 0.0076814145 -0.22134459 1.4368272 1.1212821 0.33556926 -0.5141382
DTP 0.59095025 -0.09709427 -0.43885818 0.4422818 -0.14352924 0.8630121 -0.96271646 -0.36552614 -0.89413446 0.5810277 -0.52285653 0.40872055 0.11778452 0.278308 0.13471729 0.8986858 -0.0154565275 0.09122342 0.64920664 -0.16005358 -0.25918564 0.6144122 0.23763913 1.2183113
