2640 24
AAA 0.3148024 0.99283826 -0.15459834 -0.2585816 0.5164884 -1.0360439 0.5097259 0.06287518 -0.10780729 -0.2838074 0.94945693 -0.4250759 0.07983522 -0.14217228 0.62878263 -0.47605675 -0.7138811 0.5668031 1.2630239 0.03249845 0.6859787 -0.26234987 -0.2933361 -0.392108
AAC 0.31397572 -0.6693697 -0.20986287 0.34098244 -0.44301325 0.1660686 -0.25046894 0.440643 0.620809 0.16675355 -0.0900186 1.0920238 0.45108405 0.87467 -0.39851132 -1.3586175 0.024971075 1.4946636 1.0990113 -0.3113805 -0.65131813 -0.17732492 -0.76529616 0.3282314
AAD -0.57840085 -0.50096714 -0.6964383 -0.5388759 0.85055196 0.33711198 0.375046 0.28690466 1.3079312 0.2058091 0.16274895 -0.33396083 0.31331557 0.44793296 -1.7776734 -0.765955 -1.3873961 -0.8530006 0.5151975 0.27017862 0.16237141 0.2087683 0.94229144 -0.5649218
AAF -0.5784663 0.59271747 -0.57630014 1.025791 0.9599762 -0.4848909 -0.54441035 1.0637794 -0.800362 -0.063248776 0.4379912 -0.33270174 0.62177926 -0.21383685 -0.9204528 -0.7429206 -1.6074673 -0.1449213 -0.83505464 -2.0320272 0.0062401593 -0.5882106 -0.09147966 0.43224108
AAG 0.26243815 0.5004227 -0.042741418 0.64730525 0.776406 -0.23477545 -1.853833 0.19542839 0.2020826 0.5910054 -1.1773386 0.74453187 -1.6021397 0.011865377 1.3333504 0.48767176 -0.42442018 1.6065545 -1.4321457 0.8343713 -0.21446323 -0.36746815 -1.4154971 -0.06545356
AAH 1.291173 0.8385939 0.33656943 1.0567895 -0.3049196 -0.8675058 -0.5131909 -0.13362232 0.14365235 0.7100153 1.1850153 0.16078809 0.54870594 -0.15132454 -0.17253059 -0.75319815 -0.5797682 -0.18304865 -0.8434323 -0.63844573 0.6226645 0.27298334 0.4245153 -0.42000043
AAL 0.15653542 0.7693817 1.0142602 0.2442847 0.2122201 0.91662216 0.46404257 -0.18882217 0.17237303 0.2349931 -0.25638795 1.0574049 -0.7868688 -0.9174222 -0.46410978 0.9064861 -0.7526627 -0.37677866 -0.60866165 -0.74007267 1.1952007 1.0476719 -0.4632683 0.52579856
AAN 0.11069641 -0.080874845 0.023130983 0.35088834 -0.25920707 0.90903693 -0.2102208 0.116209716 -0.33818525 0.15467365 -0.04727774 0.09820307 0.49930993 -0.48281962 0.50377923 -0.16905904 0.6835056 -0.014109492 -0.8400606 -0.50897014 1.4653499 0.11752643 -0.24796349 0.04850229
AAP 0.41497132 0.4364339 0.3949779 0.24555239 0.03211683 0.38248897 0.33810234 -0.0377993 -0.5935651 0.55858475 -0.041470066 0.013076309 -0.20159334 0.1281035 0.40233687 0.95381594 -0.16777787 0.60440326 0.27004412 -0.24032275 -0.72925615 -0.5378399 1.1537898 -0.34681407
AAR -0.6549258 0.17577729 -1.2507845 0.069579706 -0.30376866 -0.18856505 0.8832351 0.32772565 0.16201645 -0.5890021 -0.8230002 0.93537533 -1.0316815 -0.3444271 0.26469213 -0.6789309 -1.2456521 1.1838135 0.9518168 -0.88469815 -0.39852986 -0.10448754 -0.07416434 0.9706636
AAS 0.8789774 0.48288575 0.24355742 0.11489186 -1.0067495 0.012539983 0.26329774 0.9269433 -0.43319213 0.18283077 0.31864345 0.60111517 1.4378031 -0.15850444 -0.46984205 0.9208418 -0.47785372 0.32554674 -0.5009367 0.014320407 -1.0257163 -0.3402514 -0.7737398 -0.1482996
AAT -0.6426045 0.060479924 -0.46056867 0.057953537 -0.09959018 1.0124412 0.1554583 0.49368793 0.4287248 -0.78377825 0.15919735 1.5258756 0.5574862 0.8413371 0.31819883 -0.25129923 -0.39145172 0.51600385 0.66619766 -0.81032056 -0.52377105 -0.077994466 1.1093738 1.1383865
AAV -0.08781369 -0.43491948 -0.31767142 -0.5837845 -0.97946703 -0.14427108 -1.5098463 -0.53301436 0.56978136 -0.22207421 1.2479334 -0.33973005 0.9550586 -0.21147986 0.38342935 -0.35225132 -0.8795669 -0.23418613 -0.36831772 0.19871669 -0.7096303 0.4327584 -0.6532515 0.16405134
AAY -0.3153353 0.03567958 -1.0471884 0.7649655 0.22931916 -0.046770208 0.21912652 0.2730639 -0.18817493 -0.19854765 -0.29820117 -1.1640325 0.69805664 0.40504885 -0.9567432 -0.3445966 0.029359668 1.1298231 0.14364353 -0.06389305 0.24475724 -1.3521749 -0.67363536 0.059397697
ACA -0.6073089 0.28039467 0.17314465 0.036777362 0.35350978 0.8907371 0.6854948 -0.7940255 -0.19721864 -0.3806326 0.7959651 -0.086234786 -0.29310444 -0.13008612 0.33711606 0.36970693 -0.041016668 0.199786 0.13549651 0.60229254 -0.7966213 1.473719 -0.39146703 0.73705417
ACG -0.50598264 -0.9940784 -0.64283884 0.9184178 -0.04170364 -0.5860229 -0.09791404 0.621448 0.0155542195 1.2536391 0.27651972 0.7602022 1.2442986 -0.5160635 0.4440398 0.33773375 -0.5179434 0.4726062 0.2715925 -1.4924858 -1.195612 -0.89164186 0.09621385 -0.1977001
ACR -0.6467414 0.32976303 -1.2124975 -0.83473104 0.74041164 1.0133623 0.10784358 1.0461916 0.5917844 0.42613736 0.7852264 -0.1763094 -0.906032 0.49804348 0.017652094 0.06935638 -0.15788579 -0.17680542 0.40841532 1.0485659 0.20365483 0.7747329 -1.9134295 0.33934146
ACV -0.6098071 -0.7299356 0.3157861 -0.9951375 1.050137 -0.3597101 -0.1213079 -0.7922819 -0.19804972 -0.16149217 0.5473157 0.4972513 0.84827495 -0.8019036 0.033152364 -0.5290407 -0.21683481 -0.52309924 0.20019883 0.47032186 -0.070400916 -0.7772554 -1.2227718 0.27920544
ADE 1.0519705 -0.36955056 0.6271184 -0.45815948 -0.49400353 -0.31501552 -0.62178457 0.62882036 0.115567386 -2.091776 -0.058330603 -0.09188765 -1.1612751 0.83583426 0.44968727 1.2148025 0.16150072 0.73529553 0.8499929 0.00024017692 0.24733005 0.24783406 0.27612382 1.2256302
ADF -0.7404771 1.0922458 -0.24108055 -0.11892089 -0.78701013 0.019300938 -0.50934494 -1.5677259 0.33849192 -0.9351642 0.2257141 1.3967324 -0.012573749 -0.021192774 -0.9722726 -0.45829523 0.5967412 -0.55452263 -0.9757547 0.8277694 0.75310344 0.5189161 0.69901407 0.93895155
ADG 0.8136139 -1.2205613 -1.1316128 -0.5087074 -0.45954382 -0.24705163 0.14796737 0.21704662 -0.51455617 -0.4783295 -0.066287875 0.086848915 -0.005059749 -0.17344004 -0.097 -0.039530132 0.96561205 -1.2594371 -0.84447426 0.25191465 -0.0562817 0.5191777 -0.7354681 -0.88585657
ADH 1.0540698 -0.94555265 -0.9233503 -1.4881351 0.4118412 -1.4381961 0.3107568 0.026557686 0.17708032 0.19531867 1.0710653 -0.7046126 -0.19219539 -0.11265345 -0.89530134 0.17556156 0.571251 0.89527166 0.2736087 1.0787833 0.52030045 1.1234329 0.9210882 -0.22281145
ADI -1.0031741 0.07896586 0.046582013 -0.19172254 -0.156194 0.45319104 0.26656872 -0.15688318 -0.31416225 -0.3942475 0.70039725 -0.18416259 0.29677147 0.6185919 -0.8255171 0.60071826 -0.627788 0.17263727 0.36658865 0.06369498 -0.6363157 -0.32335007 0.47509035 0.69510126
ADL 0.7745291 -0.62995195 0.2612009 -1.8936648 1.0608754 -0.49301887 0.047282904 0.24016386 0.1291081 -0.1970028 -0.26400024 -0.7556789 -0.03541243 0.34725556 0.32076496 -0.43191335 0.3715467 -0.25142395 -0.5898507 -0.16686323 0.64660954 -0.019544423 -0.3286046 0.9964256
ADR -0.034431815 -0.8505936 0.16311565 -0.30598253 0.87434924 1.1728189 1.9432743 -1.1358414 0.4536204 -1.8374581 0.54266846 -1.9262724 0.32377166 -0.7765411 -0.064984426 0.33408234 -0.5718275 -0.4046049 -1.3966689 0.05409465 0.014074832 0.3111665 -0.62574816 0.3182877
ADS -1.032671 0.095484786 -0.049560495 -0.1217388 -0.26875347 0.10415651 0.73449075 0.019235775 0.3615716 -1.0628855 -0.28578335 0.20397964 -0.45921037 0.58332396 -0.43099567 0.20394844 0.2610996 0.9257952 -0.20996502 0.41993085 -0.9651381 -0.76622725 0.16477542 0.32492027
ADT 0.18874888 -0.2086588 -0.5406799 -0.53468084 -0.34968424 -0.34076253 0.12309742 0.25869063 0.2629587 0.3417803 -0.12106502 -0.38549292 -0.2348026 0.11653519 0.49652258 0.48216677 0.07533558 -0.6338564 0.48396116 -0.51625454 0.9179276 0.70229244 0.032123387 0.7718482
ADV -0.20309302 0.102221325 -0.15053928 -0.3694642 1.4404559 -0.40579966 -0.5794006 0.09536201 -0.90167224 0.2068977 0.45585 0.27047047 -0.06952062 0.305352 -0.09619002 -0.8296632 0.48701772 0.05690805 0.42139664 0.02623126 0.8472781 -0.41665062 -1.3193924 -0.7049061
ADY -0.05193962 -0.4631667 -0.17340422 -0.6950251 0.053706586 -1.1075938 -0.87925184 0.18620369 -0.28961387 0.42364028 0.16032436 1.0590858 -1.1126037 -0.67218345 -0.27086478 1.061453 0.2113416 0.44216102 0.45063314 -0.3051021 -0.56555885 -0.4785451 -0.15045384 0.16563913
AEA -0.83304393 -0.46676508 0.19715437 -1.0633565 0.09765017 0.74236715 0.2872399 -0.2650174 -0.854302 -0.26032874 -0.15803659 0.3314002 -0.346829 -0.1983124 -2.0031085 -0.8735542 0.14674032 -0.26596972 0.09943678 -0.4591185 -0.22504143 -1.3332438 -0.5353054 -0.13556549
AEC 0.9164563 0.079114765 -0.109630555 1.3593229 0.05640818 0.08186638 -0.48180026 0.7686353 0.42556405 1.3054378 0.1885078 0.40471148 -0.16338992 -0.92564994 0.25686994 -0.15030558 0.7514466 0.26046467 0.80919796 -1.4014156 0.28299952 -1.1994077 0.7535218 0.24076128
AEE -1.1020573 0.9630765 0.42728713 -0.10185228 0.61177874 -0.3987243 -0.63314515 -0.4704197 0.43222308 1.5168748 -0.08469123 -0.6968418 0.8797753 0.34263974 0.75719017 -0.117145404 0.4215821 0.73907816 0.6683272 0.24763075 -0.51484555 -0.08286564 -1.0165662 -0.0077283755
AEG 0.6752938 -0.2385764 0.018653393 -0.33465648 -0.14784987 1.6966603 0.47002718 0.1791522 -0.58505034 -0.105173364 -0.83110136 0.5959373 -0.450742 0.15939966 -1.0029728 0.9409175 -0.18489048 0.14484231 0.15036522 -0.35289884 -0.82820654 -0.31332186 0.64688694 0.52259076
AEH -0.48117256 -0.22293733 -0.23021078 1.0953919 0.23296711 0.22881657 1.4602765 -0.91369665 0.030986309 -0.2887927 0.75232506 -0.10765536 -0.017993987 0.18516427 0.4688393 -0.63733125 0.4009441 0.16006656 0.91489387 -0.61650574 -0.46939582 -0.5063924 0.08764585 0.45801967
AEI -0.28876343 -0.72802144 0.71440184 0.49457425 0.010162219 -0.0038739145 0.19532678 -0.6440717 -0.23443228 -0.29302222 -0.71371907 -0.20498535 0.71855175 0.2609425 -1.6000128 -1.0138184 0.042806774 -0.78617764 -0.98732567 -1.2467378 0.60596347 0.22790852 -0.13368326 -0.51597387
AEK 1.3643224 -0.05446578 -0.48727658 -0.145956 0.2400121 -0.30560198 0.28551564 -0.079031035 -0.29318655 0.05072827 -1.0070752 0.25876865 -0.071878925 -0.3595728 0.91797936 0.23014848 0.27495566 -1.0900242 -0.105282724 -0.51672375 -0.37827557 0.6018571 1.0475473 0.62022245
AEL 1.1077478 0.37360922 -0.3920807 0.12081142 -0.3806354 0.26768175 0.49443427 0.18785757 -0.16253133 -0.4180346 0.034502923 0.6272067 -1.4541807 0.6316154 0.033630073 0.5452873 0.17920923 -0.28020224 -0.829245 0.44418877 -0.30491439 -0.8173444 0.24348724 -0.33921516
AER 0.07330771 -0.20573798 -0.41325945 0.7251345 -0.924139 -0.07518911 -0.15716983 -0.6069167 0.6677931 -0.026379123 0.01544993 0.80311453 -0.403444 -0.27540162 0.7758595 -0.12025607 0.29460624 0.4232893 0.27646545 0.045538336 0.54908836 0.8340505 0.28758663 -0.6379101
AET -1.1482713 0.6108533 -0.011052715 -1.1156082 -0.7475407 -0.23800115 0.3895784 -0.14207166 -0.5519614 0.6397563 0.26376793 0.1394997 0.020844476 0.04121086 -0.25810337 -0.3003166 -0.7678449 -0.09270105 0.54648364 -0.6093532 0.9741492 -1.1211041 0.033399284 1.3368874
AEV 0.036658555 -0.49750707 0.70473504 1.196097 0.81208384 0.12914509 -0.90973663 -0.248888 0.55569947 -0.035523683 0.43524027 -0.05915159 0.66866946 -0.048563197 -0.45584497 -0.5679003 1.3104742 -0.59270954 -0.07933944 -0.69881934 0.5737212 1.382226 0.1841608 -0.088863075
AFA 0.24864402 -0.6519523 -0.88297176 -0.12315197 -0.8767688 -0.621859 0.9144968 -0.37252015 -0.16363132 0.5944565 -0.33278155 0.65517163 1.2535068 -0.6405506 -0.702231 0.42260805 -0.48716053 -0.8940676 -1.1905012 0.53855073 -0.078080915 -0.3490247 0.74109894 0.5452559
AFD -0.6020643 0.25390723 -0.6233262 -1.1831573 -0.5561268 -1.6768504 -0.055870235 0.10602278 0.09024456 -0.11203247 0.3188737 0.13402358 -0.34288672 1.8197138 -0.2778949 0.87383497 0.74519116 1.1967318 -0.25559735 -1.3500221 -0.41357163 -1.0768642 -1.0386945 -1.134296
AFE 0.92027044 0.47306955 -0.043111898 -0.26710063 -0.2146118 0.31058365 -0.29009724 -0.26854828 0.7830141 0.5842128 -0.3755493 1.0151529 -0.52790725 1.382052 0.35361236 -0.8304962 0.7434907 0.40462393 0.10175441 -0.00869967 -0.93865514 -1.2803608 0.060293704 -0.2713962
AFI 0.9952055 -1.019557 0.3527738 -1.6302307 -0.19467576 0.5337307 -0.09492579 -0.40293413 0.19580287 0.09175078 1.1560558 0.26495588 0.6970416 0.58569896 0.6602589 -0.6495614 1.0367701 0.6906139 0.07318461 -0.92181104 0.21739984 -0.59303063 -0.107237674 -0.6693897
AFN -0.022359341 -0.2060198 0.80247676 -0.5485219 0.33863544 0.6911475 1.8636352 1.0893025 -0.20594284 0.64609826 0.39112407 -1.0852854 0.5720606 -0.10255556 0.91178095 0.09436168 0.90088576 -0.47889572 -0.03404957 -0.62217474 -0.27290255 -0.07863122 0.6328167 -0.550128
AFR 0.40224224 -0.6081717 1.0413843 -0.53115916 -0.2002371 0.63413507 0.20560162 0.56409127 1.0204664 0.12924227 0.32000855 -0.8630822 0.6049453 0.73104674 0.4277779 -0.2707443 -0.08283644 -0.52725154 -0.40740246 -0.25992703 -0.97405195 0.42080468 0.051784858 0.10777496
AFS -0.7418853 -0.6611206 0.8584723 0.7479622 1.4402914 0.13163364 0.54998267 0.23478284 -0.014485717 0.20950937 -0.10429942 -0.36371374 0.3985317 -0.5319994 -0.24753973 -0.07988779 -0.39212674 -0.35860988 0.27912015 -0.3557641 -0.52304566 -0.94940543 -0.2804399 -0.12544371
AFV 0.019296408 -1.6993139 0.5799747 0.88443655 -0.26647696 0.88375473 0.24771142 -0.115232915 0.1354534 0.41358528 -0.44666004 0.00955683 0.83371496 0.64322567 -0.12194158 -0.020242572 -0.006855011 0.43841633 -0.019979477 -0.5573804 -0.24151416 0.015163481 0.68653315 0.41780725
AGA -0.5029631 0.97185314 0.44298646 -1.3748577 0.07667564 -0.5139241 1.7272835 0.05608225 0.37717497 0.19248046 -0.24394554 0.97279286 0.6430255 -0.08946076 1.3167303 1.119189 -0.9616151 0.45192033 0.3200118 0.0510872 -1.3895974 0.35755855 0.24234462 0.6102659
AGG 0.41296065 -0.4933102 -0.938138 -0.030799344 -0.60782444 0.15878758 0.34543288 0.4536126 1.4485273 -0.13699539 0.47916692 0.739421 -0.42551863 0.38036844 -0.45513725 0.28720778 0.34741837 0.071519375 -0.44206256 -0.06093666 -0.5691543 -0.08037093 -0.47207612 -0.8713715
AGI -1.1924748 0.9856882 -0.63876116 -0.12039396 -0.43156862 -0.37545127 0.6855604 -0.32717577 0.42908746 -0.0053114295 1.3248023 0.40176427 -0.2328888 0.24016646 0.96561706 0.14027838 0.22959588 -1.4160099 0.35801476 0.06223142 -0.9273694 -0.30870584 0.011747949 -0.14643782
AGL -0.907344 -0.8806349 0.043027133 -1.3885238 0.16417688 -0.82000273 -1.0572717 -0.108555906 0.64247495 0.045801163 -0.2721271 -0.49048617 0.8874667 -0.20412426 0.8068639 0.38611752 -0.31264868 0.56666917 -0.13278471 0.35520563 -1.4465394 0.46190512 0.6193576 -1.3411858
AGM 1.7089086 -1.06965 0.7541105 -0.105961084 0.43615386 -0.27350852 -0.053026214 -0.6158211 0.5047586 0.75223947 -0.28499106 0.6216866 -0.5921117 0.63393104 -1.2961179 -1.1060723 1.3648549 -0.23951936 -0.44766134 0.49916595 -0.1960299 0.2652601 1.1892457 0.5614456
AGQ -0.1659964 -0.23296285 0.64825594 -0.21985056 0.11508894 0.35844427 -0.75954574 0.33324277 -0.45173985 0.028452486 0.31341043 0.22756016 0.42472026 -0.37567914 0.8255192 -0.9049734 -0.3756969 -0.86454463 -0.13908109 -0.82024336 0.16175216 -0.55774397 -0.093452044 0.1970051
AGT -0.81359196 -0.0881529 -0.22425705 0.9757979 -0.24461892 1.1207453 -0.5562889 -0.11881161 -0.01328963 0.54693484 -0.026974067 -0.5331597 0.37189302 0.40965676 -1.0443842 0.009861916 -0.658424 -0.6598826 -0.9215286 -0.7633128 0.7473445 0.21090397 0.8366986 -0.7378683
AGV -0.10800421 0.6081192 -0.17748842 0.54073006 0.43826586 -0.6597896 -0.7364395 -0.22239043 0.82578325 -0.6462347 -0.532202 -1.4763598 -0.60880464 -0.26816893 -0.21379529 -0.19807951 -0.28903326 0.18981664 0.68805915 -0.43503696 0.4036228 1.3939409 0.7079499 -1.1044571
AGY -0.068716824 -0.062105387 0.52514553 -0.35546988 0.14956991 -0.047604833 0.8742528 -0.49568105 0.21889295 -0.54916775 -0.18429188 0.044001974 0.47110158 -0.112581015 0.7292697 0.011289597 1.0145428 1.50291 -0.7990824 -0.06673983 0.45119917 0.6260599 -0.20328099 0.14211076
AHA -0.32549796 -0.93472487 0.1388593 0.2896504 1.2589998 -0.475996 -0.37137988 -0.09126131 0.20864412 -0.17897333 0.19063619 0.7600622 0.3217336 -0.3698819 -0.30525905 0.5839382 0.29684353 0.77697134 -1.054519 -0.72724634 -0.54010695 -0.15331548 -0.4200071 -0.8197508
AHG 0.1867461 -0.13021871 -1.0870898 -0.032392487 0.33911073 0.61953443 -1.2712144 0.038350616 0.7231508 0.026766948 -0.23617795 0.89165306 0.45528662 -0.034893848 -0.9229255 0.04464993 0.07041097 0.8362253 -0.64096427 -0.22177276 -0.2612236 -0.8294193 0.14182006 -0.26491523
AHL 0.59938514 0.41640812 -1.170908 0.11701441 -0.1674535 -0.07285156 0.75474346 -1.0391577 -0.80924463 -0.60759056 0.48320234 -0.55081546 0.024697114 0.3966336 0.30965316 0.07448603 -0.62035096 0.10357334 0.8733231 -1.2496805 -0.79035455 0.68227655 0.29531172 -0.60555375
AHM 1.3286977 -0.91448784 -0.69332373 -1.2922359 1.0902312 -0.2964108 0.3468083 0.465076 0.049889684 0.0954186 0.121179745 0.11974444 0.06534599 -0.03784528 -0.79281175 -0.4881727 -0.5257634 -0.44064546 0.7936942 -0.34573594 0.86505353 -0.21144864 0.18625039 -0.2910701
AHT 0.6104312 0.1253412 0.67321354 0.35024637 0.3108789 -0.20931888 -0.38925877 0.7191603 0.55943954 0.34320086 0.10319376 0.6856015 0.10967386 0.02416315 -0.27983177 1.7199526 0.02311726 1.1179605 0.00990209 0.4696455 -0.040501 -0.42775428 0.16747697 0.30079383
AIA 0.074782655 -0.26008412 0.85297346 -0.4282538 -0.7202707 0.69871485 -0.6829039 0.28405827 0.26037878 -0.84818137 1.3880702 -0.8482675 1.108854 1.3221534 -0.2337176 0.9475507 -0.12012315 0.60127425 0.38071203 0.38330388 -0.7556764 -0.7490377 -0.081545204 -0.72168446
AIF -0.46662867 0.32063407 0.3633916 0.74102867 -0.23455566 0.1569247 0.037308183 0.44719216 -0.27525735 -1.4128709 0.5380654 0.025127769 -0.41811585 -0.51124007 0.33856368 0.49264312 -0.24826406 -0.3490385 -0.16867267 -0.14833564 -0.51934576 -0.22550139 -1.1843535 1.0687845
AIG -0.9246091 1.1504643 -0.45671463 0.6689062 -0.39979616 0.6621706 1.2409921 -0.5764086 -0.84585905 0.30127284 -0.5247436 -0.9387387 -1.0214807 0.55296326 0.1803864 1.0214927 0.56275785 0.7358657 0.079506174 -0.064119875 0.83140856 -0.018425606 -0.2250473 -0.7867143
AIH 0.9493354 -0.49123406 -0.256207 -1.0181022 1.2168827 0.4880237 -0.17691824 -0.67840797 0.5585845 -0.4668596 1.2484939 0.050538525 -1.3001227 -0.38581002 0.559554 -1.6013396 -0.10598722 0.36311936 -0.54643357 -0.85374284 -0.23954651 1.3005476 0.20229694 -0.35257614
AII 0.8865652 0.77219653 -0.1772191 -0.9892445 -0.60828334 0.31700706 0.24593404 -0.66689 -0.1409505 0.017737478 -0.72241634 -0.47638535 0.6007466 0.18544176 1.6315182 -1.1158762 -0.108597994 0.3865308 0.585741 -0.25791994 -0.39747918 0.33566594 -0.06255922 0.18729788
AIL -0.44830388 0.57812774 0.37926748 -0.11610868 -0.031811595 0.85054165 -0.20508784 -0.6210184 0.57326853 0.07703078 0.54359883 -0.78147125 -0.13014665 0.5553349 0.2071403 1.0058205 -0.18733442 0.6518973 -1.232532 0.20563713 0.8158707 0.54622483 -0.06677377 0.2527576
AIR 1.1967807 -0.10120002 -1.2569323 0.79009587 -0.7089393 -0.3530185 -0.08569157 0.465635 1.0626318 0.35598814 0.80233765 0.1044752 -0.82123876 0.23682138 0.71168137 0.101174176 1.0356426 -0.011320561 -1.3425922 0.53589654 -0.2350196 0.31418052 0.4474315 -0.3632027
AIT 0.23453143 0.18092546 -1.3364317 -0.36349866 0.20399618 -0.25728884 -0.11739337 -0.5080985 -0.77372247 0.9436182 0.142302 -1.3342123 0.06734812 -0.7972428 0.21209618 0.26119366 -0.90621984 -0.09180215 0.15680486 -0.764381 -0.2719581 -0.1359717 -0.35821757 -1.2095146
AIY -0.8507851 0.3147552 -0.7045889 -0.18240072 -0.5816259 -0.61169213 -0.3834157 -0.15600587 1.1509136 0.5170448 0.35357612 1.0277482 -0.11511463 -1.2813667 -0.42100698 -0.2614752 0.8815558 -0.18642356 -0.33776015 0.15322545 0.36430115 0.290339 -0.8231176 -0.98601747
AKD 0.8738992 0.5249953 -0.12325108 -0.8985691 0.15015292 0.34872758 0.23351213 0.29704207 -0.68687344 0.1806975 -0.3235997 -0.050093144 0.34835872 -0.17519277 -0.03132029 0.6680136 -0.29193714 0.57424635 0.04909891 -0.07547416 -0.10117519 0.9602707 -0.08285831 1.0507293
AKE -0.8924775 -0.07971576 0.798442 0.020636901 -0.2594689 -0.60705554 1.2895584 0.3554822 0.94472885 -0.6474817 -1.1705645 -0.9458413 0.6648445 -0.6165156 -0.0035645366 -2.1724586 0.8056759 0.21175729 0.59024537 -0.6628825 -0.043225862 -1.2096641 -1.1542476 0.13411936
AKF -0.8992166 0.3759025 0.61824816 0.55904746 0.56522846 0.108522676 0.24278793 1.2631681 0.6969761 -0.8005502 0.061076526 1.2746208 0.2265601 -0.05039859 0.1336601 -0.39333522 -0.3222478 -0.58883953 -0.8161626 0.031090975 -0.25986946 0.35472825 -0.82053125 0.5452784
AKG -0.8640009 -0.11417034 0.26529333 -0.87967026 -1.0568653 0.27157807 0.43969417 -0.3964197 -1.1441362 -0.83523965 -0.30146703 0.55668044 0.5262764 0.36538553 -0.029340118 0.13876905 0.022318441 1.1494551 0.22051626 -0.69940704 -1.1598555 0.25843456 -0.048926473 0.03790903
AKI -0.26635236 0.0022897813 -0.54366463 0.90197945 -1.0531262 0.083489746 -0.31976432 -0.75018454 0.22434549 -0.8424755 -1.017618 0.18539944 -0.6905079 -0.01652658 0.37601486 0.78364074 0.69604105 -0.20469308 0.2079356 -0.55991334 0.63095045 0.12471351 0.25936794 1.166836
AKQ 0.684878 -0.17327404 0.8968556 0.106520824 0.7517744 0.44293857 1.1966643 -0.33663353 -0.05122021 0.93533486 0.31589833 0.1642214 0.78240275 0.7990303 -0.37038463 -0.05636078 0.49619612 -0.2365968 -0.59965205 0.5328444 -0.026764184 -0.9260414 1.0916427 -0.3712489
AKR 0.51571035 0.7352817 -1.013521 -0.92827344 0.8266455 0.599502 -0.15670776 0.5776858 -0.63673025 0.75203943 0.88583076 -0.21010146 0.1475076 0.18312907 -0.79980546 -0.50237095 0.55392 -0.6643787 -0.55510557 -0.05145129 -0.09363106 0.25501215 -0.044018358 0.957361
AKS 0.035175055 0.42275104 0.44197524 -0.00029551983 -0.34469852 0.13590348 -0.2139693 0.9602427 -0.62543464 0.2898688 -0.22142228 -1.0801945 0.42884648 -0.075864196 0.18796462 -0.36943805 0.24190354 -0.8587469 -0.025029326 0.23242122 -0.5092957 -0.18217343 0.5378989 -0.267934
AKT -0.30521327 2.0108328 0.89317155 0.23727101 1.2234303 1.0667429 -0.07416004 1.347658 0.8711239 -0.6626523 -0.12602517 0.6076109 -1.0776902 -0.3547346 -0.31983995 0.549481 -0.4102925 -0.29379016 -0.13471591 -1.7708278 -0.92680466 -1.0378292 -0.038307913 0.68032
AKY -0.7548592 -0.8726283 1.0375983 -0.63834965 -0.37785017 0.87666184 0.05594429 -1.3962284 0.057743203 0.84753895 -0.24095428 0.7477587 -0.3266206 -0.20657948 0.2761776 -0.08621731 -0.16111399 -1.000771 -0.5426216 -0.5076031 1.4811754e-05 -0.071035504 -0.16715834 -0.809999
ALA 0.15307671 -0.21583137 1.0628883 0.20766968 -0.37859118 -0.13249262 0.087509066 0.2974311 0.44904572 -0.26109758 0.11457002 -0.51621985 0.3682949 -0.76726884 0.20653014 0.07653393 -0.22613712 0.4807865 0.11092135 -0.16292186 -0.28006497 -0.7385406 0.5782613 0.5069813
ALD 0.09617722 0.058439463 -0.35484827 -0.7859416 -0.183219 -0.7504764 -0.3241976 0.29004517 -0.8773715 0.32688302 0.527612 -0.046096157 0.3498338 -0.17276894 -0.18082352 0.2263909 0.10890554 -0.010153852 0.13014992 0.82397234 1.0313077 -0.9358838 1.098904 -0.39783597
ALE 1.29736 -0.45441422 1.0852518 -0.70704496 0.24197525 0.44978818 -0.3158571 -0.33010662 0.74791336 0.5632272 0.380041 -1.3371449 0.3772819 1.2555268 -1.1093361 0.3108605 0.34442374 0.29561943 0.2506859 0.36962152 -0.2057549 0.6128851 0.09220499 0.66062146
ALF -1.1819851 0.42584854 0.3344047 0.23904875 0.24152622 -0.4801222 0.07659215 -0.6552158 0.8978351 0.053169914 0.07171363 0.27006343 0.06312829 -0.41202337 1.3432885 0.25633883 0.60013837 -0.5096561 0.08036718 1.4568999 -0.98096746 -1.1664525 1.1073546 0.59081495
ALH -0.6017134 -0.09914113 0.8312615 0.48599845 -0.13605346 -0.62478 0.14148864 -0.1721996 0.35281688 0.22403769 -0.83996236 -0.15585887 0.49458215 -0.23231128 0.66916543 0.3676377 0.6084503 -0.6937059 0.4173749 0.40252537 -0.37489426 0.1528641 -1.1146514 -0.5712757
ALI -0.7664386 -0.81502956 0.16359419 -0.47689524 0.76865375 0.79625034 -0.5184128 0.99259603 -0.076291226 0.94123185 -0.03040649 0.6541581 0.8312868 0.34881848 -0.11202264 0.4757656 -0.48712826 0.5980706 0.20234644 -0.26521426 0.08360207 0.26352346 -0.80277115 -0.4075517
ALK 0.4027063 -0.7424689 0.087907955 -0.7416147 -0.43296364 0.14246164 0.23058757 -0.5654401 0.6745041 1.0527503 -1.2437958 1.185235 -0.7588166 -1.2345101 -0.32825077 -0.46144286 -0.17374915 -0.11598274 -1.2008288 -0.5070791 0.5191789 0.3511737 -0.61984825 -0.706131
ALM 1.0604285 0.10394704 1.686995 0.07888907 -0.23552695 0.9287598 -1.0775808 0.2925158 0.5646106 0.3845988 1.6455576 0.6821802 -0.67889404 -0.7180983 0.8092543 -0.6869597 -0.9376722 0.45383665 0.35774055 0.11436346 -0.20065953 -0.20203821 -0.9182823 -0.20733365
ALN -0.5711818 -1.3079636 -0.2812936 -0.66449946 0.49039888 0.000993073 -0.4607984 -1.292478 0.94454646 0.75122875 0.77726984 0.4225779 0.08917561 1.2278634 -1.5223899 -0.5784521 0.13569865 -0.8459567 -0.1600642 -0.9177929 0.4466591 -0.17473648 -0.5300779 0.020104766
ALP 0.26208252 1.1571796 0.30609518 -0.15293008 0.103254825 -0.37836736 0.15998155 0.55054265 -1.3707621 0.3319494 0.9972962 0.26941475 0.54508615 0.39667383 -0.07959217 -1.440212 0.41425014 0.27939928 0.23399562 -0.36777875 -1.2055078 0.78096795 0.14199099 0.48694107
ALS 0.20315747 0.80791605 -0.5202066 -0.617953 -0.06250489 0.55097806 -0.4656257 -0.63880515 -0.13488725 0.1092135 0.050589196 -0.9574619 0.69889426 -1.0754542 -0.5509151 0.22747695 -0.4617476 -0.7582014 -0.3830089 -0.16907701 -0.72919196 0.8377453 -0.14423686 0.6723668
ALT -0.14936602 0.3989857 1.2724888 -0.74634767 -0.115447715 0.41061422 0.13022374 0.5626026 0.038331434 -0.7604755 -0.7776497 -0.46069053 0.266081 0.331811 -0.11706276 -0.109541744 -0.15100735 0.14331728 -0.85450554 -0.34428892 -0.34646785 -0.48142707 1.3298079 0.55434334
ALV 0.14620402 -0.19440958 -0.021733753 0.16274019 -0.6880857 -1.2542285 -0.6616529 -0.41669422 -0.16630888 0.61350316 -0.17871276 1.9559592 0.41664156 -1.1420833 0.63036585 0.1334238 -1.580071 1.3454804 0.3024496 0.39445236 -0.08386575 0.709755 -0.7388164 0.024340034
ALY 0.41459757 -0.080929264 0.07259989 -0.50186026 -0.75962186 0.12836841 0.7409791 0.009152979 -0.5352225 -0.29148328 -1.4978219 0.1753664 -0.19771719 0.71698064 0.18907686 -1.1791902 -1.0200619 0.504566 0.59947544 0.029575497 0.10379638 0.65917826 0.34682423 -0.14278324
AMK -0.48213962 0.1801762 -0.42615867 0.042494982 0.6957119 -0.07711947 -0.8955725 0.07109061 -1.0725358 -0.67673403 0.58395624 0.3921445 0.508041 0.34203252 -1.1957005 1.0105591 -0.24931745 -0.6927802 0.22460091 1.1073341 -0.81490254 -0.6300823 -0.43780613 -0.28482145
AML -0.28538492 -1.1762286 -0.017872825 0.48358354 0.8427129 1.271019 0.093985304 -0.0057210606 0.1376445 0.40222484 -0.46854585 -0.59735775 0.36407357 0.28563514 -0.29240957 -0.22845879 -0.61399883 0.750668 -0.030395597 0.12483443 -0.46788076 0.24238366 -0.98867494 1.1030648
AMN -1.255076 0.47136953 -0.005658999 0.26817495 0.4527197 0.9677767 -0.4198566 0.4043515 -0.5373722 0.24478048 -0.5503644 0.38776737 0.3296464 0.47268724 -0.3025456 0.16879836 0.1193372 -1.3380961 0.0013138503 -0.28507927 0.3357702 -0.12825611 0.49554613 -0.24403204
AMT -0.051490337 0.46948582 -0.013610512 -0.6336484 0.38399303 0.539807 -0.87640715 -1.180958 0.30344725 0.1881545 -0.5937338 0.35940322 0.5579133 0.12753911 0.053159118 -0.49331313 -0.46400714 -0.23850401 0.8215489 -0.039596677 1.29757 -0.9721714 0.82346964 -0.78152496
ANA -0.13664742 -1.321349 0.7926216 -0.39420533 0.992194 -0.6729946 -0.31906044 0.46865863 -0.30541742 0.93276393 -0.58467615 0.08769885 0.3379667 -0.9864179 -0.3674827 1.4911551 0.7127906 0.07243478 -0.53945524 -0.36267254 -0.19357434 0.787289 0.24287535 0.5328859
AND 0.3487141 0.8910394 -0.6945929 -0.23718925 -0.5162462 2.2043848 0.36677346 -0.49250865 -0.27110323 -0.25368944 -0.86136895 -0.23595586 1.2839848 0.74651384 -0.085348755 0.21100506 -0.20321232 -0.82745445 -0.54036355 -0.18525678 -0.19645895 0.40939647 0.11399907 -0.7219429
ANE -0.28603092 0.11765568 -0.2986949 0.21962851 0.023661435 -1.0152166 0.7518537 -0.1436693 -1.1709611 1.0928321 -1.1628202 0.59077156 0.31074136 1.397329 0.2664797 0.23413259 0.7654702 0.57165253 -0.40964964 -0.24680246 0.3033652 1.067842 -0.11297026 0.38234508
ANF 0.2572694 1.026497 -0.42763442 -0.3718931 -0.4106911 0.5072894 -0.7718461 -0.3352967 -0.5174531 -0.381643 -0.37491083 -0.08417937 0.62650174 -0.78346515 0.36947116 0.20059656 -0.702066 0.16906336 0.3119924 -0.07320577 -0.6195183 0.3237787 0.08311935 -0.056197464
ANG -0.14975625 -0.08033043 0.77960014 0.8398388 0.014053613 -1.2059969 0.8809452 0.6820645 0.784649 -0.4782765 0.42888027 0.6155416 0.3073132 -0.4459864 0.33088446 0.6806427 0.13282377 0.33373755 -0.09146778 0.34864277 -0.16709335 -0.06541632 0.18339421 0.17025642
ANI -0.597051 -0.13682915 -0.28735057 -0.84656763 -0.35885337 -1.0139942 0.093776494 0.4624343 -0.78309333 -1.2549881 -0.90440613 1.0988932 -0.16796267 -0.3907849 -0.091057315 -0.06044936 0.31670952 0.89418644 -0.68475527 -0.74527836 -0.5737995 -0.5452443 0.27515072 0.35259297
ANK -0.34852982 0.44226542 -0.8330223 0.544881 -0.91876507 -0.257406 -0.12147087 0.21705052 0.16414493 -0.1195935 0.9493178 -0.05866918 0.98076224 0.08590725 0.8199544 0.5257701 -0.16652508 0.99260354 -0.37661391 -0.21284561 0.9864621 0.9710127 -0.114894554 0.2374756
ANL -0.15487878 0.23920652 -0.6192997 -0.7275537 0.13434082 -0.217138 -0.84190476 -1.1673081 0.6254376 1.5568836 -1.0554461 0.41274697 0.67905337 0.35710073 0.81391156 0.9170503 0.46170014 0.45179385 0.12372703 -0.34024504 -0.3986292 -0.25389767 0.44116944 0.46066943
ANQ -1.2323902 -0.08541712 1.073953 -0.99780715 -0.44388157 -0.2425668 0.49059498 0.04109178 -1.2325115 -0.74311 0.9430747 -0.04073912 -1.6118352 0.7366653 0.7331767 -0.010597706 -0.04887866 1.2631097 0.3180792 -0.9009284 -0.78325117 -0.30091614 -0.37821245 -0.71145344
ANV 0.3738033 0.60953164 -0.6002462 0.5380655 0.40786695 0.6628705 -0.510476 -1.5724779 -0.7964335 0.23769188 0.74877065 0.8279659 0.501487 0.9554443 -0.6156852 -0.054970294 -0.2619062 -1.0387013 0.513975 -0.5834295 -0.31190196 0.1527047 0.54588914 0.39312255
ANW -0.46334824 -0.98628193 -0.062234312 -0.06328921 0.4916634 0.9005293 -0.4642676 -0.07485047 0.11432594 -0.13230282 2.0210338 -0.15157023 0.498281 0.3283252 0.72324896 1.0067242 1.3499908 0.5712334 -0.78126407 -0.31245017 0.19649017 0.13455826 0.38907772 -0.2651982
APA 0.10973596 -0.11290781 -0.056999594 0.49802276 0.75149184 -1.2651976 0.83574086 0.19867381 -0.07826461 -0.18009886 -0.0866074 0.5355937 0.4039594 -0.17394522 -0.39101857 0.29926386 -0.24323295 0.43979284 0.8975175 -1.00118 0.049213886 0.8349991 0.18089545 0.5787854
APE 0.78509134 0.110871986 -0.13595197 -0.54361546 0.7322073 -0.20716152 0.81457317 -1.0403551 1.1672075 0.45606583 -0.8109467 -1.9881667 0.40309998 -0.12628609 -0.27227658 0.1528362 -0.6002332 0.2799269 -0.41636345 0.15295771 -0.060462303 0.37650767 -0.8142835 -0.13499579
APF -0.808041 1.2111139 -0.81981826 -0.52455175 0.11793377 -0.37955725 0.2593051 0.24743167 -0.22904855 0.36522678 0.79954046 -0.845837 -0.4633023 0.10883281 0.06952953 1.0347314 0.3003111 0.2597791 -0.2498799 -0.51758933 -0.66048825 -0.852885 0.80288553 0.998151
APG 0.07370387 0.47209597 0.070107445 0.62159127 -0.44225118 0.18664756 1.2729673 -0.041040838 0.47302738 -0.76110536 1.2246041 -0.73557425 0.48539078 0.29913616 -0.3960934 0.6351416 0.16859108 -0.9220756 0.6424117 0.5904108 0.56140256 0.63876224 -0.37266144 1.3183587
API 0.93471235 1.1996975 0.66570854 0.6866179 -0.7829878 -0.38846293 0.39296195 -0.86735535 0.077903256 -0.42439282 1.4814672 0.6335012 0.35742337 0.78051674 -0.35140327 0.23723021 -0.7058345 0.88052595 -1.1820216 -0.6976296 0.32549596 0.25537795 0.70057154 -1.7441434
APL 0.90619695 -0.230083 -0.26369283 0.02584152 1.1127814 -0.26776886 0.16253972 0.07309861 0.23775528 -0.20705822 0.84739715 -0.7309193 -0.5049439 0.54250765 -0.017325759 -0.22277726 0.29985094 0.8039397 0.37190706 -0.29084796 -0.23994616 0.21931288 -1.0680516 -0.4886071
APN -0.43687153 -1.2508938 0.5287015 0.4596492 0.824992 0.743934 -0.758255 -0.013134167 1.3302293 -0.12073739 -0.45533487 -0.019526348 -0.24662778 -0.89650476 0.528042 -0.15088552 -0.6860455 0.39355296 0.6267548 0.11599669 0.1490514 0.47959036 0.00041897595 -0.09443991
APQ 1.2470285 0.1580562 -0.1410942 -0.73320866 1.5475159 -0.6576861 -0.20752072 -0.35941672 0.80605406 0.067740634 0.3017455 -0.3516093 0.23378861 -0.5416104 -1.1967152 0.16270256 -0.5071856 -1.6610086 0.5280784 0.65958965 0.22115579 0.3277663 0.46896598 0.5608956
APS 1.5762715 0.13496543 -0.06802528 0.11618547 0.27245867 0.66426456 -0.049256973 -0.6649673 0.29394996 0.18065137 0.09368017 0.4524871 -1.087524 -0.5950893 -1.1201003 -0.2137829 -0.14454186 -0.5670422 -0.54129404 -0.032515734 1.3479366 -0.85464174 -0.54968256 -0.2862552
APV -0.4461654 -0.521199 -0.019851 -0.90893435 1.0371778 0.77379197 0.09785618 -0.17088595 0.02743313 -0.44285876 -0.50619996 0.35176003 0.36902222 0.118208855 0.9072171 0.36244538 0.009993695 0.25867972 -0.03415107 0.5752791 -0.6946407 -0.63831866 -0.3258267 0.6164736
APY 0.3674858 -0.2824241 0.22734965 -0.64409673 1.5655732 -1.6233257 0.93340313 -0.25183845 0.823815 -0.08770698 0.81175065 -0.7786922 -0.37809813 0.3317051 0.6810813 0.060668617 -0.07460268 -0.30014437 0.06334323 -1.1048932 0.8893164 -0.30323198 -0.6668619 -1.5068674
AQA 0.7550638 0.105641305 0.5352443 0.0028256923 0.010155175 -0.34174055 -0.89358187 1.6980106 1.0092968 -0.1736438 -0.091932885 0.4747416 1.3217579 1.4241616 -0.11443123 -0.8595738 0.03370914 -0.53577524 -0.35522455 0.24584994 1.0732507 -0.7867279 1.2352766 -0.05068299
AQK -0.24616615 -0.52499074 0.8074042 0.07967061 0.415654 0.22064099 0.32562724 0.18585756 -0.249408 0.10013987 0.71622354 -0.21731406 0.11055735 -0.23264992 -0.07942757 -0.2611261 -0.10152677 -0.7748086 -0.9331885 -0.012068689 -0.30590665 -0.5443618 -0.44108495 -0.8016877
AQL 0.1922687 0.115614 0.73564136 0.31524107 -0.09737 0.05979252 -0.4583767 -0.34169334 -1.8871084 -0.22479141 -1.1302576 0.22843759 -0.22908309 -1.0291026 -0.48020917 -0.39506322 1.5046225 1.0715399 -0.7702799 -0.3946246 -0.4604342 0.19176364 -0.13379765 0.095920146
AQP -0.40544292 -1.1317198 -0.88016486 -1.0554284 -0.4654867 -0.656257 0.57614404 -0.37651265 1.5571915 0.5308264 0.65734637 0.22709934 0.3582033 0.73638153 -0.4863025 -0.058193773 1.3648725 0.3383072 -0.27016062 -0.023464754 -0.10149601 -0.5956461 -1.0968623 -0.23556629
AQS 1.3960648 0.2576368 0.035248697 0.31883636 -1.1323797 0.4131565 0.3533666 0.07898256 0.03727855 -0.24344239 -0.4188323 0.6384551 -0.41005188 0.25241804 0.34100604 -0.10798025 -0.56695646 1.226621 -1.5831864 -0.31055403 -0.19784307 0.3361101 0.5177428 -0.5659679
AQT -0.13938735 -0.077375166 -0.019100666 -0.30190748 0.40307164 0.80853117 -0.17591608 0.41569036 0.04726716 0.48905307 0.5324235 0.4853214 0.331132 0.27391568 0.18941534 0.5444781 -1.2933044 0.5184031 -0.3490661 0.36346194 0.012178306 0.4898281 0.017242223 0.54437745
ARA -0.007823348 0.54548377 -0.24089777 -0.59688646 0.16178451 0.88185054 -0.5503068 -0.08221117 0.5171466 0.038621992 -0.8796624 0.54496354 -1.0374401 -0.10479164 0.52283156 -0.48273465 0.071157664 -0.78737795 -0.12142585 0.14201516 0.65198904 -0.05215314 0.23857042 -0.14485335
ARC -0.2100228 -0.15973683 0.4941282 0.15079957 -0.025764823 -0.118153244 -0.0007097721 -0.26411897 0.8741362 0.20844004 -1.0352625 -0.74171 0.70270264 -1.27638 0.049643144 0.47514483 -0.33559266 -0.49147648 -0.44206125 -0.53703266 0.5442288 0.87041265 -0.37100077 0.7356383
ARD -0.2542004 0.6606257 -0.42268068 -0.2628505 -0.95142645 -0.4120341 0.4206758 0.88607055 -0.3795293 0.1705271 -0.26593962 -0.7738204 -0.46326065 -0.14187312 0.30510956 0.06979141 1.0885868 0.50631356 -0.510497 0.5784759 0.5164708 0.3414498 -0.46370888 -0.16081081
ARF 0.19729102 0.12826383 0.48328942 -0.24021648 1.4568232 -0.4869944 -0.038612448 0.24187385 -1.0530841 -0.027970836 0.33725578 0.31702575 -0.14369084 -0.13517223 0.30092624 0.55327797 -0.5103351 0.66675025 -0.65580416 -0.19718252 -0.10205458 -1.1130718 1.0076487 0.13367796
ARG -0.8705337 0.79957557 -0.1502515 -1.5330085 0.0431875 0.49998295 0.1886705 -0.5855449 0.45316327 0.586613 -0.208707 -0.4371786 -0.9997847 -0.60256886 1.17106 -1.0456897 0.6054116 0.20368059 0.6234197 0.2870364 1.4197657 -0.54968935 0.7247272 -0.4287901
ARI -0.9039581 1.0452065 -0.20762247 -0.6766333 -0.38263762 0.76434004 0.4482874 -0.7895664 -0.7227906 1.0572056 0.26740882 -0.3847439 0.48404688 -0.07897398 0.83368677 -0.11385897 0.0022610575 0.6142535 -0.12682283 0.2928527 0.22737244 -0.033730045 0.5823193 0.23340891
ARL -1.5833985 0.21576758 1.0247612 -0.45283076 -1.3581374 -0.525497 -0.1753071 0.056355957 -0.74192077 -0.005073905 0.9513712 -1.665316 -0.29705465 -0.48414817 0.5214671 0.5054588 -0.6167514 -0.9755662 0.10342938 -1.1790555 1.127542 0.30706525 -0.48274752 0.25526
ARR -0.5032327 0.39673656 0.2379406 -0.5027091 1.1119535 -0.16277236 0.07440323 -0.09530016 0.39917877 0.4740926 -0.89505893 -1.3131388 -0.54747933 0.7213906 -0.45089307 0.018084645 0.27508867 -1.0155225 0.31487355 -0.5304433 -0.51888335 0.55139726 -0.18745032 1.1842368
ART 0.5637346 0.74824715 0.9924613 0.28511146 -0.22174126 1.2221193 -0.32583946 -0.3980141 0.83664083 -1.0149529 0.36124572 -0.46033752 -0.0067387465 0.13258183 -0.8995948 0.25353009 -0.14712787 1.1434985 -0.01844269 -0.027152091 -0.90741634 -1.1177579 -0.9588678 -0.2926751
ARW 0.32133794 0.2911882 -0.76233405 0.21142693 -1.1349092 0.03324914 0.7827337 -0.29861146 0.010703802 -0.1858606 -0.34573096 -0.7931313 0.036851205 -0.2952056 -0.56459254 -0.8987494 -0.31489035 0.820413 0.4491955 0.26820442 0.055342466 -0.04419568 0.73587483 -0.08701761
ASA -0.625383 -0.32394576 -0.5275284 0.6566535 -0.57850355 -1.1378797 -0.07243949 0.45135197 -0.29080272 1.6412052 -0.5848005 0.1556494 0.6465295 1.1000929 0.21650735 -0.20849177 0.8119879 -0.7237273 1.3295846 -0.6396818 -0.59108436 -0.71691793 -0.06664165 0.56726164
ASC -0.5424334 0.16569991 0.38727608 0.41262177 -0.8768408 -0.24083745 -0.23316708 -0.028452862 -0.32878506 -0.8064021 0.089777246 -0.21667036 -1.32094 0.0050203204 0.536749 0.61016333 0.113405526 -0.033446997 0.16558987 -0.8833343 0.06211829 -0.39820537 0.0045548677 0.62539786
ASD 1.0458508 -0.90624166 0.60585946 -0.6517329 0.8647907 -0.30302617 0.3731809 -0.34943694 0.45356324 1.0262007 0.0059390515 0.9615219 -0.38800076 -0.26361448 0.5301396 -0.4585637 0.87583804 -0.40135473 0.24391732 0.22523561 -0.5976801 -0.060232416 0.20239371 -0.4357483
ASE 0.26714158 -0.057145588 -0.015984446 -0.47025374 -0.44942278 -0.9444283 -0.6773684 0.30280638 1.0530893 0.4460355 0.5256791 0.010642588 -0.3981526 0.55436105 -0.14180863 -0.107673824 -0.37679017 -0.09158592 -0.85056084 0.3831496 -0.03873815 0.9327015 -0.38763642 0.7957758
ASG -0.80574846 0.3275633 -0.09934601 -0.18295385 1.260401 0.068465814 -0.337422 -1.2691065 -1.1242423 0.101045504 0.2632977 0.3807621 -0.2001946 0.35959363 -1.2422907 0.43684524 -0.5073504 -0.34953064 -0.0036042333 0.07516867 2.1047597 -0.41678128 -0.35184303 -0.62784064
ASI -0.73335177 0.79787225 0.7879749 -1.1370139 -0.37360945 0.039717197 0.13822699 0.83842963 -0.7592861 -0.4319117 -0.9853245 -0.09944312 0.428806 0.48354357 0.43246973 -0.39008123 0.27704802 0.9474289 -0.74508905 0.16663092 0.25790974 -0.052656256 -0.2038345 -0.67302275
ASL 0.4980386 -0.30755895 -0.2114824 0.8838452 0.9210609 0.48483142 -1.4853463 -0.09441352 0.51419544 -0.8847023 1.0417303 1.2266517 -0.81100553 0.71320295 0.5920658 -1.1983877 -0.26629677 0.44674364 -0.90102524 -0.8269948 0.34170768 0.40676814 -0.5073301 0.41438156
ASM 0.45831376 -0.20268036 0.92540294 1.2113402 0.97550464 -0.7143978 -0.3699262 -1.9906775 0.90311617 -1.642565 -0.063177735 -0.33391777 0.09917684 -0.19317183 0.56561565 -0.5565568 0.69513696 0.15671486 -1.0086014 -0.7522835 -1.1275586 -0.5927209 0.6994828 -0.68278635
ASP 0.10859969 -0.13446009 -0.87238914 0.1676782 -0.053617924 -0.27701232 0.22003837 0.35584265 -0.6961306 0.43934932 -1.0133735 -0.40449315 1.1331884 -0.82586706 -0.67638373 -0.72575134 0.33145246 0.7928855 -0.18647262 0.53643465 0.3696504 -0.6620494 -0.92640615 -0.5770935
ASR -0.16713417 0.4553419 0.46876407 -1.1259693 -0.24539904 -0.68819404 -0.78421897 0.0850558 -0.22049034 0.27749532 -0.6333056 0.109020054 0.8444192 0.033755302 0.13300136 -0.24813995 0.924899 0.676364 0.5890014 -1.0481683 0.7153157 0.6723608 0.387279 0.50417316
ASV -0.55877775 1.0717847 -0.45872277 -0.55457103 0.13158251 0.21231005 0.7966994 0.10678545 0.41341227 -0.46083716 -0.2406721 -0.15198597 -0.85146725 -0.15321162 0.7746246 -1.388156 1.3462013 0.42322007 0.69803625 0.2645049 0.51536214 -0.555734 0.59137976 0.2286767
ASY -0.5382952 0.5928597 0.6359237 0.5272205 0.45634457 1.2014866 -0.08161962 -0.2999279 1.0420997 0.53320926 0.10298976 -0.88746035 0.44241714 0.91925395 -0.6560915 0.75178325 -0.004217174 -0.99334264 -0.112698436 0.17245203 0.040105283 0.13276279 -0.7494575 -0.46382996
ATD 0.3387655 -1.0082827 -0.64974487 -0.11238074 0.20861329 0.8492923 -1.2335969 0.9540313 -0.91160387 -0.73320216 0.6415654 0.6248488 0.8076144 0.43936574 0.32114112 0.25395536 -0.5851339 -0.034495942 -0.23303333 -0.31460172 -0.7638669 -0.0064682066 0.15171349 -0.08604127
ATE -0.6185812 0.83263755 -0.629588 0.2587324 -0.4652474 0.132709 -1.027925 -0.97835064 -1.3849444 -0.7185721 -0.6143697 -0.69496226 -0.99411964 -0.38108417 -0.65534544 0.76416165 0.27094358 -0.058350503 -0.48314282 0.8565563 0.742706 -0.8549964 0.36567965 -0.06507878
ATI -0.23512739 0.57996446 -0.18860818 -0.24366806 1.2088661 0.061089635 0.08418509 0.4218629 -0.052624963 -0.22151566 -0.48930162 -0.3590339 0.37550744 -0.69637656 -0.36757728 -1.088926 -1.0634285 -0.53458536 -0.74950284 0.47745556 -0.31209278 1.2009495 -0.42579278 -0.09002871
ATL -0.13125987 -0.15494233 0.52072424 0.3563496 -0.30394506 -0.40771583 -0.3008364 0.5634819 -0.2750852 0.4130385 -0.4101618 -0.098581225 0.18267572 0.2750794 0.28321326 1.2072667 0.5765836 -0.7188829 -0.36112425 -0.038737476 1.250823 -1.0445238 -0.5520715 -0.047703713
ATP 0.9002029 0.15023376 -0.35612231 0.35108212 1.2158878 0.7288922 -1.3767234 1.07093 -0.14231075 1.0539784 0.13603398 -0.91136646 0.25680953 -0.106482685 -0.13982014 1.244755 -0.53623784 0.0560345 0.48070365 0.71649575 0.2732758 0.59522307 -0.27468175 0.15895072
ATQ 0.320184 0.17639032 -0.10468682 -0.34980348 0.07059544 0.7026148 -0.7027754 -0.015188752 0.7473447 0.26677847 -0.44936225 -0.10053894 0.29622054 -0.13142149 -0.094372615 1.37151 -0.109293535 0.17546612 0.20202887 -0.23105752 0.4243807 0.45226994 0.19866048 0.63154763
ATT 0.3249746 0.38374805 -0.059056208 0.5303057 -0.3783649 0.047568876 0.71189797 -0.56913835 0.88043594 -0.15875268 -0.9067124 0.2621063 0.2877288 0.21599586 -0.06809735 -1.2857311 -1.3904593 0.72953725 0.0042799413 -1.0831102 0.36161673 -0.25999385 -0.6584424 0.53487396
ATV 0.8176263 -0.44778082 1.0378513 -0.33881706 0.03113772 -0.4797175 0.59067327 -0.14274773 0.026582897 1.5608485 0.6276606 -1.3899026 -0.47079143 -0.6071236 -0.6165706 0.86568624 1.2537063 0.24969593 -0.6635422 -0.5021177 0.5420358 -0.034793258 0.5022204 -0.44701642
AVD 0.21738347 0.11134653 -0.08963987 0.6247467 -0.8069811 -0.3640859 0.23654673 -0.17605162 -0.50354826 0.44984534 -1.0161947 0.26016852 -0.29243428 -0.504362 0.11311029 1.3729283 0.6691183 0.13032192 -0.43575633 1.234791 -1.0526593 0.81916624 -1.1889703 0.3481409
AVE -0.69080037 0.25404674 -0.13076003 -0.34315553 -1.2646785 -0.009060193 -0.28054634 -0.54406023 -0.7558322 -0.40967247 0.38327852 -0.63074917 -0.1523947 0.29504037 -0.09547488 0.36495525 0.14968759 -0.72047657 -0.08038217 -0.323559 0.47227216 0.1261898 -0.6705438 -0.13712552
AVG -0.15587494 0.43402267 -1.0455164 0.6856447 0.3237695 0.08523211 1.0317981 0.26699388 -0.6903652 -0.7900784 0.66923153 -0.07790284 0.4082802 0.31180754 -0.3634857 -0.74310726 -0.29129478 -0.5585111 0.3945277 -1.0180262 0.73774076 0.57293856 -0.09016438 -0.79736483
AVH -0.1567983 0.3633063 0.3141322 0.99206537 0.57528114 0.43441567 -1.6571239 -0.4258865 0.37871715 0.685092 -0.68434876 -0.35292643 -0.23880996 -0.45265305 0.49771708 0.24869686 -0.19912598 -0.31557214 -0.06819963 -0.22880894 -0.42052886 0.008773059 0.41174158 -0.30552286
AVI 1.1741298 0.24455729 -0.6145751 1.0596642 0.41567767 -0.40281314 -0.5123808 -1.023907 -0.28984445 -0.21245848 -0.014025509 -1.532214 -0.22484672 0.31700426 -0.6774762 -0.13528393 0.72092456 0.23201457 -0.6282185 1.5787014 -0.8680944 -1.5899352 -0.5037527 0.9861101
AVK -0.53942204 -1.0104469 -0.5062449 -0.96003115 -0.3515949 0.66654146 0.114990264 -0.41275424 0.98320365 0.28313595 -1.1424593 -1.7418418 0.396796 -0.71914065 0.115701854 -0.79601634 0.24753419 0.26397264 0.43336287 -0.3775926 -0.17437029 -0.40607393 -0.065978505 0.29249194
AVR 0.06752929 0.20079692 -0.44870526 -0.92444855 -1.6033711 -0.09213558 0.33410844 -0.632355 -0.20887716 0.44064322 0.16629118 -0.79127276 0.40865543 -1.5685595 0.3750231 -0.35698003 0.4373482 0.32230946 0.5444505 -0.5688685 0.5485933 -1.2586752 0.073237136 -0.46370748
AVS 0.38512358 0.73092353 -0.96666104 -0.07947552 -1.2450527 0.40521687 -0.21286502 1.1896964 0.15417103 0.4350454 0.47216418 -0.8554097 -0.98547184 1.3043554 -0.698121 0.096508086 -0.40495804 0.76632226 -0.20321873 0.035493806 -1.016536 0.06868054 0.5625346 -0.89748913
AVV 0.06583285 -0.17972031 -0.030349106 0.12465179 -0.318901 -0.48648942 0.7946075 0.8253733 0.16899306 -0.54949343 -0.28037316 0.51047987 0.87223303 0.87925065 -1.3056405 0.19115034 0.19587865 0.8976254 0.71316546 0.5642587 -1.1225095 -0.79359466 0.3291676 -0.80588585
AWA -0.62585545 -0.011477031 0.42377618 -0.035718106 -0.6195638 -0.109743625 -0.91720825 0.97287357 0.010002881 0.66456294 0.4547367 -0.059165224 -0.15489139 0.62023246 0.07697716 -0.33627337 0.60874915 -0.42207295 1.0670778 -1.2718987 -0.08026564 -0.024655461 0.48920137 -0.69050086
AWD 0.1759344 -0.5397607 0.19019954 -0.8579774 0.047811717 -0.6293813 0.11434317 -0.027626634 1.0998235 0.65080863 -0.582552 0.42196167 -0.6493147 0.02045606 -0.65803397 -0.5821763 1.2807891 -0.067886636 1.2627739 -1.4637234 -0.020496726 -0.5371203 -0.13419983 -0.6499863
AWF 0.5265932 -0.1957587 0.39854872 -0.105039746 0.4883085 -0.08685127 0.17633292 0.54224396 -0.45590657 0.40016726 0.582994 0.030497283 0.2238886 0.3342638 0.49868038 0.9852284 0.46017528 -0.67247844 -0.6792952 -0.93589795 0.7079645 -0.81783986 -0.8100744 -0.67455673
AWG -1.1712384 -0.22472331 -0.013256848 0.004314497 -0.4480948 0.6383993 -0.9684358 -0.7154869 0.8319739 -0.047158085 -0.41792452 -1.0757213 -0.3018304 0.9358163 -1.0932105 0.60571355 -0.24162064 0.0149808675 -0.13356252 0.03807366 0.9881329 -0.20096284 0.690154 -1.289927
AWH -0.3067476 -0.21134654 -0.43854734 0.6894019 -1.0874444 0.27742994 0.44871968 -0.07379964 0.22320285 -0.02118507 0.009686351 0.27130464 1.4154682 -0.11529161 1.2577157 0.1391997 0.16563478 -0.35125512 1.2904983 -0.13166901 -0.92798316 -0.2330718 -0.72610307 1.1094053
AWP 1.2737586 -0.55643016 0.52815604 -0.35847053 -0.49027747 1.2084817 -0.08849648 -0.46766895 0.60256785 -1.0344554 -0.0247717 -1.1731224 -0.5324821 0.72481984 -0.034470636 -0.751572 -0.6679388 0.59451896 0.17923272 0.35369945 -0.48956308 -1.5179327 0.28115645 0.20371635
AYD -0.18111172 -1.6584687 0.34867918 0.5850177 -0.36750445 -1.4704671 0.7842693 0.78981507 0.31535894 0.07963733 0.67305857 -0.51408136 -0.5749153 -0.15017748 0.6512561 -0.19219376 0.1185002 -0.1380495 0.16012794 -0.7763029 0.09111184 0.1704551 0.059470147 0.07575868
AYG 0.63788795 0.20562968 -1.147648 -0.33848414 -0.42764485 -0.45523196 -0.2754438 0.8499264 0.020473644 0.12309463 -0.7882018 -0.5097813 1.0877728 -1.2453613 -0.17719981 -0.26205194 0.4619472 -0.013169229 -0.16240445 0.30695942 -0.6716057 -0.11159909 0.31417367 0.27564338
AYM -0.31156504 0.4859955 0.24759589 -0.70538914 1.161357 0.17241502 -0.29845297 -0.14045268 0.08551787 0.81270635 -0.12436566 -0.75676686 -1.4363197 0.4590376 -1.8791745 -0.7707937 0.18597557 0.6088458 1.0524349 0.40755242 0.030386828 -0.17722371 0.23669598 0.419802
AYR 0.39628845 0.17510204 0.49918947 -0.12667593 0.013826986 -0.44188303 1.242478 0.49646237 1.3164344 0.021568315 0.6681919 -0.6602451 -1.0951878 -0.6526286 -0.48903728 0.07297778 1.6787024 -1.7075622 0.35130066 -0.38075885 0.27088058 1.411938 0.3794401 0.17821348
AYT -1.4349823 0.2261111 -0.91967916 -0.48714173 0.9558628 0.1088538 0.08947155 -0.6700533 1.4810448 -0.1213073 1.1272993 0.02055504 0.3246674 -0.23914519 1.2020386 1.1196077 -0.15702228 0.43931946 0.13079876 0.32533786 1.439493 -0.071479484 0.3291527 -0.36619768
CAA 0.63872325 1.1097394 -1.0788893 -0.06541662 -0.5135916 -0.49068737 0.535036 0.45362845 0.20637605 -0.21033362 0.0505293 -0.28554854 -0.069122925 -0.09443511 0.43473488 -1.7759559 -0.60239214 1.3776987 1.5916758 0.5249878 -0.24509236 0.9580468 0.0068828613 -0.32626483
CAG 0.8283279 0.5757077 0.11777434 -0.030747473 -1.0427642 0.33240193 0.55031466 -0.20156685 -0.645749 0.92561555 -0.044651426 -0.3282445 0.0052056313 -0.98328435 1.4203317 1.0590336 -0.18359348 -0.3600028 0.037547752 0.56101656 0.44030648 1.0360482 0.56294966 -0.17653224
CAP 0.026069045 -1.0050052 -1.068649 1.1439686 -0.4417889 0.9726448 0.96308553 0.22250877 1.0191003 -1.1664435 0.5251656 0.2475554 -0.82981366 -0.2665292 0.38324285 -0.8182088 0.31793213 0.666482 0.41759053 -0.3050216 0.92847663 0.56681204 -1.1254392 0.17131786
CAR 0.504731 0.26834995 -0.49162525 -1.3203411 -0.26080668 -0.57545954 -0.34512174 0.3385669 0.28415865 1.7675153 0.4201977 -0.6709262 -0.2942764 0.41262853 -0.66020656 -0.043180555 -0.27286422 0.512993 0.33355647 -1.1281344 0.42701885 -0.4673968 -0.2809085 -0.112993
CDI -0.6282057 -0.85435975 0.21080205 -0.5065328 1.0192379 -0.6246011 -0.7109045 -0.29865742 -1.6019516 0.16750082 -0.22061251 -0.509163 0.08874807 1.3277836 -0.89813197 1.1255023 0.93214995 0.18014754 0.073081344 1.1870944 -0.42321196 -0.997347 -0.65218216 -0.31358474
CDR 0.036907494 0.67487913 0.092883885 -0.14092351 0.6682272 -0.09218358 -0.9531352 -0.1300993 -0.35317522 0.8878861 -0.27511287 0.5644956 -0.48915893 0.082134664 -0.023456782 0.2893679 0.9840951 -0.77978635 -0.8331349 -0.45025992 -0.3335429 0.31350666 -0.39311385 -1.0905529
CEC 0.90222263 -0.27368084 0.049025662 0.6750301 -0.69721013 0.53907704 0.090501964 -0.32013562 2.6555374 0.5767983 -0.21349978 1.4763992 1.0263808 0.066468745 0.6638392 0.5232966 0.16169 0.22066915 -1.3304851 -0.097340986 -0.102983624 0.036719173 -0.5659646 -0.45462346
CEK -0.20521 -0.57153547 0.95077765 -0.44511387 -0.43708953 -1.3254721 -0.31735262 0.38890332 -0.0077186525 -0.7588675 -1.3699307 0.2964406 0.10731915 0.34927 -0.51695365 1.1087288 0.32458636 -0.47088477 0.6278462 -0.22916387 0.2851305 0.22682434 0.23668319 -0.15589438
CEQ -0.42651334 -0.4217196 -0.07662591 -0.66021305 1.3171299 -0.22410811 -0.4624804 0.7516009 0.25715306 0.7992437 -0.43036237 -0.50081474 0.32728484 -0.24480392 -0.5579405 -0.8108245 1.0752776 1.150102 -0.33324006 -0.5763371 -0.31145406 -1.1616184 0.54522985 -0.70226324
CET 0.08920292 0.6427607 0.3229414 0.13134341 0.15510178 0.9806134 0.20464742 1.0876793 -0.3150217 0.082650766 -0.83155113 -0.5200704 -0.75931007 -0.090513766 1.3246826 -0.97246367 0.29276913 0.014560491 0.13979751 0.12298569 -0.93800735 0.8134508 -0.070681274 -1.4154428
CFL 0.21554498 -0.84337986 -0.6975329 0.11020672 -0.20374219 -0.82670975 -0.4526291 0.41351447 0.08687574 0.89491653 0.093514085 -0.2769457 0.47091877 1.2470618 0.85896146 1.2869384 0.4933363 1.1120211 -0.06381827 1.0165604 0.49478796 0.12607226 0.30198222 0.5296695
CFP 0.44439593 0.40494114 0.04546818 0.9852045 -0.34660017 -1.3889806 0.032685995 -0.04331156 -0.8900851 -1.0506594 -0.23573413 1.0467314 -0.59884673 -0.062278777 -0.92332816 -0.07066223 -0.33288357 -0.06731273 -0.6326914 -0.3422861 0.33560163 -0.28434622 -0.39681792 -0.77215147
CGD -1.1299536 0.24609336 1.0280275 -0.4562391 0.47428483 0.08324465 -0.70260304 -0.5261225 1.3952787 0.21122387 -0.65917754 0.18263565 -0.7071417 -1.7875307 1.7114058 -0.92986906 0.11976197 0.4230164 0.53994936 0.1545537 0.06123379 -0.80895424 0.70124996 0.29573587
CGH 0.57593966 -0.14641532 0.049132332 1.0511818 0.22952192 -0.9405373 0.32222766 0.24977382 -0.7576131 0.12385556 0.23004544 0.7926088 0.5090077 -0.45543677 0.077958584 0.04436943 -0.4132529 -0.3184114 1.0520854 0.5496925 -0.98932266 -0.927253 0.19016558 0.07007778
CGK 0.56781447 0.3553751 -0.11538629 -0.29324508 -0.8231577 -0.33102962 -0.4722436 0.23355734 0.9805198 0.2018942 -0.6463883 -0.08425211 0.7895384 -0.08283737 -0.79092544 -0.8077378 -0.6707073 -0.081376016 -0.27022958 0.034507453 -0.199858 -0.9501231 0.4123568 -0.1436823
CGR 0.7671339 -1.6726526 1.5607703 -0.38597685 -0.80241525 1.7945836 -0.21266675 0.41768128 -0.33872038 0.5521711 -0.13300805 -0.41656494 -0.17982668 -1.2391051 -0.58555996 -0.52908 0.08652302 -0.19759592 -0.6097114 -1.0201986 0.08960572 -0.4536759 -0.30025563 -1.00548
CGS 1.0296559 -0.24750963 0.08853614 0.54917115 -0.6035655 -0.043033004 -0.31754163 -1.3669397 -0.7159075 1.2358057 -0.8691247 -0.43848145 -0.034716874 0.9037482 -0.36212403 -0.4784378 -0.41889414 0.8721914 0.77174544 1.0780953 -0.7864833 0.13228296 -1.1474466 -0.26754713
CGT -0.63875425 -0.5145035 -0.025523104 -0.4670434 0.23981813 -0.15442821 -0.2991844 -1.1715329 -0.14533113 -0.89948356 -0.056256533 0.57345283 0.23237708 -0.40591916 0.32643485 0.0024256557 0.12792908 -0.9053495 0.439729 0.63269556 1.1196944 -0.30056182 1.7633402 -0.3265482
CGV -0.53029233 0.5525815 0.96067506 0.6582869 -0.4129364 -0.057481647 -0.81003463 -0.04428664 -0.26119652 -0.01899077 0.5118805 -0.29947853 0.21270297 -1.4318044 -0.21434788 -0.010034993 0.48497644 1.5522548 0.31429282 0.5687095 -0.9357675 -0.309704 0.35895804 -0.17583346
CHG -0.6145305 0.42139813 -1.0955366 -0.80322987 0.10058536 0.6668629 -1.2174176 -0.0026695654 0.87815535 -0.9913352 -0.062462427 -0.6472616 -0.76897794 0.18471828 -0.9424887 -0.5223805 0.97460675 0.1184735 -1.3987913 1.0636458 -0.17190444 0.49969664 -0.032886505 0.15006453
CHK 0.47634792 -1.1594388 -0.29295847 0.59717447 0.36478585 0.8948722 -0.60953164 0.052954435 -0.14531076 0.86586136 -0.34373364 0.18933812 -1.1025789 -1.1905972 0.30402237 0.52707857 0.6253038 0.013393909 0.56061995 -0.94732314 -1.1223707 -0.30481 0.82688814 0.39222264
CHS 1.0842817 0.0027009994 0.0007343888 0.27654618 -0.28573298 -0.1451333 -0.7668128 0.09615654 -0.45430875 0.13362548 -0.2936337 0.08223693 0.7607968 0.7473225 -0.78320336 0.32866192 0.27281538 -0.9904882 -1.1578139 0.061031103 0.31339154 -0.77947986 -0.41661763 -0.33686778
CHT 0.667139 -0.31166223 0.061240233 -0.08465822 -0.87745094 -0.9267548 -0.6430521 -0.67764956 -0.23704475 0.29112262 -0.42405412 -0.041377425 0.18104771 -0.18305954 -0.78689146 -0.59458786 0.12912078 -0.46057436 -0.47279808 -0.97244644 0.010055393 -0.02107338 -1.146687 -0.3040501
CIS -0.072096616 -0.2386097 1.0968102 0.14228785 0.0071786195 -0.5635854 -0.17721695 0.5866566 -0.33785123 0.36014938 0.8843159 -1.2427472 -0.77656054 -0.66877425 0.45733032 0.04452084 0.8004621 -0.87939256 1.6590874 0.23117675 0.97942877 -0.94610274 -0.19051297 -0.16101608
CIT -0.23085202 0.72664815 0.3580768 -0.027078748 0.66039133 -0.64295757 -0.03381726 0.4932932 0.17318335 -0.8163588 1.1652594 -0.6491129 0.4100647 0.5290892 -0.08285186 -1.1335628 -0.42435393 0.28262433 -0.25934693 -0.5364494 -0.2688734 0.017498896 0.15883344 -0.62570035
CKF -0.30198747 0.50354314 -0.6917788 -0.32384473 -1.7974586 0.27495998 -0.43602866 -0.59436095 0.51711303 -0.4546191 -0.9057032 0.6133585 -1.7503221 -0.7339145 0.37085235 1.0208164 -0.1192967 0.50473917 -1.8685238 -0.4056056 0.85125214 -1.1521921 -0.50181866 0.0619134
CKK -0.5488398 0.7983924 0.10601348 0.22408752 -0.024965076 -0.6198192 1.14488 -0.11838141 -0.023183942 0.29898417 -0.36631572 0.07713997 0.699087 -0.34144273 0.48791394 -0.69301426 0.7780889 -0.9661545 1.000032 0.5220223 -0.08221274 0.24416493 0.27319324 0.594957
CKL -0.546319 -0.23386824 0.95504814 -1.1585574 -0.3553822 -0.33532584 0.131426 0.34419227 -0.19529685 0.75180984 -0.17947969 -0.6029078 0.23106484 -0.41904208 0.19101226 0.62218016 -0.8398453 -0.918544 0.73743385 -1.7489496 -0.40127298 0.07131939 -0.242288 -0.34721932
CKP 0.9770428 -0.06314058 -0.32924792 -0.24862878 0.28496483 1.0768485 -0.30119705 -0.055082023 -0.88093626 -0.88443846 0.63964784 -0.33456206 -0.8344318 -0.452632 0.73079133 -0.048538726 0.35017905 -0.38736483 0.35710222 1.1304653 0.3696148 0.72027785 -0.24726334 -1.0998809
CKQ -0.289308 -1.5313504 -0.48516253 -0.23748447 -0.9064266 0.42018366 0.10726508 -1.4652011 -0.8807102 -0.48452812 -0.700741 0.18196106 0.32542357 0.5227662 0.18346018 -0.28029197 0.33633858 -1.0239891 0.29135367 0.08482297 0.04162422 -0.013763458 0.34280515 0.8492378
CKT -0.5332445 0.21291095 0.56966645 -0.8627992 -0.8261217 0.8967427 0.3970695 0.118067816 0.6413009 0.2866411 0.80885327 0.100467 -0.043676972 -0.56597185 -0.08362797 0.29154012 0.4043318 -0.1840603 -1.0295475 -0.50564563 0.5131682 0.50129414 0.1760434 0.27398664
CLI 0.63826394 -1.1208128 0.47035602 -0.20301667 0.5690029 -0.77070594 0.6887023 0.48144928 1.3549273 0.5542425 0.5594412 0.32098943 -1.1107748 0.5321091 -0.562933 -0.47915286 1.013534 -0.4978698 -0.21453556 -1.2681545 -0.16377357 0.07123582 0.22797659 0.59651566
CMD -0.27088463 0.5195295 0.757023 -0.0809531 -0.15144281 -0.35284466 0.29586878 0.14024478 0.7763852 -0.84869707 0.75416076 -0.140317 0.7863868 -0.964291 -0.6103013 -0.24318394 -0.5584171 0.7564608 -0.93279296 -0.4543501 -0.85871625 0.7602784 -0.5715639 -0.7960326
CMT -0.2544859 -0.7501054 0.03559336 -0.36695462 0.21427172 -0.05343564 0.26524508 0.84504676 0.35311246 0.21007961 0.5534066 -0.39668822 0.93901753 -0.2790175 -0.5103505 0.17798775 0.08880232 0.0077584386 0.8908011 0.36448196 -0.4355486 0.48789838 -0.08807339 0.97936
CNA 0.26937085 -1.000346 -0.48771852 0.8114172 -0.018873453 -0.18204749 -0.038560987 -0.38915282 0.32750002 0.8059874 0.3665511 0.22215518 0.16430712 -0.9446432 0.42278266 0.16917875 -0.5367881 0.43375155 0.5202481 0.58460027 0.49065632 0.8379485 -0.2620431 0.5771152
CNF -0.42973804 -0.38934267 -0.49512345 0.35986573 0.1720897 -0.45831874 0.3287524 0.569744 0.08438209 0.17921647 1.1749994 -0.84995866 -0.18087506 -0.2559824 -0.5980024 0.66109467 0.69497395 0.35049623 -0.5670127 0.79316854 0.28863534 -0.59626245 -0.9544109 0.49928305
CNS -0.70559424 -0.5093958 0.23040393 1.0784178 0.17361917 -1.1154085 0.25709137 -0.45329368 -0.16563344 -0.59246814 -0.40017503 -0.3770231 0.4353453 -0.83105946 0.899863 -0.16990888 -0.11292851 0.14947113 0.63593125 0.87452745 -0.2435567 0.94937515 0.23321298 -0.38348097
CPA 0.43755934 0.5326575 -0.5689891 -0.054204464 -1.3210797 -0.36012936 0.2506983 0.37855548 0.48042643 -0.0016588718 -0.21312141 0.77139384 0.21968448 0.78132665 -0.1476712 -0.4645077 0.62773615 0.12278432 0.7622963 0.19976857 -1.1080985 0.56222945 0.6846583 -0.44440767
CPM -0.29102075 -0.16652322 -0.45283723 -0.0067414613 -0.4510489 -1.0366971 0.48959416 -0.6429829 1.3605702 -0.040728033 -0.87736464 0.8749026 -0.7396198 0.2950799 0.49642426 0.22391188 0.8165003 0.01721786 0.41263017 -0.67157656 -0.4089398 0.18881771 0.4009547 -0.3937434
CPN -1.0005293 -0.076454476 0.42985559 0.74757797 -0.05399967 0.2559168 0.49398857 0.7494526 0.35476816 0.79146886 -0.67741543 -0.69485784 0.85864747 -0.52761763 -1.395724 -0.33875173 0.13429052 1.1626906 0.9877094 0.26834434 0.35774392 -0.2580018 -1.3875177 -0.1925682
CPS 0.4902872 -0.3914769 -0.8427549 -0.078244984 0.60757107 1.4912959 0.72391176 0.1114382 -0.032820404 -0.30371374 -0.08555779 -0.23240784 -0.44307446 1.5100039 -0.086318485 0.9792992 0.7196651 -0.8875633 0.09488548 -0.48926735 -1.0511281 -1.3017573 -0.9751116 0.09259931
CQE -1.1461264 -0.07231802 0.1883372 -0.13759223 0.11960834 -0.80653775 -0.71349543 -0.120114595 0.51760364 0.14092611 0.12846658 0.81039566 -0.24988979 0.5479747 0.15884629 0.15811665 0.37389547 0.06375849 0.26342392 1.1454482 0.023967206 0.17074908 -0.79181194 0.9861721
CQL -1.6390679 -1.0252705 0.6916854 0.55272496 1.1828594 0.3645103 0.6917479 -0.8515382 -0.42932943 -1.0805906 0.4085512 -0.47377005 -0.43776843 0.6371163 0.19385946 -0.10314012 -0.3460985 1.009347 0.97751474 0.44302523 0.71700346 0.5637336 0.38448447 -0.79283977
CQS -0.83134425 -0.46998155 0.27694473 0.40592122 0.7998487 0.46593225 -0.14932449 -1.3352895 0.4284368 0.654377 0.16614348 -0.11160903 -0.03591919 -0.36974794 -0.74022573 0.091032624 -1.0959995 -1.0028306 1.3081522 0.25053436 0.15913515 0.031201646 -0.88689333 0.5381162
CRD -0.030219764 -0.25691336 0.83685935 -0.39834774 0.5248007 -0.5573591 0.49176344 -0.037589043 -0.48275 -0.47212088 -0.085706234 0.36874688 -0.7218256 0.3013906 -0.33994174 0.6658984 -0.50376844 1.030928 -1.2015955 -0.016795248 0.6945684 0.14258277 0.35308626 0.4341087
CRL 0.30303502 -0.17825723 -0.65025055 -0.42186472 -0.38175806 -0.74994934 0.002703607 0.7147852 0.5950259 -0.1072191 -0.6996714 0.03380622 -1.158464 -0.37992632 0.2862081 0.27495754 0.31378984 -0.16760013 -0.2954354 0.9669693 1.0186832 -0.21906602 0.5230171 0.6689422
CRS 1.2983706 0.72036076 -0.04387845 -1.4948624 0.42294767 -0.5959369 1.040423 0.6118133 -0.5793581 0.23127642 -0.050422043 0.1599761 0.21018997 -0.046253413 0.11822237 -0.7801521 0.7807068 -0.5442802 0.34878036 0.05810222 0.17797631 -0.16504583 0.68023217 0.7319269
CSK 0.15823165 -1.128125 -0.09951109 0.16673599 0.51302004 0.08689282 -0.30147234 0.38398486 0.35020232 -0.11651026 0.3249851 0.3260929 -0.12105639 1.1555378 -0.54206216 0.012915254 -0.31995595 0.04465428 0.114222184 -0.10995048 -0.26171148 0.42327905 -0.028810143 0.02850511
CTC -0.770213 -0.17208356 -1.3200911 0.37013233 0.009980837 0.8947385 -0.16597976 0.38686138 -0.2265176 -1.2180164 -0.5559104 -0.9818687 -1.1212779 0.14024343 0.9633636 -0.62603796 -0.2845157 -0.9764284 -1.03414 1.0265119 -0.6465334 -0.31061706 1.0959151 0.5822166
CTE 0.29568076 -1.1818955 0.39951217 -1.0617679 0.4426396 0.40960068 -0.029687852 0.26405424 0.0526824 0.2830092 0.18468773 -0.5915232 -0.47609037 -0.95043683 -0.2322826 -0.3260952 -1.6487896 -0.037161976 -0.060226202 0.1736119 -0.26432863 -0.67975765 0.103421 -0.121921584
CTG 1.2863717 0.69643366 0.11676788 0.9334029 0.799417 -1.0268456 0.10411888 -0.058994666 1.2630019 1.1372077 -0.24147546 -0.44948256 0.39493227 -0.44069517 0.28425264 -0.17645887 -1.5273325 0.15341793 -0.31272846 -0.20861988 0.14883506 0.7482087 -0.46829093 -0.10017876
CTP -0.2688342 -0.7455135 -0.31516305 0.3803206 0.2348702 1.0212796 0.16508164 -0.37780702 -0.45624873 -0.4323979 0.83533126 -1.633857 -0.0049213087 -0.20703505 0.20242453 0.76091325 -0.050162792 0.22719297 -1.243825 -0.34461492 0.08815075 0.2200899 1.0508597 0.31609303
CTV -0.016144961 0.018063635 0.39726827 0.36609924 -0.7690364 -0.6309897 0.48153687 -0.40754598 -0.10383916 -0.6305009 0.026934773 -0.6345962 -0.84983367 0.78837776 -0.035351157 -0.59458905 -0.17114584 -0.42954522 0.4294535 -0.19283786 -0.7147767 0.2443026 -0.1689513 -0.98879194
CTY 0.40492278 -0.18110207 -0.12429476 -0.40915638 0.3240683 -0.7943213 -1.0870109 0.020879567 -0.15713987 0.703823 0.0594337 0.23278373 0.11580242 -0.6220735 0.013653427 0.8458256 0.14055544 -0.5566909 1.3770809 0.70222706 -0.43644375 0.9171451 0.63952404 -0.2442189
CVF -0.059775215 -1.239015 -0.15458156 0.26633206 0.89228946 0.050114393 -1.5720122 -0.47801608 1.2120217 1.2818713 0.084921084 -0.40770233 0.9925059 0.5078352 0.604177 -0.01420182 -0.21860729 -0.48916665 0.09068523 1.2480531 0.53496754 -0.88183093 0.24454969 0.25427145
CVL 0.30478892 -0.46012163 0.2228617 0.0838355 -0.8618635 0.37140155 0.040823624 0.29521388 0.46483627 -1.1497033 -0.5128908 0.18706721 0.8699929 0.99464643 0.09227799 -0.3687001 -0.708271 -0.19937778 0.2977045 -0.17252953 -0.9505293 1.6654265 0.67105246 0.86313826
CVS 0.09367135 -0.39842498 -1.1193628 1.4269009 -0.46823585 0.050178528 -0.2632806 -0.4639507 0.20737715 -0.011901617 0.4403398 -0.51540625 0.60091954 0.8399961 0.709606 0.75013924 -1.0498158 -0.27839774 -0.30507198 0.7148734 -0.5658738 -0.146932 -0.15932298 0.42390585
CWQ -1.0124862 -0.16778535 0.16586037 1.0138584 1.0022197 0.8090722 0.034950167 -1.1931014 0.5259065 -1.6826555 0.12967014 0.27191013 -0.15906474 -0.7193477 -1.0658109 -0.8727884 -1.1149958 -0.31611198 0.026380181 0.11212644 0.12107446 0.23055142 -0.079262555 0.031038538
CWR -0.37766874 0.2860523 -0.110519335 -1.3138891 -0.3375104 -0.4030353 -0.6222126 0.09700021 1.2718093 1.7167541 0.102780305 -0.23342934 0.5969048 -0.40571052 0.08262536 -0.3261863 0.053204596 0.70762193 0.16474608 -0.20277704 0.5523503 -0.13777873 -0.9254216 0.32258442
CYE -0.7557539 0.3675717 -0.060018092 0.00035783648 0.18822996 0.48840666 -0.44198692 0.20191503 -0.0941731 -0.55319285 0.1561513 0.6682367 -0.9496548 -0.25412998 -1.1818877 -0.2885818 -0.15957144 -0.29058933 0.04805319 0.43880734 -0.17425533 0.97608984 0.029963255 -0.03974548
CYH -0.19212273 -0.084019184 -0.49932507 -0.53837204 0.9944345 0.24968459 -0.54210985 0.5151056 0.6893801 0.24794939 0.14992514 -0.77780455 -1.0335603 -0.24853823 -0.14914918 -0.15791151 0.47303978 -0.12614197 1.7729001 -0.13382936 -0.4835858 1.1043653 -0.5545871 0.22475918
DAC -0.6489482 0.17451447 0.9257355 0.47541562 -0.1286596 0.2874783 0.79036206 0.76249856 0.44064945 0.11339414 -0.37221283 -0.5017849 1.1384567 -0.097758666 0.18176824 -0.5046896 0.32989532 -1.3066698 -0.070025295 -0.25655958 -0.18735519 -0.079083025 -0.20449966 -0.4172491
DAD -0.01931408 1.2216728 -0.7725352 0.7245504 0.7247991 0.9819935 0.70022553 0.10947417 0.24020016 -0.090560526 -0.16983157 0.032212377 -1.095496 0.656397 0.24940836 0.06594138 1.0173805 0.1023597 1.2745471 0.03862858 -0.79131913 -0.49292624 -0.22946772 0.16020189
DAE -0.3083315 -0.21142982 0.8426705 2.0315435 -1.112831 0.29349074 -0.72881556 -0.18495433 0.783105 0.04763162 -0.3166865 0.57093537 -0.22080752 0.5505448 0.54387623 -0.1830077 -1.1005781 -0.37494087 1.1143078 0.0152261555 -0.08426502 -0.4003775 -0.5447634 1.2419692
DAF 0.48106423 0.8253343 -0.16979697 -1.2381086 0.21558854 0.19387275 0.49755508 -0.16968137 0.09506923 -0.027476944 -1.399018 -0.3920053 0.28008085 0.4292653 0.55564636 0.47395605 0.3920775 0.42841303 0.9674161 -0.38093558 -0.2623163 0.065103024 1.0534024 -0.0029200315
DAK -0.1267516 -0.5941802 -0.2821207 -0.21057072 0.13780159 -0.23312137 0.8680626 0.33100247 0.51026905 0.36083555 -0.18470496 -1.1662096 -0.2788818 -1.1112564 0.67830706 -0.29668343 0.62743455 -0.72478837 1.1375326 0.28271514 -0.3263117 1.9536746 -0.095598966 1.275475
DAL 0.058470014 -0.47465897 0.5740082 -0.71732956 0.4700778 0.036336035 -0.48879302 0.7505929 0.48353523 0.16901298 0.06543514 0.6255185 0.92302716 -0.5234944 -1.0615735 -0.7682755 -0.2606842 0.17202409 -0.79945904 0.14665508 0.5093646 -0.5195822 -0.407129 0.31850967
DAN -0.68225026 0.14891519 0.21631286 0.35249114 0.32163936 0.8072255 1.0129781 1.1205221 -1.0293462 -0.9972789 0.9228597 0.28816748 -1.1407458 0.58413875 -0.8417813 -0.19610249 -0.26204887 -0.5405983 -1.246223 -0.22120541 0.096543565 -0.5491725 -0.14275694 0.6927654
DAP -0.3765713 0.5787624 -0.16676813 -0.95280397 0.73720723 -0.33261085 0.23879416 -0.26124728 1.274336 -0.04451984 0.45992768 0.99278575 -0.98790264 0.09850353 0.12600648 0.026944425 -0.22496498 -1.090414 0.16440678 -0.04957497 0.3830684 -0.5956387 -0.13173857 1.1944892
DAR -0.3983574 -0.285362 1.0202748 -0.18183869 0.64522874 -0.60539144 0.48604563 -0.51422876 -1.0260875 0.36815012 1.0050393 0.5196477 -0.13742971 0.20062974 -0.5018235 -0.29233766 0.6744263 -1.4748967 0.39357975 -0.98152566 0.5439128 0.005287409 -0.49106693 -0.362909
DAT 0.5060514 0.02007094 -0.3452865 0.21325947 -0.4591066 0.1634539 0.537691 0.83745813 -0.036308646 0.09406503 0.17817645 0.48829204 -0.12219161 -0.64844793 0.26709306 -0.631704 -0.42611662 -0.49818367 0.38848007 -0.91861284 0.33515978 1.0679345 0.8277181 0.22434512
DAW 0.7647682 1.2284355 1.3924514 -0.5583629 0.13962218 -0.5611239 0.9736536 0.5909293 0.7552637 -0.09260493 -0.43241626 0.9629414 0.027090818 0.7038557 0.38843936 0.4446512 -0.15220602 -0.2513492 0.5124121 -0.02248285 -0.1940482 -0.6192094 0.29085448 -0.011760473
DAY -0.9401272 -0.20066816 0.111313954 -0.28607035 -0.48830515 -1.812904 0.7506826 -0.16258508 -0.48677585 1.1592655 0.064281784 -0.3630736 0.62324274 -0.578358 -0.66412914 -0.739764 1.0208747 -0.8314551 0.8222632 0.5276964 -0.12917683 0.21803656 0.24144861 -0.24584067
DCG 0.10927169 -1.3811281 -0.03526187 -0.35946065 0.62409806 -0.4431408 0.27241552 0.09932321 1.000717 -0.88859546 -0.34624267 -0.99467885 0.30498862 1.3673321 1.0568944 -1.5399348 0.28935727 -0.7729606 0.34088004 0.84897125 -0.54610693 -0.4351378 -0.26568097 0.117361546
DCH -0.16197288 -0.68928504 -0.3240199 -0.8834992 -0.60660386 0.7173673 -1.2013361 -0.7152295 0.5330265 0.042077348 0.4274421 0.41150606 0.08478391 0.2155053 0.27824903 0.011618435 1.0090791 0.75289416 -0.0035938038 -0.574011 0.5441654 0.71572393 0.025879025 -0.3908887
DDA 0.06638342 0.059673756 0.53114575 0.54337525 -0.96260726 -0.8067008 -0.37891993 -0.995239 -0.39522243 -0.033655047 -0.79567295 -0.47444466 -1.025744 0.25578955 -1.0553422 0.10535461 0.24093342 -0.3198041 0.24798056 0.117202595 1.4318566 -0.111166835 -0.9619025 0.40008563
DDD 1.0935572 0.30288416 -1.5430665 0.72787625 1.5408841 0.011595428 -0.8063187 -1.1138422 0.062203497 -0.08354032 0.08964354 0.22346017 0.48993242 -0.8078898 -0.8433797 -0.17168972 -0.17361292 0.19703132 -0.025895476 0.19426057 -0.27852055 0.37085727 -0.6427143 0.49843583
DDF 0.05204314 -0.28995803 0.107047096 0.61034447 -1.4003191 0.22685283 0.34352082 -0.1570522 -1.4469645 -0.08205439 0.3546981 -0.81283796 -0.3141115 0.55359733 0.09203151 0.45909506 0.12571558 -1.0946709 0.14838365 0.5665927 0.5014816 1.0838671 -0.7213516 -0.5975822
DDM 0.08186847 -0.32340872 0.23811483 0.59745896 -0.46257833 0.16632381 0.85725987 0.21579465 0.16978586 1.5056189 -0.63941085 0.15917346 -1.1704302 0.3223278 -1.3859438 0.009895541 -0.26120403 0.4937234 1.253881 -0.19991411 -2.2393796 -0.02279086 -1.274455 0.73870575
DDQ -0.4187433 0.12356997 0.038788617 -0.26910087 -0.6187933 0.00776124 -0.23309645 -0.63759327 -0.9306936 0.84421873 -0.48856393 1.2395104 -0.6620656 0.13840112 -0.14471915 -0.25732476 -0.3274473 0.277386 -0.29946125 0.10405168 -0.4535824 -0.18690754 0.5486147 0.078436285
DDR -0.72019756 1.3017775 -1.1480619 -0.7759744 -0.4370448 0.79620457 -0.018065512 1.1408836 0.3489162 -0.69076014 -0.2595967 1.5610557 0.58075655 -0.28105405 -0.27502576 -0.15189905 -0.16383052 -0.13763916 0.533044 -0.80261207 -0.324808 0.059069574 -0.68740994 0.5797926
DDT -0.49383873 0.5730972 -0.14821811 0.05827287 -0.003774494 0.4044736 0.80991983 0.5204656 0.5813434 -0.47854277 0.040795058 0.7989532 -0.40265068 -0.21315315 -0.7086418 -0.19803868 0.24685216 0.17227499 0.0033200383 0.6843585 -0.37105983 -0.37729812 -0.19318621 -0.09679066
DDY 0.7231163 0.28286117 1.019656 -1.2587631 0.72943336 1.0848293 -0.03337396 -0.6671269 0.18792626 -0.5105411 0.32666096 -0.51889646 -0.047278017 -1.2308998 -0.008478694 0.8330159 -0.26195925 -0.7850242 -0.26513225 0.936252 1.548556 -0.30943406 0.12405679 0.22629829
DEE -0.39837718 -0.0018072575 0.3957888 -0.5261041 0.26259166 0.71533495 1.15649 -0.13829607 0.1876688 0.8841596 -1.2422842 1.3906472 -0.5939661 -0.12320566 0.28455853 0.046953678 0.59186083 0.79717934 0.62970245 -1.1404427 -0.11839461 -0.30036733 -1.1381422 0.40476167
DEI -0.00089505315 -0.6691601 -0.20344253 0.4573629 -0.3816156 -1.0528423 -0.09294432 0.07185173 1.25969 0.44072947 0.85937244 1.4377438 0.77145857 0.2979425 -0.700181 -0.13020214 -0.6990607 0.38454005 0.6233141 -0.45857066 -0.46620378 -0.079048485 1.2515634 -0.451752
DEP 0.20188333 -0.77347344 -1.2187895 0.0063418597 0.5000982 0.42736882 1.3108572 -0.52476853 -0.082563646 -0.35021007 0.20105122 -0.37788203 0.20065 1.1389132 -0.36599952 -0.11293417 -0.68404645 0.60347545 0.060177036 0.31122068 0.4781657 0.49499512 -0.8236135 0.87006545
DEQ 0.06972301 0.51975554 0.06392202 0.03200355 0.9051468 1.1920911 -0.35504282 0.51474655 0.37017465 -0.030761361 -0.1528402 -0.038015693 -0.0068932474 0.5731038 -0.3278144 0.48218143 -0.77923137 -0.61352706 0.265575 0.5014187 -0.22720209 0.8071201 -0.5060108 0.7767226
DER 0.06303662 0.10895762 1.4308453 -0.18734878 -0.13266042 -0.23927534 -0.19487566 -0.036423802 -0.25851977 -0.07468091 -0.23323973 -0.522254 -0.5021539 -1.5724881 -0.30404094 -0.06026359 -0.09735517 -0.3159654 -0.0057413206 -0.5083636 -0.07270533 0.4946444 -0.26296732 0.40457177
DES -0.97791445 -0.4630623 -0.019723937 0.53373873 -0.21432486 -0.062315237 1.0857121 -0.045081407 -1.3336704 0.006097749 -0.6268586 -0.24786611 -0.18148059 -0.44839767 -1.2268239 0.3361529 0.7624488 -0.010146007 0.50199705 -0.3058159 0.025059626 -0.934343 0.2212055 0.6123314
DEV 0.24569383 0.16945083 0.63413006 -0.12758829 -0.19761652 1.3603613 -0.74146855 -0.6016943 -0.2461791 -0.9222049 0.43069544 -1.1885346 1.5415698 -0.0022622198 0.7183004 1.7548628 -0.6658435 -0.21873707 -0.50799245 -0.42066854 -0.14170139 -0.21970281 -1.282479 -0.6988561
DEY -0.26173025 0.003210405 0.40004218 -0.7964011 0.2711914 0.15907855 0.79392236 -0.16119522 -0.8568962 0.34521112 0.9900919 -0.2863378 0.58021176 0.085971236 -0.6062832 1.4787577 -0.111666396 -0.5214744 0.58712447 0.511301 0.23977733 0.7505915 -0.37409228 -0.59371644
DFA 0.30314332 0.22888859 -1.4289047 0.07140857 -0.373634 -0.64852244 0.38188967 0.35388318 -0.13507006 -0.7189636 -0.6702897 -0.5440397 -0.32609737 0.4372053 -0.33030647 -0.47343087 -0.11839211 0.8796925 -0.12658596 -0.59693015 -0.31849945 0.30961406 0.7411027 -0.31210667
DFD -0.84512436 0.9654745 0.10039753 -0.46853027 -0.14563502 -0.3010714 0.34116045 -0.24698438 0.8685977 -0.38644233 1.0082179 -0.5957775 -0.2563572 0.3344218 0.566803 -0.605665 0.2653807 -0.30310053 0.56440413 0.7243388 -0.5312946 0.2195094 0.54967713 -0.57251227
DFF -0.45335445 0.06316532 -0.2023841 -0.2176572 -0.06763307 0.45347518 -0.5772475 0.55210793 0.53719527 -1.2683946 -0.48479337 0.4608893 -0.15188321 0.061324507 -0.15080637 -0.5105591 0.13029745 -0.9064243 0.4622907 -1.2882894 0.5186638 -0.4067446 -0.0045805573 0.30109447
DFG -0.24277897 0.10129428 0.6388955 -0.2569029 -1.788337 -0.33619675 -0.2893523 -1.0931205 -1.0513275 -1.0420219 -0.02352634 1.8622322 -0.80274993 -0.35901293 0.55640054 -0.541318 -1.099169 -0.2720664 -0.5223423 0.692177 0.3180997 0.2598413 -0.684584 0.05912158
DFN 1.101068 -0.6829974 -0.7677836 -0.17606103 -0.82233894 0.19280112 0.38351363 -0.17743829 0.38362285 -0.17323864 -0.7366844 0.10835601 0.21167603 -0.38465095 -0.3238346 0.5160633 -0.18862478 0.9561784 -0.021718562 0.25802916 0.17160812 -0.684901 -0.5723095 -0.7310854
DFP 0.07701368 0.5920334 0.9043289 0.7541732 -0.67518556 -0.17547823 0.3000099 0.6133167 0.2627173 1.2790189 -0.3354151 -0.2909141 0.27784425 -0.30027324 0.23945682 -0.0025629401 -0.5303348 0.1623675 -0.5566176 -0.270035 -1.0045544 -0.19814846 0.41370898 -0.24808127
DFQ -0.104790606 0.017794698 0.048772752 0.4109301 0.4038899 0.08154614 0.0129153505 0.31767693 -0.5149259 -1.4124956 -0.28208137 0.28993055 0.5168851 -0.31892598 0.94080764 -1.094194 -0.59660476 -0.99889493 -0.66045505 0.3562343 -0.26232374 -0.36181957 -0.051680222 -0.059075236
DFV -0.41625282 0.19045502 0.62510246 -1.2288895 -0.15491407 -0.6436905 0.73680884 1.254744 0.30927283 0.21859904 -0.076599896 0.62515813 -0.3973207 -0.063276745 0.20913312 0.27094418 -0.66745186 0.5547489 -0.42104667 0.32712567 0.19766843 -0.29817933 0.04749795 -0.27085218
DGD -0.86647034 0.6084782 0.66154397 0.5405446 0.15320696 0.30422685 0.7276683 -0.7280807 0.2403568 1.1695572 0.15003301 -0.4883513 -1.2675823 0.6251949 0.705319 -0.77183604 0.09818572 0.53995955 0.32457316 -0.30741265 0.08099389 0.3641011 -0.41005716 0.14402921
DGE 0.9441894 1.5031786 0.6017033 -0.13919377 -0.07835397 0.4462917 0.024479598 -0.1796914 -0.87329036 -0.8397902 0.55366015 -1.0752192 0.6517512 -0.09303607 -0.34320152 0.44080222 0.44575408 -0.7672956 -0.73736507 -1.2003448 1.0048469 0.56537026 -1.0062268 0.63423
DGF 0.6336982 0.042843103 0.24088839 -0.832776 0.3564579 -0.062445246 -0.30530548 -0.84657264 -0.33667374 -0.32200828 -0.07722287 0.8477626 1.304913 -0.7023926 0.6168511 0.24103832 -0.8968546 0.6824341 -0.30173606 0.063299924 -0.62729084 0.37061015 0.29494995 -0.22879812
DGL 0.95909095 0.102191806 -0.45101 -0.8875074 0.3270735 0.4604724 -0.41361544 -0.2127576 0.3555698 -0.71566206 -0.61459094 0.9923218 0.11193675 -0.8790376 -0.40372872 1.3710454 0.37609974 -0.65200084 0.28580558 -0.05058217 1.2127429 0.46839616 -0.09260802 0.21217519
DGP -0.42513222 -0.6994642 0.34055886 -1.2522137 -0.1555649 1.1762105 -0.71046454 0.3445685 -0.051130965 0.25541532 0.17850709 0.2987159 -0.416148 0.4722559 0.27355868 0.7504537 -0.19025058 0.5472182 0.6517073 0.1423935 -0.908468 1.7483814 -0.80475956 0.40193266
DGQ 0.042069674 0.5716225 0.68871754 -1.5718042 0.9418111 0.47072154 0.10604429 0.50059575 0.82359546 -1.5059739 0.22815348 -0.322396 0.6467097 0.23320514 0.56739175 -0.08478627 0.7430365 -1.2437718 -1.5687463 0.28906173 -0.9543538 0.16650288 0.39555937 0.5811276
DGR -0.04509925 -0.3075552 0.7840637 -0.25697786 -0.42952085 -0.38581005 -0.06792167 -0.7125901 -0.81622815 0.48675957 -0.17569405 -0.6815028 0.45852658 -0.2327165 -0.8529904 -0.23721868 0.8424088 -0.2934999 -1.3972205 -0.97602755 -1.3725433 1.245125 0.35311902 -0.09967157
DGT -0.9721353 0.23767272 -0.30476528 0.32365906 0.44034976 -0.045314953 0.5668714 0.79010844 -0.6392236 -0.798684 0.011566192 0.41127193 -0.18494481 1.1395167 0.7506894 0.9926307 -0.006826669 -0.60727465 -0.29764396 0.08717415 0.16488713 -0.08598322 0.3596094 -0.12324474
DGV -1.113198 -0.12564993 -0.119096294 0.2684956 0.9148866 -0.08839327 0.33644918 -0.08150777 0.09379864 0.5150775 0.84814125 0.14278045 -0.03451565 -0.44223914 -0.019885242 -0.053015288 -0.45783308 0.3456782 -0.55059314 0.26031566 -0.6097903 -0.3151094 -0.9440119 -0.64754987
DHA -0.5518195 0.26583526 -0.95588124 -0.542123 -0.24917674 -1.0281751 -0.37977067 0.2136582 0.11356661 0.11215486 -0.066910006 -0.7333883 0.4058535 0.56450814 -0.13655922 1.1075648 0.7652737 0.022204727 0.24830502 -0.19581354 0.3315755 1.3893021 0.09565492 0.13057104
DHC 0.9358756 -1.1337508 -1.9455477 -0.2912567 -1.1526629 0.50350314 -0.5558067 0.24429952 -0.12403469 0.40154976 0.2879496 0.12912706 -0.121864066 -0.16062284 -0.06427719 -0.34767914 -0.25643033 -0.9722392 -0.69368696 -0.032193556 -0.5636622 -0.7580066 -1.3324726 1.2496737
DHI -0.27903685 0.06610127 0.05644539 0.39544988 -0.09650129 -0.9381329 -0.5721197 -1.8621101 -0.22822526 -0.8396392 0.39990652 -0.6387685 1.2383229 -0.5403869 1.3455347 -0.20730467 2.2160177 0.04375571 0.016185954 -0.5384636 -0.10148843 -0.06832604 -1.3209074 0.30948448
DHK 0.25926295 -0.2893174 -0.4944529 0.90565336 -0.22577447 -0.9353163 0.92018455 -1.4245496 0.6346587 -0.2296403 0.05465041 -0.46037257 -0.07395625 0.2894837 0.12768924 0.11061934 0.09362489 0.59874576 -0.85202914 -0.25564265 0.5554929 0.34968472 0.34052426 -0.12716208
DHL 0.09069383 0.47515714 0.20702396 0.7332337 -0.9465327 -0.07046024 0.3109736 -0.08103284 -0.7228517 0.07823442 0.5946433 0.80821526 -0.7577512 -0.8896431 -0.7088781 -0.48521742 -0.2174505 0.42526215 -0.09152948 0.89166963 0.22903425 -0.85557866 0.6005195 0.0019311905
DHP 0.027909543 -0.4507727 0.7212211 -0.8158957 0.32355705 0.028299958 -0.5557781 -0.4325524 -0.5524145 -0.17532319 -0.2175245 -0.23356672 0.38617122 -0.4530044 -0.6838832 -0.9343124 -0.22401458 0.22222145 -0.09014487 -0.3146262 -0.21572517 0.7252974 0.751894 -0.18255036
DHR -0.48898065 0.5086509 -0.50828564 -0.86138916 -0.05124908 0.6743839 0.99533343 -0.43333703 0.5836387 0.23768324 0.7061165 -0.138562 -0.39373586 0.5640791 -0.052787714 0.3705877 0.4614749 0.2718764 0.3677854 0.086891495 0.5561811 -0.64103335 -0.61407614 -0.3772739
DHV 0.4286213 1.0701189 0.06659338 1.2439032 -0.49171942 0.44162688 0.31616476 0.40376163 0.03740096 -0.7205633 -0.05419866 -0.26070398 -0.00021658838 -0.5577806 0.32477605 0.8945117 0.77435464 0.9343434 0.13105461 0.02923584 0.47018552 -1.1370101 -0.8022009 0.6484395
DHY 0.25620753 -0.15570678 -0.0162834 -0.1681486 1.2604125 -0.18524414 0.44951212 0.7241789 -0.111179024 1.0562713 0.3995919 -0.7497443 -0.059055805 -1.0860119 -0.781999 0.11549948 0.23576996 0.39093852 0.5191728 -0.4790958 1.0393151 0.5193376 0.5745593 -0.40290827
DIC 0.033093154 -0.19098233 0.40428293 0.28997725 0.2730982 0.040256344 0.6376163 0.6655995 0.30154565 0.38806143 -0.22696573 0.99141246 -0.43350062 -0.3427292 -0.34257832 0.63393235 -0.19463977 2.1860461 -0.25005522 0.9051737 -0.73081714 -0.6024936 0.24548927 0.40704215
DID -0.30352816 1.0351261 0.95287585 -0.05566418 0.5650886 0.313636 -0.99888337 -0.47629568 0.23222879 -1.0184337 -1.6857367 0.825605 1.2545117 0.38128546 0.0385969 -0.47678506 0.40735072 -0.38390365 0.087424636 0.3681494 0.18542145 1.3007163 -0.12657179 -0.648844
DIF 0.14616643 -0.76611 -0.08611238 -0.07775919 0.11179888 0.03497678 -0.5344829 0.0737006 -0.67344266 -0.64777184 -0.55867195 -0.57753146 0.15261172 -0.7202273 0.4462653 0.28372538 0.32828712 0.57321435 -1.2557244 0.017330483 0.6679956 -1.270676 -0.01189062 1.3534378
DIH 0.06277008 0.8600466 0.24508324 -1.3730981 1.6608531 0.20442307 1.0073924 0.43463796 0.5420778 0.92042005 0.96783423 -0.088888705 0.14141671 0.47669804 0.3189333 0.13713257 -0.7295257 -0.2850398 1.2702113 0.42635322 -0.6024037 -0.3999338 -0.6615824 -0.9717076
DII -0.075291425 0.7722396 1.5092728 -1.066357 0.5278025 -1.0825447 -0.14866689 0.8822074 -0.14254527 0.37042925 0.33627254 -0.70714307 0.052216716 0.6652111 -0.6992904 -0.0032801628 1.1489922 -0.30424845 -0.46660858 0.14910935 -0.29118717 -0.6024372 -1.0065329 -0.40438312
DIL -1.1051135 1.6693358 0.03073746 -0.17252004 -1.0271041 -0.12273869 0.6632217 -0.86734426 0.08508748 -0.3619699 -0.73185146 0.6174695 0.28474435 -0.43465424 -1.0788527 0.36915845 0.012295544 -0.43794182 0.5139495 1.3026834 -0.26452172 -0.8736174 0.038620085 0.08231506
DIN -0.4880664 0.36457092 0.12586048 -0.27197975 1.0878079 -0.28638297 -1.0105077 0.2258365 -0.3700221 0.39395756 -0.28279757 -0.1457791 -0.5739163 -0.9706199 -0.1727682 -0.37238926 0.49080187 -0.51755464 0.4019873 0.31640235 0.10343066 0.12515886 -0.13676827 -0.018066108
DIR -1.4767338 -0.8405212 -1.2629263 -0.7540313 0.3018212 0.93629766 1.3118303 -1.1670325 -0.5954371 0.06756346 0.6409638 -0.36832935 -0.5098196 -0.15002252 -0.27189827 -0.11737603 1.5787791 -0.82726014 0.11120951 -0.7938242 -0.33998954 -1.0032995 1.4098916 0.41006407
DIS 1.3453038 0.05865532 0.4195303 0.32446045 -0.1858216 -0.2776572 0.5124587 -0.0303507 1.2999629 -0.5322988 -0.8725792 0.14420187 0.03624174 1.1515737 0.5952451 1.3730041 -1.3872252 -0.4649393 -1.2973291 0.2492979 -0.59505457 0.9423699 1.494215 -1.5209876
DIT -0.4017102 -0.073503576 -0.23443146 -1.2289138 -0.77380145 -0.055965208 -0.72815967 -0.33943695 0.7948792 0.091760114 0.016056567 0.08411276 1.7213428 -0.5776816 -0.3657098 -0.64502907 -0.08005762 0.1512698 -0.3347221 -0.95067364 0.24214745 1.3452294 -0.69271195 0.4367957
DIV 0.5390106 -1.1743276 -0.67326415 0.3221116 -0.3728794 -0.97616696 0.22030395 -0.0061034486 -1.3489858 0.07332295 -0.7421285 0.20705086 1.0360513 -0.75244194 -0.2110343 -0.7452849 0.36244687 -1.2870021 0.20945814 -0.42121494 0.2898088 -0.6409051 -0.32363686 0.29567927
DIY 0.67311037 0.31470788 0.6656245 -1.0517442 0.7936529 0.11754051 -0.51100814 0.86325115 -0.2204002 0.9606613 0.5757585 -0.27521887 0.2950809 -0.1555986 -0.09032661 -0.8083118 0.5319299 0.73375505 0.42535013 0.42628115 0.3896864 0.35392505 -0.86769074 0.22333656
DKA -0.8714694 -0.6353532 0.058576345 -0.1809812 -0.60162276 -0.35486755 0.40501457 0.8662778 -0.6380144 0.99497414 -0.43419614 1.4832039 1.4604981 -0.18620767 -0.44046333 0.90173584 0.82787853 0.9560019 0.027388036 0.04500912 0.48268735 -0.34736246 0.032040477 -0.3409491
DKF 0.003861308 -0.038585484 0.44575983 0.38348174 -0.19037947 -0.40386403 -0.4626564 -0.42159724 -0.45369667 -0.03894853 -0.6532688 0.20878054 0.4954676 -0.792423 -0.4419144 -0.93722224 0.47867203 -0.5534371 -0.68935525 -0.10568906 0.17072083 -0.08731207 0.5781965 -0.05084668
DKI 0.30706805 0.020954926 -0.18895966 0.3122263 -1.0671555 -0.8880808 0.34500098 -0.8381778 0.18693921 -1.3684038 -0.43557918 -0.3469404 0.39576125 0.6679538 1.0823022 -0.91441214 -0.3503332 -0.17722493 0.9000537 -0.67329943 0.27636373 1.051715 -0.16628806 0.13735937
DKL 1.0093563 -1.2956644 -0.41305515 0.16853005 0.16801876 0.48182932 0.087406576 0.24948463 -0.8375968 -0.9086242 -0.28522083 0.6368931 -0.5631197 0.6712038 0.06679986 0.109398924 -0.3220325 -0.6181791 0.15020931 0.60237473 0.40940747 1.3259019 0.12902662 -0.5536233
DKM -1.0362374 0.45000032 0.19321893 -0.6214206 -0.42238888 0.6547064 -0.20476079 1.2383469 -0.40236914 -0.21796176 1.1817567 -0.49368083 0.65762675 -0.18408453 0.26269734 0.3443594 -1.4952471 -0.36921608 -0.7145187 0.72443485 -0.7797369 0.7885893 0.7374074 -1.2389665
DKR -0.73322034 -0.43954343 1.1384189 0.33589953 -0.08717396 -0.2124587 -0.6249544 -0.8256842 -0.1218124 0.9937743 -0.7686878 0.25829208 -0.44277877 -0.6524596 0.31779602 0.29730234 0.98295003 -0.41255322 0.07390076 0.52659017 0.96711737 0.2529046 0.1423744 -0.6209455
DKT 0.29541332 -0.60023004 0.21324942 1.8189168 0.26434866 -0.21846583 0.1105575 -0.04357992 -0.17929922 -0.7825156 -1.9055116 0.49228537 -0.21978638 -0.7417059 0.012783706 -0.5231408 -0.76115763 -0.28037077 0.08347267 -0.60836345 -0.69635725 -0.93563104 -0.32976043 -0.37372
DKV 0.739941 -0.13176253 -0.34798676 -0.2936631 -0.98924136 -0.6647754 0.53602564 0.055985935 1.1954612 0.20290478 -0.41356695 0.2839689 -0.38984117 0.233676 -0.7548022 0.17766045 0.3497141 0.42965794 -0.57014465 0.46165207 -1.7347889 -0.002337575 0.43707645 0.3161141
DLC -0.61145556 0.715747 -0.20651583 -0.77001464 1.534032 0.42105538 0.70540535 0.118135765 -0.03809282 -0.6553234 0.60919994 -0.42801827 0.15206745 0.6198594 -0.30799654 -0.8086465 0.448786 0.66032517 -0.1074034 -0.40347856 -0.24631095 -1.1697791 0.4980288 0.43800226
DLD -0.8979403 -1.0651541 -1.5086845 0.41808105 -0.7708532 -0.017487854 0.18337554 -0.6636609 -0.6969837 0.5511815 -0.39286733 0.43508878 0.67690957 1.5347607 0.2458554 0.17540795 0.19809586 1.1564089 0.422767 -0.5196651 0.41092718 -0.89624506 -0.7777546 -0.807322
DLE -0.623322 0.13286003 -0.31174284 -0.35662577 0.0389591 -1.5903025 -0.086600184 0.05257165 -0.050818086 0.46980014 -0.653013 0.32783642 -0.4449675 -0.07302451 -0.005834222 0.5281457 0.74761087 1.0765156 0.7001114 0.20712158 -0.061719924 -0.9458002 -0.6011185 0.13857329
DLI -0.16470632 -0.47816783 0.38138592 -0.7198616 0.4063111 -0.20406857 -0.7621208 0.217192 0.80054545 -0.65909255 0.8384 0.053448766 -0.94805247 -0.4427734 -1.2799876 0.23742913 -0.45474428 0.19310468 -0.38020328 0.23475385 0.72688115 1.1866846 0.704589 1.2271701
DLK -1.7331219 -0.82522833 -0.053688794 -0.15834111 0.25173348 -0.23807621 1.1500262 -0.25343075 -0.26146695 0.41254294 -0.08277791 -0.52550596 1.0119646 -0.6920072 0.1573835 0.22400793 0.72025436 -0.3230313 -0.19326723 -0.11472964 -0.88482314 0.00733532 -0.6917161 0.51065665
DLM 1.7861075 0.589865 -0.85044736 -0.26082963 0.49973303 -0.6739101 -0.23400712 -0.2186938 -0.37985268 0.87264574 0.70631856 0.4086504 -0.2665316 0.03708765 1.253661 1.2920903 0.18851781 0.32558554 0.881171 0.43919134 0.42445803 -0.49769065 0.7796464 -0.22775793
DLS -0.87099576 0.5843568 0.27545783 1.3520281 -1.2437534 -0.28209317 0.012683451 -0.6290069 0.6499722 0.41076186 0.119613945 -0.39067066 0.11881077 0.6860843 0.22177398 -1.2119435 -0.5124615 0.35813916 1.5788301 0.17572364 0.40009144 0.23356041 -0.7868101 -0.6124182
DLT 0.056265667 -0.46906063 -1.0697008 -1.3248979 -0.4258243 0.63047373 -0.10678628 -0.13579953 -0.16789955 0.28550118 -0.11739501 -0.12242843 -0.77626157 0.101990625 0.05634898 -0.7614179 -0.2431939 0.3379053 1.1821611 -1.1121068 0.16937727 0.11257717 -0.17712297 0.74793196
DLV 0.57048184 1.4078472 0.80557907 0.152955 1.0869725 -0.58015734 0.28203613 -0.23375325 -0.18704154 -0.1199756 -0.16680183 1.3059382 0.05256231 -0.13378751 -0.16806725 0.46607956 -0.40470558 0.05987814 0.1171085 -0.30474198 0.19791177 0.21290085 0.80017316 -0.07497281
DLY 0.10303948 0.4916997 -0.91443497 0.67208314 0.7844025 0.7434546 0.27134675 0.6895175 -0.3925964 -0.4342633 0.8275258 -0.00081080757 0.7525573 -0.4328303 -0.84232706 -0.032086283 0.39165545 -0.6646838 1.1712133 0.6074736 -0.45166776 0.49381512 -0.9177196 0.37584668
DMD 0.061448924 -0.7002105 -0.054507345 0.4624397 0.72839665 0.02648677 0.2694136 -1.5534539 0.4759965 0.42014834 0.8523694 1.0940539 0.82792705 -0.11483705 0.41179484 -0.39029634 0.47146958 -0.31135827 -0.29004598 0.39598572 1.0856049 -0.059604578 -0.94851863 0.4854717
DMG -0.06661934 0.2326614 -0.36311606 0.18818906 -0.56753606 0.008326305 -0.5461997 -0.6006398 -0.27783573 -0.4426329 -0.17846727 0.8033538 -0.5174451 0.6722567 -0.25282937 -0.88412136 -0.99116004 0.3580425 0.79630005 0.78319687 0.52894086 -0.28811273 -0.4758395 0.6475825
DMI 1.0273631 -0.27187973 1.2159977 -0.60393137 -1.0396883 0.037238896 0.55554366 0.5897407 -0.018704168 0.32377535 0.45830303 -0.2597386 0.1396628 -0.14727637 -0.63009393 0.70470816 0.34188107 -0.091044545 0.18752897 -0.71471417 -0.09411787 -0.35792404 0.8762086 0.23431778
DMS -0.36541763 -0.87383497 -0.10506295 -0.55122447 0.52635324 -0.10306625 -0.10361841 0.746987 0.99480236 0.35197833 0.43490732 -0.43462753 1.0390646 0.6875929 -0.11164826 0.5683042 0.41435152 0.4952742 0.7410792 -0.3861659 -0.44496372 -0.23322839 -0.21481195 0.7814472
DNA -0.032208443 1.3146627 -1.000752 -0.83745617 0.4431679 -0.03441743 -0.239826 -0.22234564 -0.23322782 1.1593444 -0.7482113 -0.092258364 0.10627845 -0.6627743 0.53619343 -1.207273 -0.920481 0.086400785 -0.73083174 -0.5225886 -0.24928479 -1.4278564 1.1784269 -0.24152382
DND -1.0914178 -0.15010707 0.4333952 -0.06520059 0.27748734 1.0480402 -0.06694412 -0.47218326 0.70408964 0.4905125 -0.30322418 -0.82592964 -0.6190204 0.21752301 -0.38067257 0.7938017 1.0224851 0.661821 -0.26103374 0.14902014 -0.2742155 -0.6361188 0.72560096 0.59063816
DNL 0.14693159 0.5608336 -0.08022937 0.69218624 0.0724069 -0.9745659 0.46006307 -0.16091253 -0.2720186 0.55444014 0.26283443 0.62453735 -0.7378502 -0.15977876 1.1279802 0.20097287 0.5028156 1.2084613 -1.2413384 0.77121216 0.34030104 -0.7548214 0.55211747 -0.4291156
DNS 0.27518612 -0.11211902 -0.41289413 0.44211805 -0.87113136 0.7795589 0.43685338 -0.36665905 0.4647337 0.5771664 0.19196896 -0.8740378 -0.0454524 1.158786 0.48677343 0.3014391 0.40152606 0.22790922 -0.5536792 -0.3674513 -0.5750752 -0.29997626 0.5667353 -0.47955832
DNV -0.3544023 0.60352147 0.5723042 -1.1192312 0.51506084 0.44380915 0.75850296 0.65924805 0.04972756 -0.47685707 -0.104899816 -0.870788 -0.34143874 0.41452295 -0.011239812 -0.45370454 -0.17925024 -0.5463111 -1.0917251 -0.53999054 0.77933276 0.0038566887 0.571535 -0.32641312
DPA 0.15608719 0.5754882 -1.1439943 -0.36392242 0.62026364 0.16297981 0.5411027 1.0783304 -0.41463554 0.40270507 0.077177435 0.3828089 -0.28727657 1.1518396 -0.024339199 -1.6725457 0.29910928 0.556454 0.3169446 0.9963727 -0.22399607 -0.08490972 0.49883464 0.4154129
DPF -0.4749655 1.7489175 0.014636502 0.17257744 -1.7197254 -0.6112154 -0.11349124 -0.48766822 -0.55077153 0.16189088 -1.0910044 0.6647445 1.0268817 -1.2340738 -0.51395196 -0.3398843 0.12637773 0.30497628 -0.5859806 -1.4021775 0.25487176 -1.071214 -1.1277516 -1.1201363
DPG -0.20581791 -0.646029 0.4627803 0.22448772 0.19204065 -0.38284436 0.389135 -0.17741565 0.21825251 0.2741442 -0.10574186 1.2211466 0.023872197 -1.6808646 -1.7809446 0.20951545 0.16105986 -0.16542849 0.124373734 -0.08298755 0.30592903 -0.47227708 0.54601693 -0.7798238
DPI 0.19486451 -0.5683102 -0.47088432 0.4741615 -0.056751173 -0.13314441 0.28731167 0.051079363 -0.17599681 0.30120546 -1.2436224 0.05801533 0.2083413 -0.6870441 -0.21863908 0.89442873 0.48328945 -0.48853177 0.5622648 0.16222155 -0.19257577 0.49443197 0.62049925 -1.0268266
DPK 1.1974816 0.081811994 1.8043356 0.32502 1.4535868 0.84878266 0.7028655 0.028387986 -0.5091838 0.5771872 0.36018616 0.3476538 0.5781917 -0.00092850626 0.64783406 -0.7613677 -0.4431203 0.016832888 0.27562535 0.1126097 -1.0652319 0.07683263 0.31131625 1.0157006
DPN 0.49793807 -0.59442043 1.7724394 -0.3244846 0.15372261 -0.40466926 0.72553694 -1.2337193 1.6074603 -0.14830086 0.19649798 0.2844929 -0.61497515 0.49255544 -0.031385943 1.1818974 -0.54677045 -0.49232614 0.3789413 0.35077104 0.98684335 -0.8245393 -0.82471186 0.1269973
DPR -0.2697065 0.6588971 0.2726659 -0.71772844 0.14581417 0.41920042 -2.809895 -0.2210092 1.0064455 -0.005971819 -0.36720484 -0.83135176 -0.42152143 1.355665 0.06471445 0.6589545 0.36104906 0.5588536 0.57185125 -0.32026702 -0.40208814 -1.2400231 -1.104739 -0.8450599
DPV 0.8195175 0.44425994 -0.09904246 -0.62346333 0.17606029 -0.6530831 0.39836615 0.81463015 0.7733477 -0.21200761 0.5144547 0.16685839 0.7038056 0.12375239 0.8488347 -0.15830489 1.7657738 0.17222369 0.28098723 0.57008266 0.781535 -0.7295667 -0.529583 -0.6957184
DQG 0.8733804 0.16946864 0.84764916 0.27261922 -0.668324 -0.731092 -1.0592219 -0.6710035 -1.2225084 -0.64151704 0.2161693 0.21690112 0.7493513 0.5660762 0.7307336 -0.5995413 -1.3952749 0.9960286 0.37002277 -0.08482665 -0.31671107 0.046637993 0.28695077 -0.5425756
DQH -0.43625915 0.5375985 1.3437467 -0.585922 -0.32700968 -1.2673491 -1.3342745 -0.48330665 -0.29570144 0.49276614 0.06029626 0.15172565 1.0157968 1.0420082 0.35852975 0.19184828 -1.2358835 -0.05245862 0.0821282 0.14803489 -0.8249564 0.5608687 -0.18819627 0.5387295
DQL 0.65097845 0.03172379 0.015720785 -0.18296194 0.82433623 -0.69501483 1.7274513 0.5617706 0.32319215 -0.8056371 0.7832533 -0.889397 0.08264905 0.5550448 -0.107417524 -0.0018675886 -0.43794033 1.4168091 0.51713926 0.013482213 1.08921 -0.09335145 -0.8826346 -0.24889812
DRA 0.26953968 0.58748287 0.42464167 0.25696862 0.16838351 -0.03200999 -0.5037697 1.0698069 -0.029053293 0.51994133 0.38599095 -0.5238365 0.5814947 0.36004734 0.87613565 0.5021495 -0.4509737 -0.9350727 1.0630397 -0.33172324 0.2034414 0.19673443 -0.07218367 -1.0300618
DRC -0.01426512 -0.33244726 -0.937655 0.17440623 1.0074801 -0.3514721 0.5126903 -0.4436428 0.1976684 0.82687896 -0.29002982 1.7978624 0.15078619 -0.50222516 0.79084754 -0.2694567 -0.7135412 -0.36639425 -0.58808327 0.27137163 -1.3138093 -0.32313657 1.0504702 -0.83502686
DRE -0.04139799 0.15520191 -0.76421916 0.9862513 -0.95755166 -0.091752015 -1.294025 0.46240112 0.59209704 1.475244 0.7082282 -0.5683149 0.36385453 -0.6755499 0.07549977 0.9936055 0.3020157 0.7232599 -0.27681455 1.6828467 -0.6482835 0.98194945 -1.0393897 -0.39672077
DRF 0.93545306 0.5846752 0.67535865 -0.20834869 -1.0345907 -0.2487529 -0.57830757 -0.52527726 0.07877128 -0.90067774 -0.22379243 0.15473807 -1.7709644 -0.09038043 0.83102065 0.34044737 0.7737877 -0.29177117 -1.1584077 0.58495605 0.006565325 0.15126352 -0.5657504 0.15618703
DRI -0.7331215 -0.72927207 0.21251719 0.59201616 -1.4832325 -0.2271574 1.1762311 -0.51949775 1.0320566 0.21900646 0.40414608 -0.8916148 0.35144737 0.37010735 0.12589298 -0.9811162 -0.09097743 -0.35326654 2.4222245 0.29918647 0.51738983 0.6735247 -0.66404563 0.50266933
DRK 0.2567341 -0.45190662 0.01617977 1.4066916 0.7086331 -0.9349657 -0.9625263 -0.40418118 -1.2950425 0.1684603 0.23100431 -1.5562664 -0.277757 -0.3251388 0.25769776 0.4925369 -0.066336066 -1.2716106 -0.79456 -1.5917858 -0.008934736 0.35074133 -0.9583522 0.115376726
DRL -0.5100838 0.53542995 -0.29438287 0.7711723 0.24548069 -0.40401298 -0.7456128 0.44685146 -0.47621042 0.049479783 0.57012475 -0.5554815 -0.38062203 0.50020313 -0.39015496 -0.1445729 -0.09704703 -0.46103227 -0.007646978 -1.3305409 -0.07538295 0.34662428 0.19421947 -0.28439534
DRP 1.4594601 -1.5468112 -0.4576515 0.7060118 0.05241998 0.46837753 0.5716947 -0.14697306 -0.81743056 0.7247546 -0.12488413 -0.19053595 0.3084132 -0.2065377 -0.18148355 -1.0511708 -0.14601657 -0.8405001 -0.9482389 0.06567708 -0.3127637 0.5839831 -0.098326474 0.20699258
DRV -0.20188887 -0.7577251 0.60158384 0.6090821 0.69139194 -0.22380495 -0.77456063 0.6430709 1.1468447 0.60787535 -1.2795819 -0.6265406 -0.6727135 -1.5044932 0.080827534 0.53755754 -0.06819357 -0.028911352 -0.6469674 0.43042734 -1.2475616 -0.64545035 -0.96686715 0.23652694
DRW 0.45587602 0.5757497 -0.44063917 0.750716 0.6013363 0.904945 0.32375255 0.0013360381 1.4265754 1.5805411 0.43381888 -1.0528035 1.6952461 -0.22235316 -0.90266365 0.31975335 0.7995009 0.13416192 1.5599573 0.33356893 -0.25350347 0.31002015 -0.6309147 0.9227387
DRY 0.019287182 0.3518429 -0.15653671 -0.21036634 -0.7433686 -0.49811602 0.7425073 0.56497836 -0.3874982 -0.27354515 -0.46323034 -0.2951308 -1.0857124 0.001636982 -0.60622495 -0.200078 0.80591047 -1.3873645 -0.63420933 0.08529186 -0.0074111223 -0.14263983 -0.06866965 0.22191058
DSA 0.33829507 -0.6484289 0.5987771 0.41361478 -0.64782673 0.17725144 0.05876534 -0.04547268 -0.5353214 -0.74469984 0.26130944 0.30767307 0.06627675 -1.3810258 0.64349425 -1.6148033 -0.3651415 0.671211 0.18615377 1.030638 1.0196499 -0.552457 -0.26827884 -0.36637142
DSG 0.41316912 -1.3338354 -1.4312584 -0.20871323 -0.87863874 -1.5880752 -0.5726637 0.16275707 -0.7939085 -0.23910317 0.42477497 0.49185055 0.3088972 -0.517588 0.30434686 -0.38734943 -0.34746066 -0.17100559 0.38263428 1.2407571 0.1884659 0.79713297 0.4092157 -0.5625258
DSI -0.6282284 -0.12843867 1.4334602 1.2459595 -0.08173672 -0.15766668 0.58309186 -0.37880546 0.64764786 -0.048535645 0.27419823 -1.1359215 0.20216894 0.13242905 0.24880704 0.24424016 -0.24019963 1.1022131 0.3956618 0.45096585 0.4370809 0.17376098 -0.5341256 -0.53280675
DSK 0.07254514 0.7958067 0.15741085 -0.118895024 -0.08516194 0.6182824 1.4972733 0.14593145 -0.046125203 1.0741749 -0.6989979 -0.09889838 0.47042105 0.8320707 0.567366 -0.48755455 0.10802752 0.48540896 -0.2948014 0.4858182 -1.0359051 -1.1740153 -0.63573885 0.8456765
DSL 0.3099017 0.19725412 0.7394634 0.6146338 1.0273614 0.4055156 0.70158935 0.5885809 -0.4283775 -0.7292391 -0.577809 0.6979071 -0.36686975 0.4991495 -0.12203413 -0.020568147 0.37521273 1.7822063 0.52338433 -0.72101235 0.212495 1.064146 -0.26021922 0.7750148
DSN -0.065213054 -0.92968947 0.25113618 -0.55156714 -0.11127676 0.6315099 0.6496225 0.6549369 0.40350622 0.45486957 1.1562986 0.5797474 -0.1451317 -0.114965886 -0.6222202 0.3252149 0.74873304 0.37149373 -1.2862195 -0.19346066 -0.52057433 0.6543474 -1.28352 -0.9900921
DSQ 1.6248 -0.9187353 0.49728787 -0.1873191 0.27630424 0.50180817 -0.54947275 0.2834326 1.0769589 0.2918083 -0.2336618 1.22635 -0.5599521 -0.42747253 -0.62554383 0.65725535 -0.75743246 -0.29586995 0.30811262 0.99329495 1.6932017 -0.04080481 -0.78338444 -0.6407831
DSR 0.2624336 -0.20285857 1.1652986 -0.3189065 -0.087601155 0.9340134 -0.31031278 0.16642001 -1.1875553 -0.21964763 0.21032253 -0.025894225 0.012696799 0.6021302 -0.5748124 -0.096825734 1.0118496 0.16769086 -0.680295 -1.3289447 -0.15893829 -0.13153133 -0.39666694 -0.45952553
DSS 0.620399 0.27264598 0.6577641 -0.75853074 1.1380984 -1.3828971 0.95757926 -0.0052156746 0.23390937 -0.84826636 0.25378215 1.6836962 0.7364911 -1.047986 -0.6465852 0.3992711 0.51273054 -0.11970028 1.2586939 0.13283277 -0.3372001 0.2219229 0.35900682 0.92199033
DTA -0.50668573 0.61463803 -2.1619918 -0.7071862 -0.4728706 -0.5038795 0.23536608 0.70532775 0.4283749 -1.5458097 -0.42092562 0.41544744 -1.0050583 0.4920819 0.09122959 0.32308555 -0.94181377 0.41072038 -0.3799504 1.231921 0.085014805 0.14762518 -0.78986907 0.0019183159
DTF -1.0880723 0.09023231 -0.12660074 1.0613577 -0.26028407 -0.3717026 0.007229492 -0.34906995 0.42175418 0.046126455 -0.40883574 -0.64500123 -0.671237 0.10698051 0.41342908 1.1257426 0.6529634 -0.12186721 -0.55306417 -0.70379627 -0.6549995 -0.5860599 0.38860434 0.28056148
DTI 0.3781308 -0.48402178 0.024803579 0.10789895 0.3665732 -0.08610123 -0.6020347 -0.21468915 -0.36852995 -0.774942 -1.427835 0.052915573 0.64295715 -0.7314294 0.4849629 0.70726734 -0.08845322 -0.21836135 0.25565583 0.33320087 -1.1092882 0.54846275 -0.8708881 0.47585532
DTL 0.030710965 -0.37296504 0.7083879 -0.45727628 -0.3264701 -0.32981756 0.49495393 0.4417122 0.77581567 -0.42287055 -0.59369314 0.7976668 -0.31498682 -1.4973527 -0.12116957 -0.055411488 -0.13441837 -0.12170756 0.039382994 0.27240434 -0.39563003 -0.5983314 -0.5148996 -0.62241197
DTP -0.6475417 -0.44381902 -1.0323642 0.19540021 0.24940656 -0.692696 -0.95610464 1.164664 0.76033866 -0.20384148 -0.39183268 -0.49779525 -0.95310855 -0.59216523 0.510724 -0.142192 0.47662178 1.0180652 -1.3089776 0.12854068 0.33885664 0.8660283 0.15578501 -0.31453407
